filename,0,1,2,3,4,5,6,7,8,9,10,11,12,13,14,15,16,17,18,19,20,21,22,23,24,25,26,27,28,29,30,31,32,33,34,35,36,37,38,39,40,41,42,43,44,45,46,47,48,49,50,51,52,53,54,55,56,57,58,59,60,61,62,63,64,65,66,67,68,69,70,71,72,73,74,75,76,77,78,79,80,81,82,83,84,85,86,87,88,89,90,91,92,93,94,95,96,97,98,99,100,101,102,103,104,105,106,107,108,109,110,111,112,113,114,115,116,117,118,119,120,121,122,123,124,125,126,127,128,129,130,131,132,133,134,135,136,137,138,139,140,141,142,143,144,145,146,147,148,149,150,151,152,153,154,155,156,157,158,159,160,161,162,163,164,165,166,167,168,169,170,171,172,173,174,175,176,177,178,179,180,181,182,183,184,185,186,187,188,189,190,191,192,193,194,195,196,197,198,199,200,201,202,203,204,205,206,207,208,209,210,211,212,213,214,215,216,217,218,219,220,221,222,223,224,225,226,227,228,229,230,231,232,233,234,235,236,237,238,239,240,241,242,243,244,245,246,247,248,249,250,251,252,253,254,255,256,257,258,259,260,261,262,263,264,265,266,267,268,269,270,271,272,273,274,275,276,277,278,279,280,281,282,283,284,285,286,287,288,289,290,291,292,293,294,295,296,297,298,299,300,301,302,303,304,305,306,307,308,309,310,311,312,313,314,315,316,317,318,319,320,321,322,323,324,325,326,327,328,329,330,331,332,333,334,335,336,337,338,339,340,341,342,343,344,345,346,347,348,349,350,351,352,353,354,355,356,357,358,359,360,361,362,363,364,365,366,367,368,369,370,371,372,373,374,375,376,377,378,379,380,381,382,383,384,385,386,387,388,389,390,391,392,393,394,395,396,397,398,399,400,401,402,403,404,405,406,407,408,409,410,411,412,413,414,415,416,417,418,419,420,421,422,423,424,425,426,427,428,429,430,431,432,433,434,435,436,437,438,439,440,441,442,443,444,445,446,447,448,449,450,451,452,453,454,455,456,457,458,459,460,461,462,463,464,465,466,467,468,469,470,471,472,473,474,475,476,477,478,479,480,481,482,483,484,485,486,487,488,489,490,491,492,493,494,495,496,497,498,499,500,501,502,503,504,505,506,507,508,509,510,511
audio_1.wav,0.03822995,-0.14423732,-0.0029086692,-0.04920078,-0.091226295,0.15327625,-0.20735465,-0.2894822,0.39902133,-0.039191652,-0.09098584,0.027893,0.017487664,-0.26421708,0.31659886,0.24014892,0.3134478,0.087327465,0.117329724,0.040297605,0.2759179,0.13131538,0.082590975,0.4689438,-0.0051815845,0.072091535,0.06862727,0.12036509,-0.31220138,-0.38926432,0.11832191,-0.13365857,0.24975109,0.03901102,-0.14867167,0.14274827,0.20184997,0.03421701,-0.34949267,-0.074058525,-0.05875058,-0.046906885,0.00267156,0.13542792,-0.05003481,-0.011552002,0.093828574,0.21960995,0.022259165,-0.020575427,-0.13555862,0.14602971,0.17364474,0.0001362505,-0.06396537,0.12384863,0.027262604,0.039694123,0.03569694,-0.321064,0.24218543,0.2694381,0.010055114,-0.0924777,-0.13049805,0.036896802,0.28050432,0.24447656,-0.19705285,-0.34881973,-0.21030498,-0.054794285,0.14158571,0.18717673,-0.14179543,0.03442799,-0.2103829,0.09379419,-0.103185624,0.039715737,-0.31997746,-0.01998401,-0.03304482,-0.15409428,-0.08385105,-0.06587936,0.6122207,0.03908352,0.039361235,0.69191945,-0.644804,-0.059543867,-0.17564912,0.17714888,-0.0925142,0.058672216,-0.027584141,-0.008269781,-0.23389432,0.17794217,0.017168922,-0.075611874,-0.09080952,-0.27056774,-0.09989226,0.2601678,-0.09325911,-0.16443713,0.060893852,-0.09839188,-0.035517145,-0.074972495,0.056302246,-1.6874381,0.0060350797,-0.037426885,0.021636378,-0.003883208,0.15871643,0.11109619,0.21042301,-0.04932996,0.060048573,0.045912888,-0.06318539,-0.3455283,-0.017475225,0.16716893,-0.2279051,-0.052537326,-0.014408251,-0.07742624,0.066914074,-0.06375835,0.124824725,-0.14278659,-0.34659103,0.06020976,-0.21223655,0.06600275,-0.118637554,0.28726256,0.13993756,0.08623177,0.05913416,0.071025595,0.007911204,-0.091638,0.055940356,-0.14745672,0.19890279,-0.061200164,0.015770672,0.7134125,-0.13404173,-0.0513973,-0.97283137,0.023037719,0.07588259,0.14270051,0.05950993,-0.075757995,-0.051295873,-0.196092,-0.08340833,0.026852665,0.029391862,0.029066335,-0.15638737,-0.1953496,0.047362722,-0.016019844,-0.1414294,-0.024971476,-0.113811,-0.019775286,-0.045119975,-0.025520723,0.08602749,0.052120753,-0.03136755,0.046034686,-0.24125749,-0.082670584,0.19904394,-0.306244,-0.1657711,0.09573971,0.048941728,0.13966027,0.09765917,-0.34221908,-0.034279786,-0.088444315,-0.035726894,-0.1312222,0.1831635,0.15863366,-0.21988538,-0.21314152,-0.121649526,-0.013388686,0.16542785,-1.0451758,-0.2608783,0.0005734914,0.5277783,0.2154502,0.19439627,0.039880183,-0.14239602,-0.016000597,0.0001681315,0.004423869,-0.011497612,-0.049467906,-0.07973846,0.18264335,0.018591322,0.12903196,0.15228897,-0.09139335,-0.019783147,-0.1533024,0.08266744,0.0059658634,0.18244441,-0.17137124,-0.6066518,0.06587364,0.45138118,-0.033029024,-0.104183,-0.3186279,0.14523003,0.21428134,-0.06504666,-0.20976783,-0.047312763,-0.5900014,0.02122607,0.08728448,-0.07893008,-0.16105573,0.100090116,0.049123917,0.0552229,0.08933225,-0.27925983,-0.044207215,0.07087707,-0.15543139,-0.16421282,-0.087694846,0.2123534,0.1059506,-0.072388835,-0.16392544,-0.18939644,-0.0090808775,-0.043782048,0.0128170345,-0.1284206,-0.022007935,0.10062685,-0.09589938,-0.015238321,-0.003123579,0.056142222,0.035161287,-0.13905896,0.054249573,-0.03688739,0.11025417,-0.18554533,0.033932935,0.019022945,-0.0961253,-0.0903727,0.0037643884,0.16757694,-0.14316288,-0.021383688,0.13393182,-0.24657454,-0.08118539,-0.030787481,0.14706656,-0.12033141,0.014305278,-0.091097206,0.14702742,1.2061144,0.085520305,0.006005783,-0.24756996,-0.1699889,0.08951223,-0.016416404,0.0432242,0.04294082,-0.060209285,-0.20365791,0.34620303,0.05409382,0.12458203,0.007533991,0.14955118,-0.07820742,-0.10793062,-0.21440522,0.0036998526,-0.00052442425,-0.17409265,0.062018074,-0.12520084,-0.13013098,-0.099043906,-0.13277368,0.03419887,0.12002203,-0.057297338,-0.25381064,-11.719981,0.019752352,-0.010802816,-0.055953894,-0.20822981,0.075495124,0.082881935,-0.032451168,0.013050196,-0.0326185,0.023003258,-0.03932235,-0.32971564,-0.04842349,-1.9026855,-0.0656638,0.035478737,-0.08677726,0.1285947,-0.116148226,-0.010147471,0.22674918,-0.004069082,-0.11555366,-0.14960489,0.52552277,0.308817,-0.31071216,0.0033509217,-0.32440317,0.093257956,-0.10106841,-0.09048738,0.45149934,-0.34365803,-0.17159814,-0.101481974,-0.31963536,-0.0025184446,0.063262776,0.08517902,-0.15185125,-0.16687,-0.059454843,0.2098451,0.011456876,0.13284034,-0.05801765,0.010933939,1.0504895,-0.04365196,0.107087485,-0.027645573,-0.20683841,-0.14238852,-0.03668086,-0.09028145,-0.13542949,-0.21449776,-0.17929997,-0.15862711,-0.17476107,-0.22593856,0.49218354,-0.04329217,5.340674,-0.01018892,-0.5748866,-0.18582532,0.25996837,0.17388397,0.24007986,-0.049636163,0.22453609,-0.4322804,-0.22922611,0.22822818,0.02099525,0.37667,-0.091152936,-0.23124023,-0.1495976,-0.033847947,-0.082298815,0.08589503,0.97645587,0.052983753,1.3466799,0.4267977,0.00664586,0.009171286,-0.11205198,0.10790498,-0.02609402,0.063621745,0.13217427,-0.1584409,-0.11848464,-0.18788621,-0.0051015406,-0.03824861,-0.14017402,0.52642614,-0.11715857,-0.10246269,0.1576604,0.046763405,0.19393086,-0.06464748,-0.0859786,0.020892108,-0.23477124,0.18065183,-0.056948666,-0.1794318,0.16084601,0.08012858,0.25125945,-0.30824852,-0.13480939,-0.13391836,-0.22615297,0.0035473048,0.270366,-0.24500147,-0.095184654,-0.09409413,-0.062410552,0.10581459,0.3684825,0.07019798,-0.07084019,-0.22424279,0.24613908,-0.09987343,0.14430805,-0.11411021,0.0062050363,-0.18291056,0.28086576,0.10382659,-0.029431421,-0.11442155,0.14699692,-0.05659744,-0.07160203,0.11480841,-0.13329798,-0.06528595,-0.24503088,0.0277101,0.03332632,-0.033501003,0.26786742,0.18073185,0.20644587,-0.10113007,-0.07089805,-0.21594082,-0.073998824,0.20641522,0.3795055,-0.32636455,-0.31704867,0.03901974,-0.0034141159,-0.048666432,0.039534234,0.10194236,-0.048940044,-0.27084455,0.26326907,-0.054696646,-0.10250022,-0.007020999,0.020456713,-0.00066587573,-0.11960995,-0.13212764,-0.056869894,-0.14121488,0.12542754,-0.23439237,0.4566228,0.13930444,0.053458124,0.22096221,-0.31617716,-0.122003354
audio_10.wav,0.02220839,-0.020147545,0.015699472,-0.052247338,0.11177817,-0.093301654,-0.1318224,0.0037836775,0.6223079,0.17272888,-0.08109236,0.11255196,-0.061846774,0.062270295,-0.13471319,0.033262394,0.09377901,0.119143225,0.075699806,-0.008875829,0.12589426,-0.19926521,-0.03461541,0.033632033,-0.04159931,-0.20514986,-0.080982,0.13450614,-0.16188745,-0.2116957,-0.025648687,-0.18124808,-0.10349284,0.015446907,0.07528469,-0.067278594,0.09962188,0.1411314,-0.032159984,-0.0025324542,-0.17734738,0.16930495,-0.08102661,0.10226683,0.003862803,0.16296808,0.046606872,0.15521757,-0.09576438,-0.012555224,0.048939727,-0.1224683,-0.0702597,0.07488679,-0.003641507,0.051885035,-0.022797119,0.12345485,-0.010714452,-0.13293274,0.06344027,0.06274684,0.0049443347,-0.0073897233,-0.10005589,-0.020665567,0.083621964,0.14633366,0.1551902,-0.38710773,-0.030342352,0.06214103,-0.14428523,0.02539538,-0.047089484,-0.028929718,0.33655134,0.023725728,0.072148964,0.0117174145,-0.10214942,-0.21820174,-0.15817328,-0.17090523,-0.022119071,-0.22310165,-0.31549153,-0.025925172,0.16473584,-0.6744886,-0.1064774,-0.063130185,0.0063120835,0.19205366,0.09042482,0.011589673,0.801,-0.054444976,-0.11016456,0.13500576,-0.04084746,0.10421405,0.09568553,-0.42959407,0.08167385,0.08301959,-0.0214389,-0.18181069,0.22645056,-0.14109328,0.010068016,-0.08369136,0.04109214,-0.4727485,0.02457843,0.13407996,-0.05430843,-0.014886986,-0.07538925,-0.1682598,0.0007673454,-0.056518137,0.11415674,0.12254095,0.017297495,-0.04745342,-0.014216792,0.09180568,-0.028163437,-0.038285602,-0.18571712,-0.065061666,0.031197174,-0.13473563,0.2175155,-0.041876137,-0.47121578,-0.05433147,0.034989417,0.05813059,-0.0009858882,-0.021412054,0.017617924,-0.16709131,-0.010600083,-0.10707844,0.037325367,-0.032812603,-0.13243918,-0.14996976,0.099753454,-0.024258543,0.013052714,0.032068606,-0.10542466,0.23056705,-0.4396097,0.024038559,0.20839392,0.1648509,-0.07917808,0.012488846,0.1535948,0.037377797,-0.11891536,-0.006635481,0.022249175,-0.07411405,-0.17690645,0.08802656,0.22587577,-0.0050388146,-0.084497996,0.013050659,-0.11759195,0.27282435,0.048711054,-0.09033211,-0.03327145,-0.16484196,0.18963012,0.14043126,0.004720093,-0.1737756,0.075888485,-0.15147209,0.024023453,0.042303354,-0.09893782,0.24280931,0.108453654,-0.1967288,0.069578595,0.016084224,-0.049141396,-0.028764939,0.09107007,-0.042481083,0.037788812,-0.1170746,-0.1336823,-0.03634888,-0.027238267,-0.1037414,-0.06284244,0.100665405,0.22000101,-0.06722436,0.02541708,-0.100138,0.044687394,0.07107158,-0.010200317,-0.11670778,0.1420369,0.0057664644,-0.044526447,-0.063242204,0.173378,0.03948959,0.08580386,0.11156195,0.024241338,-0.16917443,-0.07298127,-0.04772165,-0.0011363805,-0.1468135,-0.55750287,0.103128314,-0.12184759,0.05055223,-0.24235006,-0.19084771,-0.019753529,-0.04900978,-0.08712386,-0.051725514,0.010108556,-0.9361499,0.2549701,0.18337032,-0.019563193,-0.0342639,-0.05640219,-0.14470693,-0.07440809,0.26195547,-0.044934895,0.056956597,-0.11150712,0.07416501,0.16597955,0.24188179,0.04185218,0.22377893,0.12358836,-0.30885953,-0.070832446,-0.012771124,0.11942152,-0.11454988,-0.08979452,-0.027379196,0.014685669,0.0014050648,0.004928951,0.031458974,0.19552189,-0.004407102,-0.13255176,0.08921798,0.013069122,-0.029212026,-0.1373997,0.048560586,-0.31647995,-0.09520104,-0.20344242,-0.064838134,-0.018912915,-0.0364431,-0.062165335,-0.0845503,-0.19932862,-0.22722632,-0.077623695,-0.22097078,0.10361286,0.026336545,-0.02267003,0.078591816,-0.19127856,0.11391044,0.10525788,-0.14179142,-0.028190626,0.11159062,0.0047005843,-0.0519429,0.123229235,0.14751463,0.04439407,-0.1256486,-0.109294124,-0.2862417,0.084149756,0.054249924,0.09733524,-0.021971172,-0.09456611,0.008595828,0.18354602,-0.028004339,0.23017493,-0.3110709,-0.3178334,-0.034879923,0.027844483,-0.04396102,-0.0044060647,-0.010395199,-0.075982206,-9.694548,-0.12853175,0.02465855,0.10515876,-0.0704061,0.08487319,0.0032290763,-0.10306655,-0.11730975,-0.1502972,-0.06568829,-0.12224958,-0.04528639,-0.0021466338,-1.8970563,-0.13550185,-0.016466321,-0.20031087,0.040223654,-0.15834476,0.0006532661,0.0094251335,0.2658879,0.40832773,-0.031368606,-0.3540008,0.24005468,-0.04099826,-0.0785563,-0.18526427,0.026711546,0.2234657,-0.09196082,-0.0078092166,-0.022430364,-0.19855623,0.07978499,-0.018514764,-0.20912504,-0.040184528,0.05730065,-0.09169283,0.02570719,-0.23114559,0.06463981,0.2341396,-0.05994936,-0.14543478,-0.1226874,0.9241797,0.11425066,0.092522524,-0.033020873,0.015916558,0.114006154,0.11307638,0.019533737,-0.2238897,-0.22809868,0.049118586,-0.073864184,0.1682619,-0.03564451,0.1390714,-0.03877274,5.307219,-0.033891916,-0.09902234,-0.15284652,-0.09551142,-0.057448577,-0.772234,-0.053600494,-0.061631333,-0.2871807,-0.05322228,-0.12012994,-0.12902676,-0.0041256365,0.026524907,-0.070110455,0.0999343,-0.03751039,-0.051523905,0.091999196,-0.0045119068,-0.10274481,1.2639881,-0.39574808,-0.2914652,0.09037134,-0.09624292,0.121133044,0.1605794,0.1454947,-0.052324854,0.13128479,-0.30449176,-0.03859844,-0.0007368927,-0.0010992393,0.009676152,-0.21169856,0.029435484,-0.11316763,0.16967762,0.06554093,0.11854597,0.1806163,-0.011895982,-0.053833842,0.14223017,-0.026885157,-0.1544426,-0.15865648,0.15938932,-0.024934143,0.1279507,-0.17048942,-0.17204952,0.021484626,0.05482609,0.02200237,0.19074316,0.0011346015,-0.08220534,-0.068736985,0.041442383,0.22189471,-0.08643862,-0.07784247,0.06814141,0.17851654,-0.029842794,-0.14917067,-0.14864099,0.27646124,-0.10831368,-0.09560754,0.12543793,0.01929198,-0.3070033,-0.072319634,0.038403954,0.032125205,0.056990948,-0.033119723,-0.027491102,-0.098316446,-0.05389092,0.088618465,-0.08708467,-0.057764594,-0.46563786,-0.046878193,0.19998327,0.03210687,-0.09729513,-0.1539228,-0.096945904,0.20271948,0.20557766,0.038599297,0.09130977,0.21509668,-0.11464451,-0.059932128,0.03386921,-0.07165135,0.16153392,-0.030693933,0.04277454,0.03995466,-0.10355711,0.008289052,-0.10329438,0.24868825,-0.032131072,-0.11925167,0.0077613723,0.04438868,0.011015816,-0.046657998,-0.023159161,-0.006709428,-0.2418933,-0.054828975,0.0147970095,-0.12930566
audio_100.wav,0.042715974,-0.051949024,-0.05571882,-0.033036344,-0.0015617141,0.032107163,-0.019381845,-0.19476944,0.4695739,0.026477499,-0.043347336,0.011711037,-0.1481383,-0.34283808,-0.028535161,0.044083837,-0.03979038,0.28326964,0.018821284,-0.02877096,0.26203898,-0.006720272,-0.016818214,0.25341216,-0.10414207,-0.12879862,0.01946804,0.08410505,-0.12529586,-0.34930888,-0.17764802,-0.0886715,0.0911899,0.2659472,0.043496825,0.049277388,0.15753125,0.038240828,-0.03580609,-0.1555339,-0.14517437,0.29479778,-0.0769819,0.06418865,0.030125387,-0.037244968,0.26049253,0.18220703,-0.066999756,-0.09296832,-0.39595842,-0.07209237,0.06203057,0.0167153,0.1643973,0.16569293,-0.016071036,0.02415176,-0.05481783,-0.103235126,0.06285418,-0.23239027,0.008794116,-0.09142253,0.08295115,0.15254673,0.08707774,0.27710566,-0.24298854,-0.31166074,-0.12664424,-0.073317096,0.024413005,0.05214977,-0.05950215,-0.14933604,-0.2178025,0.0145796,-0.22360587,0.0826208,-0.14660856,0.09249669,-0.04728234,0.109846294,-0.07905895,-0.013660629,-0.35405478,-0.10086761,0.19798796,-0.02011574,-0.355514,-0.23981903,-0.10088352,0.044753835,-0.016266672,-0.043688346,0.2619324,-0.0629459,-0.1903125,0.15667424,0.120369814,0.027534487,-0.09240509,-0.35477814,-0.082712635,0.05652594,0.047877055,-0.09238629,0.016831107,0.06345527,0.02687113,-0.017612599,-0.04627604,-1.42172,-0.03763003,0.26601034,-0.10589001,-0.042665772,-0.044128563,-0.039617807,0.0828629,-0.13264121,0.1874752,0.20525521,0.1529016,-0.17884004,0.12705725,0.29554638,-0.04738799,0.0443429,0.0069596963,-0.07037885,-0.17200938,0.05271728,0.061333973,0.06912969,-0.4991629,0.15467936,-0.18253873,0.1146399,-0.11697728,-0.008365286,0.057563167,-0.0061510587,0.032014977,0.07487964,0.00679205,-0.12611613,0.025929844,-0.00080319657,0.124053925,0.009680078,0.036749125,0.12637062,0.060575575,-0.011841746,-0.27455822,-0.046881348,0.013518989,0.09226614,0.12518029,-0.046461217,0.08201947,-0.17425695,-0.097314425,0.0040127,0.04996069,0.07175237,-0.388245,-0.14116275,0.10282144,-0.16050205,0.021935755,-0.112707175,-0.18797928,-0.19238578,0.09579757,-0.059379607,-0.0665001,-0.02196915,0.133256,-0.076069385,-0.0044618007,-0.14287262,0.14867409,-0.13157676,-0.059679788,-0.03117611,-0.012807477,0.024950938,0.15428656,-0.052836496,-0.016251016,0.05882027,-0.32323015,0.005853385,0.13188064,0.14031933,-0.07578077,-0.039953124,-0.25173387,-0.22010218,0.15143357,-0.37620223,-0.13302289,-0.03385295,0.12951812,0.016473386,0.057072937,-0.09394907,-0.15916894,-0.0762449,0.015503062,-0.03247005,0.04717751,-0.088786304,0.09867431,0.09728476,0.045286987,0.32830882,-0.036238674,-0.047065288,0.039623313,-0.1759594,-0.012029849,-0.1277877,0.18822189,-0.14649355,-0.72922117,0.2145061,0.09172563,0.096111774,0.00507357,-0.12978503,-0.13735662,0.080477186,0.07639683,-0.1783057,-0.10334999,-0.57106125,-0.14130476,-0.00943462,-0.034441456,-0.28049293,0.2584871,0.07493149,0.07881251,0.22629635,-0.21419096,-0.08819759,-0.0046373988,-0.066226825,0.13196148,0.0854519,0.052088257,0.1752134,-0.14473309,0.09514658,0.071254306,0.009671691,0.06617037,0.10476718,0.0051023406,0.06141327,0.04553617,0.011695424,0.009715509,0.05824226,0.16666757,0.12924609,-0.02046641,-0.046763968,-0.029767478,-0.03714712,-0.22789538,0.020616602,0.05858394,-0.0012019059,-0.028877676,-0.102480866,-0.022607896,-0.13323745,-0.13975006,0.16664279,-0.07774495,0.00037152861,0.0689882,-0.19278334,0.1329909,-0.020365033,0.06491364,0.09684594,0.24817431,0.135939,0.14933266,-0.12814726,-0.035079055,0.1352529,-0.07952856,-0.041228026,0.058664214,-0.03495681,-0.18687263,0.06689534,-0.07153388,-0.0074787545,0.13087747,0.12543155,-0.057799336,-0.06618034,-0.01662129,-0.07567329,0.2866303,-0.5688512,0.08772211,-0.017564647,-0.22230986,0.07401194,-0.13936572,-0.03419747,0.029214283,0.08092177,-0.105994016,-11.401746,-0.019985965,-0.057893466,0.062110055,-0.13777228,0.11183698,0.08294066,0.09366154,-0.09057546,-0.19547956,-0.013918326,0.019511424,-0.34216985,-0.090041675,-1.7970304,-0.06473313,-0.06273187,-0.024159765,0.22825056,-0.10728107,0.06361804,-0.030677505,0.12396581,-0.112404995,-0.16150048,-0.016303677,0.3273933,-0.10333576,-0.080462344,-0.01268432,0.25879773,-0.1270377,0.024652213,-0.14720711,-0.031480048,-0.17227006,0.010701372,-0.19413537,-0.11048759,0.016210806,0.4109379,-0.0043022516,-0.038183145,-0.14029743,0.010412784,-0.022715377,-0.04486109,0.119042315,0.101073824,0.9111885,-0.039833978,0.0327486,-0.041267663,-0.07374579,-0.24082813,-0.09408608,-0.10327489,0.04068298,-0.12863834,-0.19392739,0.08536232,-0.17362326,-0.051716693,0.1774512,-0.06524311,5.1427283,-0.029590169,-0.16803464,-0.07379814,0.121334895,-0.010295211,0.43220213,-0.02635257,0.1142746,-0.20067424,-0.054052074,0.07344904,0.14153893,0.0732868,-0.03283231,0.064589456,-0.09461322,-0.15135083,-0.07961329,0.116819516,0.41817114,-0.018089147,1.4262402,-0.14454538,-0.1445702,-0.030562187,-0.036904916,0.12521236,0.09560253,-0.0008441302,0.026471427,-0.007076977,-0.21076114,-0.11063875,-0.07656101,0.18851215,-0.12094866,0.19171663,-0.14009926,-0.10500584,0.19925378,-0.004160354,0.14327052,0.11450824,0.06631858,0.036684982,-0.07061026,-0.08535714,-0.025822524,-0.09725911,0.040721912,-0.2247808,-0.089428,-0.0565468,0.006684054,-0.11364225,0.08906325,0.094327606,0.039168984,0.031088892,0.048683777,-0.10883777,0.04563511,-0.030136652,0.22696365,-0.0990906,-0.04043382,0.086461164,0.05136846,-0.29629865,-0.018303677,0.11607677,-0.068067685,0.18481201,0.05185704,-0.05267505,-0.06656677,-0.03746659,-0.053319074,-0.20242155,-0.09872575,0.049101975,-0.07279758,0.020500425,-0.08154051,0.13066292,0.23564717,0.0054459013,-0.03621487,-0.0032953834,-0.0244907,-0.15241222,0.04067262,-0.03922848,-0.09096901,0.0794517,0.2572822,-0.0087740505,0.11040765,-0.08118737,-0.092016794,0.051648676,-0.104268774,0.15785691,0.038833246,-0.36670068,0.21313354,-0.15937017,0.027658833,-0.12405135,-0.05920376,0.008819994,-0.093314625,-0.1172137,0.0021179758,-0.19370793,-0.055709563,0.07307417,0.3382953,-0.093226105,-0.0498201,0.13718508,-0.14707088,0.121779665
audio_101.wav,0.068946086,-0.20111646,-0.12787151,-0.21700057,-0.113193534,-0.008441483,-0.052243292,-0.1920386,-0.13330531,0.05462413,-0.21701127,-0.095714964,0.07150132,-0.13978322,-0.028120462,0.0928504,0.12887982,0.13886207,0.12304429,-0.026966527,0.31386676,0.12995192,-0.026822772,0.19684681,-0.018647462,-0.23615506,0.020276267,-0.09109444,-0.35722217,-0.3389895,-0.20147231,-0.117116995,0.30193257,0.06309264,-0.058079682,0.1435892,0.20598081,-0.08398608,-0.18744737,-0.16377029,-0.15332256,0.16202085,-0.093539916,0.050011296,0.10485175,-0.038596988,0.18311071,0.18697123,-0.09780143,-0.029605387,-0.15343258,-0.00746412,0.24365006,0.081211485,0.10519268,0.009319585,-0.2773452,-0.09574456,-0.107823975,-0.19627842,0.14298898,-0.03906697,0.15339194,-0.14448683,0.014923335,0.17307699,0.2060507,0.2593651,-0.27227202,-0.2847286,0.0496582,0.056686547,0.13677216,0.11224915,-0.06151876,0.06712948,-0.10660314,0.06888396,-0.10751457,0.14723794,-0.26600394,0.16431813,0.065657586,0.094448365,-0.13327496,-0.19073804,-0.44322085,-0.05062386,0.12256232,0.4649398,-0.5760977,-0.18729581,-0.02024469,0.2057723,0.038092464,0.15582465,0.006910136,0.087998554,-0.039984614,-0.12819111,-0.013069918,0.16186985,-0.18995093,-0.103679605,-0.120871656,0.29411295,0.18235725,0.034792744,0.039347455,0.12616664,0.13711126,-0.13332461,-0.05971654,-2.186059,-0.08771284,-0.019451372,0.035274666,-0.031773914,0.03446698,0.1374244,0.1609348,-0.18215743,0.30352768,0.43848047,0.15317234,-0.21476102,0.03270669,0.22886465,-0.007878915,-0.2000286,-0.016515149,0.047627907,0.1862092,0.045052856,0.14365049,-0.20551814,-0.5907504,0.13581048,0.018368995,0.27559644,0.092589006,-0.0123394355,0.1554317,0.08528343,0.07539989,0.3028058,0.14800315,0.19101754,0.0770245,0.039587606,0.023714326,0.07193782,0.07443644,0.2830129,-0.008086132,-0.012833673,0.014355036,0.006122402,-0.02279831,0.18801336,-0.004245645,-0.10524308,-0.12333535,-0.108588055,-0.10330256,0.04693125,0.19832015,0.09402151,-0.31569764,-0.27436882,0.13574006,-0.11375937,-0.047684703,-0.079890236,-0.086943194,-0.12827718,-0.04480675,-0.028333984,-0.2402384,-0.026701957,0.238758,0.024832407,-0.17798047,-0.113677226,0.033752643,-0.17471132,-0.20687637,0.022793792,-0.14408766,0.10556611,0.20298062,-0.041211,0.05535525,0.09837818,-0.3997434,-0.062408008,0.08581214,0.0024687164,0.047037333,0.06451024,-0.044363827,-0.028158983,-0.046775877,-0.0723195,-0.11799461,0.054376658,0.396802,0.27391946,0.012149045,0.015533671,-0.09768098,0.08042878,-0.086744934,-0.05938392,-0.098057516,-0.06516292,0.015704874,-0.026388722,0.016568545,0.12075099,0.0942705,0.0825824,-0.03842622,-0.15688637,0.08738552,-0.20826627,-0.0014669196,-0.057173196,-0.5618571,0.26405305,0.14366336,0.20203327,0.07509296,-0.28402925,-0.07092627,-0.11003843,0.021997808,-0.24235824,0.08380664,-0.29910377,0.1047147,0.12926249,-0.13153613,-0.19888729,0.21958876,0.13134755,0.12572469,0.13347723,-0.207288,-0.06857302,-0.14179564,-0.047127526,0.19609505,0.03105479,0.17450553,0.040956248,0.008670455,-0.046459183,0.009253634,0.04422831,-0.047786195,0.18094102,-0.06928185,0.13526724,-0.06220159,-0.18432857,0.110470295,-0.20095502,0.097552165,0.19119799,0.11905721,0.008012646,0.050913043,0.011372631,-0.2617705,-0.031520303,-0.2706163,-0.15059163,-0.16448568,-0.16740325,-0.022480967,-0.078602195,-0.12222095,-0.04755588,-0.054009415,-0.0902519,0.09459782,0.03155221,0.034516662,0.035095565,0.062791914,0.02076846,0.8074936,0.028321663,0.011468943,-0.014221443,0.068302676,0.258979,-0.07420308,0.0406234,-0.13303086,-0.051602863,-0.11452345,0.1763784,0.03112346,0.00072581606,0.2990414,0.034204647,-0.18776897,-0.06378232,0.09600795,-0.1262034,0.24221618,-0.38501182,0.07561335,-0.09686318,0.0038018366,-0.24974845,-0.11302544,0.060460478,0.05314018,0.13710149,-0.040906318,-12.511794,0.072251335,0.049169708,0.16712876,-0.27938595,0.04261218,0.10238163,0.22083451,0.07672186,-0.044053383,-0.017256575,-0.13225774,-0.35371312,-0.036401983,-0.65437424,0.029259037,-0.05401159,-0.0406434,0.26962173,-0.23582344,-0.049371418,0.15173787,0.06456153,-0.4472503,-0.3384656,0.550421,0.21032116,-0.24740413,-0.0016228841,-0.18035083,0.14225745,0.0993328,-0.031222405,0.30072558,-0.09870465,-0.11229386,0.034224406,-0.1435001,-0.2616318,-0.027465751,0.21499485,-0.15092799,-0.10558057,-0.043032374,0.03890723,-0.19983508,0.08427693,-0.10071439,0.09656352,1.4168473,-0.38292423,-0.16640906,-0.06412531,-0.05735801,-0.22004598,-0.13410303,-0.06291723,0.08962449,-0.17436011,-0.25238624,-0.087737754,-0.166151,-0.11941908,0.25995356,-0.14634901,4.681371,0.05212464,-0.4592577,-0.12936993,0.1957347,0.018275525,0.35708883,-0.020776065,-0.067028224,-0.048024647,0.090312876,0.18120125,-0.028790383,0.11656237,-0.11763048,-0.13743839,-0.08131755,-0.33674404,-0.04014952,0.08385028,0.7664707,-0.055578947,1.2571408,-0.145304,-0.004442955,0.016183134,-0.080883816,0.17350331,0.02266384,-0.099315904,0.09947111,-0.08160426,-0.27891496,-0.08851874,-0.14166695,0.016580662,-0.17049652,0.24458325,-0.19314672,-0.012826956,0.20888956,-0.16263345,0.2587065,0.0016203359,-0.11123755,0.003795428,-0.07976961,0.1134129,-0.007897555,-0.13940772,0.21737675,-0.071919836,0.12569182,-0.22709818,-0.08022049,-0.18429548,-0.17244816,-0.18833241,0.14637588,0.08913736,-0.20138766,-0.16620563,-0.09940684,-0.048256468,0.39071426,0.02577472,-0.05681151,-0.124366656,0.12988321,-0.1763986,0.03364815,0.072888285,-0.1774789,0.11832039,0.18621516,0.08268523,-0.20752935,-0.19371663,0.13695008,-0.10510664,-0.23545887,0.061977763,-0.20860448,0.09455324,-0.120530784,0.15309796,0.08784082,-0.029282415,-0.071414836,0.2248632,-0.2920837,-0.14798474,-0.10495946,-0.089503944,-0.048125554,-0.16032094,0.31967533,-0.297134,-0.12163063,0.02702445,0.044388916,-0.079038575,0.09911458,0.14256896,0.2283936,-0.1866959,0.19333115,-0.2839019,-0.03558128,-0.059904452,0.041911367,-0.12052523,0.022169258,-0.04509251,-0.20798875,-0.10928209,0.055805195,0.06395405,0.28288046,-0.009164304,0.1355538,0.07598598,-0.34446982,-0.09432627
audio_102.wav,0.0006888498,-0.12327746,0.015492645,-0.012558319,0.114951774,0.30046582,-0.096851856,-0.38287124,0.21064888,0.008697546,0.057481743,-0.010188167,0.024655132,-0.26754093,0.2563034,-0.042503405,0.069406144,0.1780543,0.084072106,-0.05397337,0.16229974,-0.10059181,0.15702535,0.45013276,0.06435363,-0.24515499,-0.024884455,-0.12909849,-0.118133746,-0.41153282,-0.07917703,-0.07471981,0.37397954,-0.08289145,-0.17547102,0.07111294,0.23899569,-0.19387521,-0.16368127,-0.07574148,-0.12705165,0.044133265,-0.13008244,0.07510997,0.10441692,0.03353912,0.08513073,0.11168175,0.082447715,-0.15926589,-0.08382162,0.022894764,0.2365374,-0.034403495,-0.0012568776,0.0028227908,-0.06931544,-0.04967638,-0.06268344,-0.23633303,0.21954787,0.070777945,0.028247401,-0.08480904,-0.15929514,0.1432433,0.07497387,0.28464216,-0.05223572,-0.3499484,-0.1999515,0.10489331,0.25003934,0.15538049,-0.09996517,0.012254505,-0.08849028,0.004095014,-0.31303054,-0.08149213,-0.062369578,-0.066366166,-0.009779289,-0.020173235,-0.06691151,-0.17385231,-0.31569698,-0.07304255,0.241659,0.31882265,-0.3699117,-0.07116918,-0.018989343,0.0622099,0.08195667,0.2078621,-0.25249913,0.06243856,-0.08805577,0.07582343,-0.044925675,-0.13482633,-0.06121872,-0.23442848,-0.32306883,0.09607394,-0.06574881,-0.044302512,-0.12603895,-0.22243878,0.103736795,0.035975292,-0.103835694,-2.2990396,-0.003269947,0.20908296,-0.0019344275,-0.16965185,0.12080233,0.15211754,0.269957,-0.32479262,0.10449955,0.24307422,0.13279724,-0.2944287,-0.07690503,0.07180988,-0.028168563,-0.14297748,0.06148585,-0.023227353,-0.047468364,-0.041828543,0.08116198,-0.121897906,-0.5510208,-0.0415336,-0.12842977,0.06733092,-0.12266331,-0.00021895408,0.022693511,0.25505304,0.17076737,0.35326415,0.0787469,0.10315791,0.10999289,-0.42621055,0.10132926,0.0011254171,0.03389156,0.85850626,-0.19847326,-0.064688,-0.30956408,0.012288462,0.013189741,0.22273701,0.27013126,-0.06309037,0.05929884,-0.033250894,0.039907817,-0.0035936178,0.115162514,-0.026874682,-0.28186104,-0.10217513,0.059469823,0.055956095,-0.06372057,-0.0976312,-0.05895991,-0.15214793,0.083240405,0.048253246,-0.05147895,0.1878632,0.19309059,-0.08236191,-0.15623687,0.12856571,0.19425113,-0.39934278,-0.13387085,0.073824674,-0.16394785,0.22487865,0.108604915,-0.14192966,0.032117408,0.17801388,-0.42012915,-0.14573687,0.041566323,-0.022090796,-0.14919958,-0.26390052,-0.06572777,-0.31207144,0.063334584,-0.85628366,-0.08436768,-0.02162984,0.43037936,0.27688575,-0.093272306,-0.16460824,-0.20705809,-0.04611142,-0.080655284,-0.02132151,0.11675415,-0.04384386,-0.2623654,0.0137038035,-0.12194759,0.2104606,0.02756102,-0.12134089,-0.11695918,-0.18209204,0.16543686,-0.12833509,0.17597276,0.06750925,-0.41337562,0.09205505,0.22428694,0.17208044,0.100314066,-0.43207344,0.015114985,-0.008752617,-0.00011735662,-0.3060784,0.15032624,-0.51985455,0.010922028,0.08281561,-0.08643347,-0.053319,0.38810316,0.13832568,0.04086901,0.025046663,-0.39608023,0.12908946,-0.19359383,0.08242752,0.0040594786,-0.04495011,0.17899394,0.0991528,-0.30476046,-0.076617524,-0.18971299,0.24088053,-0.02739507,0.07550626,-0.0025647804,0.076657325,0.0076860795,-0.15243483,0.08332566,-0.08826296,-0.0011641452,0.15945888,0.1468773,0.0026576624,-0.057657756,0.10431671,-0.33074248,0.08208639,-0.1941698,-0.12171118,-0.08644536,-0.09090057,0.053791698,-0.010424977,0.09585858,-0.068508066,-0.122571595,-0.21541904,0.062303573,0.14765151,-0.14541166,-0.08394692,-0.0026645493,0.027632654,1.0177255,-0.078198254,-0.09850498,-0.23174015,-0.069739066,0.47483146,0.07538251,-0.18666461,0.013196969,-0.23909241,-0.12961833,0.098956704,0.06823356,0.04921231,0.0668466,0.20331758,-0.07887383,-0.19579081,-0.011816003,-0.03623488,0.14125702,-0.46251208,-0.047023885,-0.043947957,-0.0495608,-0.089353554,-0.21735515,-1.5505473e-05,0.006011351,0.1808596,-0.07664285,-12.564294,0.18278728,-0.07960153,0.11463684,-0.20143396,0.014522073,0.15308219,0.072980754,0.11237881,-0.23619893,-0.027051687,0.069736436,-0.4067422,0.008143041,-0.92194724,0.0405843,0.021100165,-0.055658992,0.2425977,-0.17487927,-0.07094421,-0.045783404,0.032433547,-0.36361116,-0.18499756,0.27451494,0.32570636,-0.100459,0.06452745,-0.17578235,0.22492798,-0.051517367,-0.018616991,0.2839543,-0.1466221,-0.05556176,0.14597754,-0.16849265,-0.14852262,0.03305478,0.2720717,-0.032778937,-0.2603251,0.013224188,0.22517525,-0.2725659,0.06691503,0.052560266,0.14887883,1.2957451,-0.08661284,0.016313098,0.003417733,0.011226829,-0.116976015,0.022231184,-0.12533562,-0.00928156,-0.14741132,-0.18828972,0.0075117517,-0.10042268,-0.076654136,0.50825685,-0.03248421,4.840649,0.096075796,-0.42418012,-0.062351797,0.2524797,0.028889582,0.22926216,-0.10708086,0.035996713,0.08573348,-0.108581886,0.117850766,0.02205931,0.22376788,0.08632473,-0.13853581,0.072745666,-0.21541451,-0.062343173,0.15091178,0.8075858,-0.014179561,1.0551158,0.13305424,0.051776927,0.09631126,-0.010014524,0.12588248,-0.049038496,-0.030520976,0.1272476,-0.030860152,-0.342457,-0.0826618,-0.021049261,0.13766702,-0.062189512,0.8883021,-0.19071293,-0.0556774,0.19546199,-0.10963857,0.34685782,-0.06780059,0.101201296,-0.092978485,-0.055092573,0.033611756,-0.016834885,-0.10025794,0.2006005,0.04189129,0.01880741,-0.21104103,-0.110376656,-0.13566121,-0.22997396,0.09394714,0.054617517,0.023531742,0.049006745,-0.021231629,-0.18368731,0.08812961,0.27634117,-0.051606063,0.0385919,-0.17284477,0.15808812,-0.14163305,-0.033095628,0.035318304,-0.065762565,0.047380503,0.21984558,0.2236777,0.112030365,-0.27576634,0.14063887,-0.028470393,-0.2193945,-0.17628136,-0.11925203,-0.0065834336,-0.19820203,0.034388505,-0.02160422,0.22313496,-0.12138128,0.11497304,-0.24720743,-0.23861538,-0.054538324,-0.1115119,0.031539932,0.029199721,0.33955702,-0.16579917,-0.27547958,0.06902228,-0.094875365,0.075947165,-0.050760273,-0.049513783,0.1108606,-0.18147856,0.19507687,-0.11011116,-0.14402623,-0.09826739,0.049420197,0.008900193,0.121447675,-0.10506278,0.021866595,-0.15979508,-0.054993503,-0.2110499,0.2161446,-0.08407269,0.038670372,0.11998541,-0.2447723,-0.18354858
audio_102_2.wav,-0.07224705,-0.14029512,0.07794063,-0.033888068,0.031907957,0.17371732,-0.09823203,-0.26324472,0.23505749,-0.088610835,0.011206143,0.033652157,-0.0075029284,-0.16698252,0.18765771,0.042120755,0.1174467,0.23342279,0.22424488,-0.033525623,0.19008154,-0.11254396,0.01846458,0.29977882,0.002657242,-0.26549584,-0.034013975,-0.006675888,-0.034137495,-0.5526324,-0.19158186,-0.202727,0.38631955,0.029000644,-0.17913206,0.029607518,0.25996956,-0.18413144,-0.13945311,-0.11339157,0.024859436,0.21870385,-0.11214701,0.0818967,0.08229695,0.03799809,0.03127134,0.038812645,0.029488822,-0.19314644,-0.1096923,0.0242226,0.13854231,0.05516854,0.017342402,0.015471966,-0.03531445,0.0002057832,-0.082868755,-0.19799682,0.18532673,0.13192426,0.097706206,-0.039068278,-0.15614094,0.13188346,0.054026764,0.20722805,-0.012823176,-0.18704532,-0.16450945,0.09238332,0.18114994,0.15408628,-0.13782941,0.038949806,-0.09309135,0.01369247,-0.20182417,-0.019193515,0.032189976,0.0070532034,0.10280161,0.064269304,-0.044530008,-0.22864205,-0.3811814,-0.12973197,0.22844252,0.44136897,-0.3274899,-0.07819924,-0.015052142,0.050180823,0.056530617,0.20741406,0.012995279,0.118324414,-0.04234129,0.16131638,-0.06632126,-0.11291429,-0.1376323,-0.2454517,-0.31645474,-0.038066857,-0.051950887,-0.08519098,-0.021783765,-0.18774007,0.09991536,0.090821154,-0.04234129,-2.2957232,-0.08554155,0.097000524,-0.04363695,-0.16976878,0.066788994,0.17474957,0.27209225,-0.31259376,0.18234274,0.29215947,0.1583619,-0.26546517,-0.0064104334,-0.0025112533,0.04396184,-0.08894317,0.09701856,-0.0016512388,0.10635069,-0.06070739,-0.08677543,-0.11728104,-0.5571625,0.012597122,-0.10425083,0.09815909,-0.008556755,-0.09485893,0.10334472,0.19245595,0.19097482,0.3019807,0.045195576,0.1262219,0.04091797,-0.33978996,0.060261544,0.00836606,0.10470306,0.8166235,-0.16145447,-0.073772885,-0.3359765,0.0067931795,0.037891142,0.17512706,0.28809893,-0.00922937,0.05933119,-0.04710313,0.07285201,-0.0102301985,-0.0005026334,-0.045212906,-0.23160335,-0.109748535,0.08109039,0.049369313,-0.080034226,-0.06574024,-0.06197367,-0.07815334,0.020419002,0.07533304,-0.06832654,0.12949477,0.18721785,-0.050600696,-0.12709962,0.12265921,0.13135529,-0.35462707,-0.103226095,0.042534515,-0.19541597,0.18408091,0.13822012,-0.060906444,0.028264597,0.22963639,-0.41115454,-0.17358272,0.02386856,-0.049581993,-0.10319185,-0.28794444,0.015797464,-0.35655874,0.043370645,-0.85459936,-0.056661103,0.0042684823,0.43507877,0.23907793,-0.023705754,-0.23803996,-0.16681385,0.008930486,-0.1767953,-0.06695429,0.083561234,-0.07607198,-0.29005042,-0.0026826572,-0.09164665,0.21155025,0.050372776,-0.12207792,-0.08709809,-0.13294114,0.19044657,-0.18580578,0.2162985,0.0738693,-0.38814598,0.15090504,0.21718775,0.12920848,0.058794394,-0.41968197,-0.0093296105,-0.060797364,-0.018422032,-0.2598329,0.09976397,-0.5033835,-0.017929057,0.08610885,-0.06387448,0.0022366855,0.3238512,0.14848316,0.0025436564,0.07382942,-0.26652223,0.1094493,-0.13606042,0.066228434,-0.11302976,-0.00980408,0.22154586,0.1377356,-0.19834438,-0.11189905,-0.1632193,0.15083888,-0.040161192,0.14145552,0.03138445,0.018712135,-0.07158519,-0.1857383,0.08768536,-0.2009233,-0.10565578,0.122851186,0.19644989,0.03575539,0.019138338,0.019657351,-0.24554758,0.08293893,-0.18796167,-0.10200541,-0.13914433,-0.12129725,0.024686214,-0.0552572,0.1574762,-0.0808931,-0.116917305,-0.15582147,0.05459728,0.022497213,-0.08513172,-0.12727696,0.010679117,-0.011450838,1.1152998,-0.076858155,-0.15460116,-0.17633864,-0.1022499,0.5145253,0.15345785,-0.20085657,0.0014749479,-0.2058053,-0.09288587,0.183833,0.023657568,0.08631335,0.0354661,0.12894791,-0.09761883,-0.12258219,-0.06905791,-0.01318237,0.10801792,-0.55927604,-0.03208784,-0.022063157,-0.08279443,-0.040440265,-0.2930732,0.028205909,0.017049948,0.21663217,-0.046167783,-12.624287,0.15029466,-0.03987351,0.1339927,-0.22860126,-0.0005145848,0.17423451,0.1592384,0.14742213,-0.2141883,-0.023269974,0.017321637,-0.295854,-0.05956908,-0.9505448,-0.020800026,0.05551965,-0.07012773,0.20326278,-0.15437658,0.0036582425,0.021321746,0.045736786,-0.26600912,-0.13036953,0.29228073,0.24106432,-0.04849359,0.018053468,-0.18619694,0.24261789,-0.09426975,0.05016622,0.27568942,-0.2068785,-0.07095087,0.14254351,-0.063207746,-0.17737578,0.0076416656,0.38968718,-0.029815167,-0.3029277,0.030669011,0.18379809,-0.29998732,0.07475038,0.02203096,0.09159133,1.2112797,-0.17264779,-0.026104752,-0.038750675,-0.005346025,-0.11989447,-0.028475797,-0.094355404,0.05903278,-0.10440772,-0.17591147,0.0016971435,-0.11722772,-0.076996304,0.54969513,-0.05582147,4.693408,0.018602954,-0.53698766,0.039654937,0.28097433,-0.030612791,0.15869844,-0.1003798,0.07805367,0.19948423,-0.09829116,0.033272922,0.020919986,0.18137749,0.09440413,-0.047192372,0.085033275,-0.29198766,-0.03639855,0.17436254,0.73544073,0.09159826,1.1010498,0.031319283,0.023151433,0.11379919,0.03455796,0.14771885,0.05050089,-0.07472199,0.1286168,-0.08381931,-0.3441152,-0.11478958,-0.014185435,0.053977203,-0.10089321,0.7670856,-0.18740495,-0.103020504,0.15662391,-0.040752385,0.32553735,0.0015704116,0.06445063,-0.013447834,-0.036144726,-0.077115804,0.0010076313,-0.100967586,0.19016394,0.022560984,0.02028013,-0.15979816,-0.03738043,-0.076897375,-0.2369843,0.008091639,0.053328764,0.03629879,0.08464593,-0.07932532,-0.08870909,0.037182286,0.2318059,-0.10302531,0.0019576612,-0.20108937,0.09445221,-0.13985884,0.027245708,-0.029889308,-0.11143984,0.1270964,0.24347883,0.22134963,0.1139135,-0.2483492,0.054359633,-0.09260657,-0.24052852,-0.19379018,-0.057376515,0.021286681,-0.21846342,-0.018353876,-0.00011978086,0.15947232,-0.121574655,0.09092383,-0.16615222,-0.24170868,-0.02347794,-0.1771375,-0.011537869,-0.014990264,0.2522416,-0.15958187,-0.26132977,0.03798317,-0.17888716,0.1019553,-0.07092661,-0.0016043173,0.12288631,-0.14099607,0.22393338,-0.21689998,-0.10231687,-0.079637595,-0.00885643,0.06860979,0.09835862,-0.14685813,0.048648734,-0.13411197,-0.058744587,-0.1287583,0.16327281,-0.06933407,0.020027852,0.114100195,-0.15673642,-0.14547497
audio_103.wav,0.10576249,-0.16967072,-0.15026917,-0.07221774,-0.0023742546,-0.03902397,-0.2189721,-0.21331625,0.41638556,0.07418163,-0.13013521,0.015214135,0.14982353,-0.28481454,0.22851378,0.14162134,0.3246774,0.2741693,0.0043758163,-0.002382562,0.17561476,-0.01496094,0.0005265695,0.25949025,0.063046,0.13454564,0.018467437,0.23800288,-0.13906817,-0.50207704,-0.02680695,-0.21554744,0.22659309,0.01068057,0.029264536,-0.06430749,0.2602614,0.10417197,-0.16861944,-0.124398984,-0.11570583,0.1475006,-0.070933916,0.073178075,0.17429553,-0.040246125,0.1451348,0.16170073,-0.115650035,-0.07616993,0.1512433,-0.021156032,0.12256146,-0.022633834,-0.09089266,0.06257854,-0.11411745,-0.109527834,-0.08204707,-0.100400545,0.09635193,-0.2584374,0.021454575,-0.109673195,-0.10277798,0.018252455,0.26423398,0.26750588,-0.06062154,-0.607684,0.02614866,-0.09335249,0.07373109,0.045393497,-0.13338198,-0.00612906,-0.34705326,0.06023137,-0.21315046,0.050936677,-0.17336531,-0.06017405,0.09920937,-0.18526517,0.077456474,-0.025456326,0.017841008,-0.015234299,0.21751066,0.3490127,-0.48442888,-0.15365605,-0.117020465,0.19315043,0.08222911,0.05335992,0.09975273,0.0033861515,-0.24827124,0.14363407,-0.11699498,0.020620948,-0.18686081,-0.23923442,0.14389178,0.06353308,-0.1009776,0.013280847,0.090142645,-0.1690897,0.11426141,-0.06127685,-0.17563352,-1.2803297,0.036714584,0.06447885,0.05267707,-0.14961235,0.2514191,-0.035960652,0.11508591,-0.10906901,0.18042573,0.10530153,0.024702838,-0.19840148,0.16161524,0.10426802,0.021174591,-0.3357282,-0.17023651,-0.13508889,0.23705469,-0.13474353,-0.05199593,-0.2076088,-0.53734124,-0.0959441,-0.03176933,0.09856614,-0.28162023,-0.0124944905,0.0052947337,-0.017905934,0.054245707,0.09954784,0.0390564,0.07242253,0.13282304,0.04832673,0.042022243,0.13017419,0.037254367,0.47280616,-0.119215615,0.15500447,-0.41721728,0.0014230032,-0.12237561,0.12838078,0.16962627,-0.09166203,-0.08027187,-0.042493656,-0.17818469,0.076764956,0.15970443,0.027073069,-0.21989469,-0.07873792,0.083297364,-0.13255183,-0.10659872,-0.14139946,0.072613284,-0.16912271,-0.1658315,0.04954771,-0.056791198,0.068083495,0.12215716,0.023175575,-0.17340149,-0.19619137,0.09715633,-0.16636609,-0.096708305,-0.04427343,-0.21844193,0.176576,0.22600171,-0.27521786,0.0017287038,-0.045778148,-0.32825375,-0.08068088,0.039114818,0.07000664,-0.1755074,-0.14574023,-0.1265217,-0.014503011,0.05083595,-0.55531496,0.024267748,0.13609293,0.4355444,0.1967631,0.052770674,-0.04379775,0.081806846,-0.035124183,-0.05499492,-0.12214052,0.107488334,-0.059629466,0.058270417,0.039574035,0.0010347805,0.16926186,0.066962495,-0.06327786,-0.018143218,-0.25240114,0.15469112,-0.120984316,0.062115412,0.10246352,-0.6355379,0.13429306,0.4149872,0.14310332,-0.11149854,-0.5147159,0.07918172,-0.15477413,-0.033967733,-0.21839595,0.08119559,-0.5023095,0.1554483,-0.03017651,-0.20884061,-0.13673976,0.21095593,0.06774973,0.100028,-0.00030598577,-0.23758815,0.08994831,-0.09016514,-0.05895828,-0.11880963,-0.14166918,0.14062287,0.024491835,0.0842181,-0.27532545,-0.30496186,0.14662792,-0.019314704,0.18411344,-0.016136406,-0.07467807,0.04480068,-0.053366292,0.23895113,-0.07865987,0.0036897287,-0.07707249,-0.037545454,-0.01650718,0.04262293,0.04007139,-0.18624382,-0.038118575,-0.19200122,-0.20311536,-0.11271094,-0.08219326,0.063609466,-0.2163646,0.01166945,0.10905382,-0.27069497,-0.071897276,0.12560144,0.20250535,-0.0070957527,0.065590516,-0.09213865,0.018871224,0.89518064,0.04131488,-0.07919322,-0.26361963,-0.023932097,0.12059887,-0.049315948,-0.1114869,-0.037284657,-0.1713297,-0.10300999,0.10485453,0.1410071,-0.052311707,-0.075297914,0.07852731,-0.07936899,-0.24192248,-0.03978368,-0.058477726,0.25815856,-0.27207777,0.11722359,0.039370436,-0.045720182,-0.2559479,-0.15086305,-0.036420487,-0.061094165,-0.006352006,0.035476755,-11.347492,-0.03828411,-0.15599792,-0.09181834,0.053556528,0.037574157,0.023169158,0.008731599,0.040521335,-0.0072082374,-0.025416117,-0.07933112,-0.30329117,0.0024029345,-1.3150277,0.11953458,0.075556815,-0.09885028,0.13125962,-0.262619,-0.02418397,0.077091895,0.09070996,-0.039486736,-0.05359153,0.264104,0.19328912,-0.12991868,-0.039279416,-0.14689974,0.15358959,-0.042458393,-0.05204769,0.13362467,-0.24844763,-0.11819143,-0.06918106,-0.23501833,-0.1886669,0.10967979,0.14752388,-0.15108594,-0.20270717,-0.07240811,0.1753846,-0.01318765,-0.038765647,-0.054571085,-0.040401414,1.2417588,-0.1563632,0.23108418,-0.018854145,-0.12507167,-0.12852196,-0.07655901,-0.030587615,0.07581509,-0.31998205,-0.19691473,-0.0942495,-0.0060246363,-0.0019178517,0.5128379,-0.080807164,5.341469,0.22359101,-0.24180822,-0.12258091,0.24632992,0.13516991,-0.11732542,-0.044478912,-0.031638224,-0.60005355,-0.088244945,0.04701006,0.07544412,0.06792356,-0.17356966,-0.06731807,-0.00875774,-0.028674215,-0.13151072,0.11881863,0.9518369,0.061647754,0.59711117,0.10912465,0.027539803,0.122360185,-0.07013413,0.088373795,0.16472974,0.009632318,0.06536199,-0.04385152,-0.40883714,-0.086915225,-0.046062373,-0.015245044,-0.11725606,0.3213401,-0.17465647,-0.12824544,0.18268657,-0.1663346,0.34316772,-0.045043163,-0.009249723,-0.066953234,-0.13891417,0.15351225,-0.055099614,0.05878123,0.17602076,0.053101327,0.085887186,-0.19085962,-0.18504073,-0.114716634,-0.1724587,0.051058546,0.15061715,-0.07095352,-0.054774124,-0.18862769,0.012656904,0.13319837,0.36839437,0.019855734,-0.15755111,0.09171999,0.10903438,-0.15382862,-0.13626447,0.05953494,-0.067775555,-0.090422444,0.24052253,0.072573565,-0.04764626,-0.039478082,0.06947149,-0.03207988,-0.1774022,-0.055153962,-0.119585186,-0.036902133,-0.11921221,0.029390553,0.019568654,-0.086661205,0.08626879,0.21058622,-0.05203441,-0.20429786,-0.06962329,-0.14230816,-0.018676443,0.046262376,0.25660327,-0.18113631,-0.24030428,0.073823184,-0.08804146,0.017267272,-0.019070897,0.07872103,0.2986796,-0.0562836,0.042985942,-0.04355173,0.083150536,0.029791493,0.028133322,-0.12988433,-0.012414636,-0.050111692,-0.12306305,-0.14206046,0.0542288,-0.0681202,0.37493655,0.01735394,0.07703423,0.1615661,-0.28487387,-0.058272187
audio_104.wav,-0.0728152,0.057161808,0.099271744,-0.1723082,0.20129919,0.18202633,-0.33370978,-0.11458477,0.5950366,0.1892734,-0.0063047,0.1675521,0.18817407,-0.16019298,0.062319893,-0.014466892,0.1789391,0.25394928,0.036797464,-0.056969125,0.06658439,-0.040996283,0.084416464,0.30613077,0.09625987,0.16481145,-0.012635587,0.0415402,-0.032782193,-0.5402477,0.001997753,-0.16248745,0.41193438,-0.027490394,-0.06905494,-0.00833205,0.27340907,-0.07759558,-0.2681419,-0.069497354,-0.17468673,0.19852588,0.028999874,0.19212626,0.0225239,-0.072511874,-0.07118915,0.22141474,-0.13860601,-0.05465924,0.027799968,-0.05408808,0.047402058,-0.055157438,-0.006654997,0.11329732,0.05054069,-0.07752236,-0.07142865,-0.16217642,0.15654255,-0.14507593,-0.028064076,-0.038797267,-0.0544617,0.037691224,0.12352189,0.12402535,-0.022338012,-0.4618459,-0.20281956,0.049235616,0.07558089,0.04652534,-0.14901452,0.19094454,-0.050408896,0.04677603,-0.13164628,0.002318943,-0.20458283,-0.016494295,0.005933394,0.11481897,0.13986824,0.057199255,-0.19939184,-0.055817936,0.119081184,0.15571596,-0.27904594,-0.008937155,0.021509256,0.04977548,0.051819876,0.02682264,-0.28924954,-0.036749445,-0.2909368,0.18456258,-0.05798272,-0.14531991,-0.06044774,-0.29048395,-0.10831149,0.12935361,-0.08052211,-0.089593604,0.1805411,-0.20813635,0.09300778,-0.12213507,-0.1101712,-1.6110742,0.032833926,-0.02194789,0.12837316,0.06707369,0.049365062,0.09887071,-0.03474048,0.06976247,-0.12958522,-0.016171196,0.080929995,-0.20489916,-0.030403549,0.35883516,-0.13759753,-0.095805354,-0.12105453,-0.042263027,0.048016794,-0.07840991,0.122291826,-0.14368068,-0.2845805,-0.089290835,-0.03477712,0.090253375,-0.104814574,0.030017573,-0.16151012,-0.09565076,0.12797141,0.21867795,0.07480337,0.030525452,0.14797555,-0.075155325,0.07676938,0.15564284,0.017861703,0.90209424,-0.13847433,0.060253184,-0.6415489,0.107492246,0.050824434,0.23290837,0.0884997,-0.08726223,-0.056417704,-0.15111212,0.074916266,0.02931794,0.07642745,-0.0099166725,-0.17660767,0.037853975,0.07511976,-0.30866325,0.071328804,-0.22366972,-0.20175387,-0.10120493,0.086905986,0.1999365,0.096051104,0.10710071,0.006773222,0.024456065,0.029445073,-0.04521087,0.15352762,-0.12728521,-0.22305846,-0.12795708,-0.17272831,0.14251786,0.13465801,-0.16794273,0.16727327,0.007634556,-0.23892531,-0.26234925,0.14689037,-0.0030285784,0.0045245877,-0.08395684,-0.17691223,0.11025286,-0.06271952,-0.95081526,-0.01831061,0.14752053,0.26333463,0.23907644,0.1319171,0.118970156,0.039402302,-0.04972869,-0.060999785,-0.49482593,0.2259402,-0.20118336,0.18073013,-0.07098968,0.0587795,0.13746522,0.05143472,-0.099994645,0.08332786,-0.17378642,0.020745937,0.13331704,0.25031444,-0.12814681,-0.52583444,0.039987694,0.34396943,0.24722147,-0.12246738,-0.3837411,-0.1468037,-0.1402515,-0.14160207,-0.23268789,-0.018475411,-0.46656114,0.09726975,0.12444293,-0.084241666,-0.26066628,0.22140186,-0.08276091,0.1298703,0.09209247,-0.25247294,0.12290056,-0.2779493,-0.12558873,0.06680613,0.06866457,0.18052931,0.05092294,0.10446908,-0.34337592,-0.10062157,0.19687325,-0.108600006,0.09126894,-0.14178017,0.02491023,-0.014217736,-0.23052447,-0.08829281,-0.13069397,0.03528641,-0.052852456,0.10148208,-0.03733932,0.08289633,-0.053993754,-0.21292935,0.16239955,-0.15793099,-0.14350407,-0.23644584,-0.16225973,0.077898376,-0.11146932,-0.034114778,0.010365266,-0.011002951,0.07511474,0.14589164,0.14217274,-0.14458765,-0.032325294,-0.15480489,0.07612335,0.8399069,0.012129008,-0.076680906,-0.23812011,-0.16008632,-0.07005029,0.09893894,-0.19347715,0.027525833,-0.13599429,-0.18663952,0.29014018,-0.027224122,0.056983154,-0.07492731,0.09548026,-0.13013922,-0.20949446,0.021785328,-0.039515197,0.034613937,-0.454201,-0.13112193,-0.22934516,-0.45264286,-0.046022404,-0.13591556,-0.050056998,-0.14219292,0.18821956,-0.15668155,-11.315691,0.02027345,-0.15094735,-0.01973158,-0.07544223,-0.037720654,-0.058726333,0.16969699,-0.0033880437,-0.20483832,-0.0037063395,0.13654678,-0.37142235,0.16616987,-1.4549428,0.060242277,0.007392863,-0.019072834,0.21994446,-0.24217878,-0.059640218,0.31434464,0.14312093,-0.10252061,-0.20375636,0.3228872,0.40406737,0.03783566,0.17196862,-0.073575154,-0.040585395,-0.11452474,-0.18886723,-0.043132976,-0.04150208,-0.13556987,-0.093514495,-0.26622736,-0.2597813,0.10106913,0.29395738,-0.025154235,-0.061836783,-0.01078606,0.14187235,-0.1758791,0.0029215189,0.2666413,-0.050741605,1.3052098,-0.08852409,0.16844146,0.0072209714,-0.24895324,-0.14287774,-0.03817279,-0.174932,-0.026882593,-0.21277763,-0.16029863,-0.14573357,0.091011904,0.09298191,0.38372934,0.06479903,5.151499,0.28231606,-0.19982587,-0.01159463,0.075610094,0.071597,-0.2059917,-0.15036108,-0.000260465,-0.346957,-0.08647807,0.061798654,0.056364726,0.16293426,-0.25775933,0.07041374,0.100778185,-0.13189541,-0.0636235,-0.051019832,0.7078163,-0.03791552,0.73976564,0.024271838,-0.061488565,0.071486734,0.021893198,0.029531356,0.058011264,-0.13798831,-0.052389566,-0.18394096,0.079525664,-0.1722541,0.0072262147,-0.016625866,-0.16128843,0.8053243,-0.047623765,-0.22101681,0.12704791,-0.08185617,0.15041634,-0.07675981,0.13362534,0.15684484,-0.12647259,0.014919877,-0.06471853,-0.08022147,-0.12030979,-0.02255478,0.30378672,-0.17780219,-0.18729134,-0.1627084,-0.071994014,0.011956466,0.16625485,-0.19654028,-0.08448272,-0.06130665,-0.01835621,-0.04159334,0.16834961,-0.05527591,-0.16915116,-0.20739083,0.12388098,-0.1676955,-0.05836625,-0.070136994,-0.19428544,-0.06958543,0.2618875,0.29029235,0.006075854,-0.17096436,0.16603406,0.020204691,0.020460643,-0.065816075,-0.22222543,0.15897588,-0.073765576,0.051548563,-0.00458393,0.13115998,-0.22887488,0.005517901,0.094095826,-0.22937398,0.101277426,0.021564594,-0.041236293,0.32293802,0.40153125,-0.23396805,-0.2917722,0.19857375,-0.1365531,-0.03887986,0.019058924,0.057967644,0.01698938,-0.13660322,-0.0058412445,0.031211521,0.05832498,0.019607633,-0.046180617,-0.0683598,0.16580544,-0.05545389,-0.06881106,-0.17662874,-0.14156266,0.082834065,0.1521027,-0.065902635,0.078050524,0.017128741,-0.13489343,-0.15236814
audio_105.wav,-0.07687865,-0.05909749,-0.027529404,-0.13666119,0.136909,-0.19712244,-0.15544572,-0.06661166,0.6516942,0.06314797,0.025602687,0.051919382,-0.016618034,-0.016609209,-0.103210755,0.14543432,0.18664914,0.24291852,0.20239015,-0.14111826,0.07642337,-0.15486829,-0.023384646,0.16475679,-0.09391663,-0.13843392,0.019457137,0.10580604,-0.23710017,0.05501971,0.006425892,-0.13726635,-0.05738197,0.21576819,0.019750452,0.014792694,0.075759836,-0.07636643,0.032425344,-0.09606238,-0.12281549,0.26745895,-0.065321356,0.14593263,0.011664183,0.16055076,0.0400748,0.08449343,0.020831458,0.029667074,-0.048769876,0.015766129,-0.036951274,0.08352652,-0.0541995,0.087120734,-0.06427963,0.017925331,-0.036810797,-0.13508232,0.03314615,-0.40384793,0.07151943,0.0842541,-0.02755322,0.064636655,0.16241291,0.22784074,0.13594128,-0.34437552,-0.07752601,-0.029557737,-0.05818307,0.02336922,-0.04456492,-0.07720808,0.14607349,-0.0008684654,-0.19151652,-0.14995326,-0.16538224,-0.10803131,-0.05110443,-0.049555648,0.055730823,-0.1528175,-0.31755635,-0.01946406,0.33359692,-0.53383356,-0.1721807,-0.08975365,0.05469105,0.1782841,-0.020961054,-0.027716247,0.27968177,0.0788796,-0.22285601,0.08393301,-0.12381494,-0.042314388,-0.06654069,-0.47384748,0.13368116,0.17385605,0.013671906,-0.21840633,0.1441371,0.08314514,-0.04570269,-0.18529512,-0.09330972,-0.033522952,-0.020944744,0.19097054,-0.032301344,0.11576941,-0.08682118,-0.07014187,0.016558755,-0.28608835,0.026334299,0.15027498,0.061024517,0.022442743,0.041490123,0.07905988,-0.091173135,0.0058821533,-0.19249585,-0.13094106,0.048257425,-0.057319835,0.05144791,0.07349428,-0.5195972,-0.017511707,0.06400111,0.050866704,-0.23735237,-0.18654358,0.0073627317,0.020566484,0.050078485,-0.1978203,0.11625206,-0.035673827,-0.037658397,-0.15441988,0.07936755,0.082672484,0.14751339,0.12120744,0.075705335,0.05021157,-0.86409885,-0.15932511,0.14965181,0.18889731,-0.050855327,0.05002622,0.12205078,0.13857386,-0.2101675,-0.1449293,0.1627542,-0.15189154,-0.14563179,-0.0061951117,0.09903113,-0.1905755,-0.20872505,-0.04125759,-0.17980872,0.3792721,-0.011359071,-0.1608455,-0.008213723,-0.14891998,0.18133274,0.22412752,0.07800242,-0.1228894,0.07246226,-0.10302281,-0.10400982,-0.04371556,-0.16409914,0.024928868,0.13932699,-0.079358175,0.07887772,-0.065273955,-0.15658545,-0.017575597,0.12623383,0.06839607,0.0806245,-0.006861497,-0.022551142,-0.09109253,-0.20248193,-0.40884757,0.16737248,0.15646239,0.30678084,-0.03912151,-0.037380308,0.033458088,0.092905,0.05487331,0.06033852,-0.18755701,0.13966896,0.026939534,0.13494104,-0.076812916,0.12713283,0.23224637,-0.016087145,0.2628289,-0.010861995,-0.20104378,-0.13158181,-0.17063536,-0.040056933,0.03392614,-0.6742876,0.18823098,-0.1336162,-0.14883646,-0.27784222,-0.23104356,-0.17576104,0.016876204,-0.027169693,-0.06879746,-0.17336306,-0.7578558,0.021303663,0.09734318,-0.027658528,-0.08971143,0.17474695,-0.21578182,-0.1588113,0.10961741,0.12759627,0.10880552,-0.2035861,-0.020169448,0.13226265,0.14443092,0.1808832,0.18450567,0.19890043,-0.16783729,0.14058855,0.14053096,0.13493432,-0.020321833,0.10889347,-0.15447593,0.012353007,-0.11323756,-0.08156195,-0.085710384,0.2873993,0.014053492,0.059184365,0.050792143,-0.042040642,-0.044275686,-0.19064416,0.11566454,-0.04783784,-0.076940194,0.02210366,-0.025540674,0.12810367,-0.3250944,-0.07413338,-0.21512793,-0.31810844,-0.071701966,0.13101476,-0.32775664,0.20112623,-0.008458955,-0.051581603,0.035457037,0.06997825,0.025132533,-0.011061176,-0.025638651,-0.01888629,0.09190096,-0.03475624,-0.084903225,-0.010752427,0.09965482,-0.111441955,-0.051963862,-0.11069278,-0.1257052,0.062222503,0.080298916,0.09895637,0.03484985,-0.03767248,0.083009735,-0.054134764,-0.1741913,0.3142158,-0.1492064,-0.201231,-0.10889455,0.14365087,-0.12469544,-0.10761601,0.16585481,0.08630642,-9.675394,-0.10492194,0.012195446,0.07551085,-0.23885292,0.14331578,-0.08073616,0.035755157,-0.23202665,-0.3488001,0.0017737512,-0.021944847,-0.07511733,-0.1476564,-2.0897627,-0.10121444,-0.33604604,-0.16462252,0.00044004057,-0.24953201,-0.08206666,-0.10497228,0.109343484,0.30735102,0.0015175348,-0.31006235,0.3064469,-0.12508929,0.079203464,-0.015754757,-0.034684688,-0.0048194556,0.06380252,-0.016932748,-0.007860665,-0.19017941,0.004109238,-0.0278733,-0.19393986,-0.08211336,0.123578005,-0.08306596,-0.08152327,-0.24087337,-0.06591463,0.22863363,-0.030480782,0.15803541,-0.22047408,0.8613039,0.12284578,0.174676,-0.07968329,-0.16536297,0.044278044,0.0018507999,0.06130959,-0.2915325,-0.22888045,-0.028681846,0.16797934,0.02259614,-0.009082609,0.26925668,-0.11459289,5.2868867,-0.021977961,-0.004281297,-0.124333575,-0.017959401,0.12632847,-0.7123798,-0.07037022,0.025350278,-0.294651,-0.09596141,0.020734131,0.039888762,-0.06512355,0.010785441,-0.10999697,-0.0061305775,-0.143759,-0.10178815,0.026696054,0.22030205,-0.031605516,1.4171406,-0.3947666,-0.14026701,0.07748559,-0.07489623,-0.034954574,0.23266478,0.027592296,-0.11856879,0.035414465,-0.09822358,-0.08305206,-0.049685728,-0.040514883,-0.091018036,0.20628239,-0.0276525,-0.0723466,-0.0144695435,0.03637469,0.1122216,0.03175985,-0.037587225,-0.08862499,0.026642175,0.008343341,-0.24297862,-0.094032824,0.13713555,0.016624443,0.062941276,-0.2380562,2.854983e-05,0.071379736,-0.017563967,0.124896154,0.13976671,0.009764677,0.014467925,-0.02160853,0.018566187,0.04813288,-0.03212062,0.0023351924,0.08201819,0.03144078,-0.11880778,-0.08125193,-0.17203768,0.15686767,-0.10128116,-0.024492638,0.015131481,-0.12397096,-0.24344434,0.0012047774,0.051726792,-0.016366871,0.1575738,-0.107659206,-0.04879079,0.15342665,0.095373064,0.017989557,-0.07531994,-0.09119354,-0.58230644,0.1330488,0.19058228,-0.036463592,-0.050770152,-0.07503281,0.012201171,0.21723738,0.11850407,-0.021488363,-0.008116681,-0.00295459,-0.019783616,-0.03516381,0.13383128,0.08076685,0.19342515,1.2902896e-05,0.057957977,0.0874475,-0.027738573,0.056202535,-0.16115838,0.21582882,0.08640955,0.020196764,-0.03430811,-0.026886484,-0.03315685,0.014922393,0.13291858,-0.16710785,-0.14995788,0.0027980034,-0.022223014,-0.1359291
audio_106.wav,0.009540803,-0.31547865,0.048634876,0.08366851,0.046568226,0.08851298,-0.22439352,-0.04748177,0.48458406,-0.010443322,-0.2831116,0.18863183,0.15227984,-0.18416071,0.18677852,0.16730973,0.36236247,0.02914006,-0.035569184,-0.0050826324,0.16498192,-0.08372998,-0.009732117,0.21429767,0.054566547,0.12223598,0.14868867,0.21273257,-0.10717756,-0.31541896,-0.12227843,-0.20906329,0.28802034,0.020076374,-0.14187199,-0.19832122,0.19474319,0.030385876,-0.14199673,0.066249125,0.0030123526,0.09232458,-0.0464882,0.01836247,-0.04704368,0.117692426,-0.035010573,0.1227468,0.013616322,-0.053000093,0.29515064,0.15450186,0.050194886,0.032329593,-0.03506768,0.087978415,-0.07850732,-0.10717002,-0.027443958,-0.25826716,0.0074248044,0.0770622,-0.070806235,-0.10589531,-0.017221425,0.14519812,0.37825328,0.22452128,-0.20093241,-0.54328084,-0.1525118,-0.18455778,-0.030177165,0.009349684,-0.09891234,0.13533844,-0.04574251,0.044457223,-0.24756922,-0.08873945,-0.035813477,0.16042827,0.076163255,-0.23684171,-0.024302443,-0.01972418,-0.6051925,0.09340984,0.3192102,0.36653224,-0.59312856,-0.25091782,-0.22367236,0.2435589,0.09025332,0.19352192,-0.20070599,-0.06320477,-0.14163747,0.08738873,-0.12362393,0.22023389,-0.0062507903,-0.15568048,0.12349693,0.14540787,-0.19814093,0.049160894,0.099717155,-0.05497955,0.030691274,-0.12274446,-0.018256264,-1.5164282,-0.018057255,0.15714115,-0.023197168,-0.07294222,0.1505127,0.24321097,0.29867542,-0.15288946,0.088688605,-0.28264514,-0.066167116,-0.2928705,0.13059303,0.33327627,-0.026862519,-0.32247698,-0.0151433,0.06085435,0.16206437,-0.12655054,0.047619186,-0.1406061,-0.26377538,-0.090666786,0.0031441746,0.016637161,-0.45898393,0.08024232,-0.23489554,0.16453429,0.025882771,-0.21172243,0.053019796,-0.0184575,0.11525913,-0.060617026,0.15449941,0.080910385,0.0864116,0.71554565,-0.2087977,-0.027923204,-0.04546462,0.14895737,0.004529238,0.1213539,0.003947053,-0.18817659,-0.0031233418,0.028777456,0.020468172,0.17481445,0.015046509,-0.0902676,-0.11430324,-0.10674546,0.18373989,-0.019440336,-0.08456194,-0.03657523,0.074661866,-0.07917524,-0.12756354,0.03870059,0.23235758,0.024514139,-0.056217305,0.11648305,-0.17389107,-0.27303112,0.22428007,-0.14672916,-0.1397763,0.07926409,0.05509235,0.10158972,0.14013828,-0.05224832,-0.02641586,-0.14938304,-0.08501811,-0.17180708,0.025115656,0.14595844,-0.07683609,-0.24731709,-0.15262558,-0.10512899,0.112629,-1.2187299,-0.017097259,0.050212566,0.54365045,0.034250874,0.06522689,-0.0040789526,0.019654658,0.0068040676,0.051359735,-0.28946313,0.08875006,0.09359525,-0.30761302,0.11881016,-0.125205,-0.011530383,0.19962876,-0.09287223,-0.01590097,-0.14626159,0.23986985,0.12554537,0.16965175,-0.08827842,-0.6827308,-0.07950063,0.3595785,0.19436319,-0.13046898,-0.30145887,0.15824288,-0.2038806,-0.014211583,-0.21331368,-0.11549843,-0.48810482,0.21696281,0.14091009,-0.02959894,-0.13225982,-0.16666195,0.014863553,0.023252377,-0.115211286,-0.1374589,0.021398097,0.01737536,-0.06337168,0.057086207,0.041795414,0.21316862,0.25532928,-0.049525894,-0.15905137,-0.27065837,0.07036026,-0.21725811,0.06702396,-0.18083374,-0.043026607,0.035238482,-0.037355315,0.2494287,0.031516377,-0.06026221,-0.2632984,-0.25395635,0.05544952,-0.16399872,0.0035839763,-0.068126865,0.07780447,-0.23117271,-0.044834014,-0.09697058,-0.07666381,0.30124426,-0.20434956,0.05771387,0.22272375,-0.50203586,-0.0679868,-0.18060319,0.18780151,-0.23800069,0.07602744,-0.1296302,-0.036123127,0.9359021,0.17304431,0.045861006,-0.3980411,-0.050270397,0.15863864,-0.027898287,-0.039984558,0.0013476092,-0.26338276,-0.02708115,0.028234985,0.11221958,0.019085668,-0.12069929,0.15112665,-0.12234348,-0.22200598,-0.15921007,0.017325575,0.0469012,-0.18814379,-0.14436136,0.07854446,-0.21590902,-0.08705704,-0.06179167,0.06832266,-0.051466253,-0.19550724,-0.09731303,-11.533204,0.03917436,-0.10448422,0.120122544,-0.10122041,-0.004254491,-0.036072817,0.07014735,0.051149257,-0.01009534,-0.008066623,-0.14829876,-0.39134732,0.08584876,-1.6265742,-0.09355339,-0.07713554,-0.16589002,-0.07045165,-0.09734196,-0.11081234,0.33082485,-0.123346046,0.026312027,-0.022843836,0.39406037,0.18371369,-0.2352843,0.12646082,-0.25584581,0.14106184,-0.0490567,-0.19101559,0.17641832,-0.23893645,-0.18005183,-0.016243529,-0.30596814,0.027244028,0.10710921,0.17069124,-0.1494662,-0.03980558,-0.05957957,0.14423007,0.14321506,0.12259004,0.04506553,-0.08566685,0.8410513,0.08842814,-0.014057154,0.098706596,-0.18758771,-0.08196527,0.07097355,-0.0089947,0.0031992416,-0.3179279,-0.06940557,-0.20045032,-0.097872995,0.04351442,0.477833,-0.2495025,5.5183024,0.13618861,-0.42258063,-0.2314167,0.23187786,0.1614712,0.23158227,-0.01092889,0.07057862,-0.3495683,-0.16369455,0.07032554,0.011102232,0.17573148,-0.12432448,-0.23282371,0.116172016,0.10234847,-0.069139406,-0.027577309,1.0696821,0.11119788,1.3259404,0.12687908,0.10226638,0.16146718,-0.008487753,0.045364704,-0.062882006,0.14069043,0.19327024,-0.16074802,-0.20818901,-0.09170947,-0.04466817,-0.033324014,-0.20846367,0.43938616,-0.1758151,0.14196055,-0.12454324,-0.061050314,0.11576887,0.0056934813,0.06898742,0.056043707,-0.20641707,0.14584592,-0.0058240877,-0.14664689,-0.0966581,0.13697164,0.107240155,-0.32023534,-0.019157087,0.11652301,-0.15663101,0.08021245,0.16976891,-0.057220876,-0.23098649,0.0014683908,-0.057928823,0.36791348,0.11624847,0.008322846,-0.15198545,-0.15667632,0.054558586,-0.09426204,0.17445563,0.14476521,-0.14136851,-0.3149359,0.06619002,-0.2482814,-0.04342157,-0.07808587,0.16942462,0.13330108,-0.10360348,0.0376667,-0.09313249,-0.20739396,-0.29455894,0.19286548,-0.02269697,-0.11036012,0.12177325,0.021459512,0.0062968456,-0.08868451,-0.13454565,-0.09365698,0.09210169,0.072840564,0.40523243,-0.1385394,-0.41190568,-0.07748395,-0.094183035,-0.22710241,0.10644397,0.05360257,0.09019563,-0.14928381,0.2155107,-0.048248198,-0.02384213,0.20826283,-0.07320563,-0.01988755,0.11647009,-0.22141866,-0.016200533,-0.15770078,-0.020511553,0.026931267,0.2927574,0.037403356,0.28557658,0.08718007,-0.304008,-0.14860132
audio_107.wav,-0.044335265,-0.047985636,-0.034013007,-0.13315848,0.16484392,-0.22456765,-0.24016024,-0.14723039,0.6909407,0.01400088,-0.031226007,0.008550001,-0.05624667,-0.07888867,0.04971009,-0.092496194,0.16765012,0.19930725,0.04785046,-0.07026469,0.14637187,-0.017006552,0.011655515,0.057319056,0.020838333,-0.03438077,-0.111890025,-0.15663138,-0.13046469,-0.50228834,-0.01835386,-0.17911904,0.18280159,0.07843087,0.12455733,-0.044263355,0.09096464,0.07923013,-0.028825954,-0.071787156,-0.15501456,0.31325975,-0.068767615,-0.021231573,0.040780753,0.02837083,0.07526677,0.162053,-0.071885094,-0.029038996,-0.2160568,-0.0097090565,-0.026911978,0.101345316,0.0014465147,0.12672733,-0.108479165,0.14644338,0.14067492,-0.045927603,0.08872068,0.04167816,0.009293413,0.064611875,-0.19169067,-0.010542437,-0.054933406,0.14985357,-0.03559734,-0.34914383,-0.036735013,0.13174078,-0.010340539,0.030543653,-0.029519387,0.042793833,0.04615798,0.019783666,-0.11910075,-0.07981885,-0.13649109,-0.016138777,-0.116878845,0.046832316,0.008025424,0.01443957,-0.58024096,-0.17686658,-0.07484509,0.21293887,-0.15589704,-0.077389345,-0.00042030143,0.11375604,0.099334165,-0.071920946,0.36708927,-0.0054061427,-0.23207076,0.052490894,-0.13263658,0.025930926,0.041515168,-0.41320598,-0.013553906,-0.15108562,-0.15342355,-0.09520803,0.18373227,-0.07977741,-0.039664533,-0.025233964,-0.022759559,-1.0662438,0.048510086,0.24799165,-0.013233452,-0.08087624,0.07699762,-0.19547062,-0.07566387,-0.24778983,0.12676823,0.12854534,0.025210325,0.0019512469,0.032061562,0.15580371,-0.09880361,0.056407806,-0.07925368,-0.121219926,0.15444514,-0.051748764,0.15387419,-0.05182986,-0.39943415,0.06649273,-0.14537342,0.11939056,0.302444,-0.04659493,0.30134848,-0.21250169,-0.021084635,0.01574476,0.1410964,-0.026186965,0.0033640277,0.012399767,0.15669604,0.05174089,0.14361443,0.3046059,-0.06032142,0.15675423,-0.49067432,-0.011004466,0.09027954,0.225671,0.009266816,-0.018217757,0.073870465,-0.09400267,-0.20829976,0.08034209,0.12569349,-0.13437577,-0.19227868,0.020701453,0.00958655,-0.008291041,0.048686747,-0.07993768,0.09041857,0.00014274343,0.26421353,-0.13456114,0.07756475,0.071981065,0.06870974,-0.018001705,-0.06847126,0.10048594,0.118842915,-0.17058462,-0.016428554,0.069060706,-0.22572151,-0.015691595,-0.010303707,-0.10940836,0.009143139,-0.0872086,-0.3113976,-0.06325341,0.10563883,0.14845039,-0.12536035,-0.051418804,-0.063590385,0.14550866,-0.06855311,-0.35876688,-0.07206738,0.18414086,0.2463526,0.055782907,0.049047235,-0.082375474,0.11479694,-0.065569945,0.043859538,-0.3881367,0.10408007,-0.09884363,0.016373733,-0.07793412,0.18523706,0.16262649,0.06871487,0.06346617,0.120365456,-0.26816478,-0.07136141,-0.12434329,0.13278148,-0.14379255,-0.59247446,0.16817921,-0.09082323,0.019394467,-0.10656028,-0.15638061,-0.010750514,-0.13241704,-0.16499664,-0.0932632,-0.08739475,-0.7230541,-0.046386093,0.09824548,0.01115632,-0.04226566,-0.108536094,0.021932915,0.08305907,0.14914156,0.00035152942,-0.06700046,-0.11676962,-0.0635866,-0.031368334,0.1727235,0.11004344,0.08510118,0.1666953,-0.27848193,0.035099305,0.16357023,-0.037916157,-0.08726694,-0.017200183,-0.078531526,0.058496404,-0.10887741,-0.15980855,-0.32057568,0.2051711,0.124098815,0.013992322,0.04566908,0.16716139,-0.02281446,-0.14318858,0.09344397,-0.17026827,-0.20179358,-0.1787329,-0.07175123,-0.011872511,-0.12996809,0.070312575,0.057903443,-0.3458112,-0.20896922,0.29306176,0.010697335,0.078485,-0.038163286,0.10400299,0.1384736,-0.01587951,0.1842232,-0.08428465,-0.19238843,-0.25922298,0.2236894,-0.12497683,-0.10920245,0.05774095,0.07009274,0.023040373,0.14764571,0.010996747,-0.06031815,-0.1012979,0.18878971,0.024333078,-0.07920798,-0.015765166,0.08653092,0.19713354,-0.27964702,0.18798126,-0.13689053,-0.12454327,0.029703649,-0.17538643,-0.07854866,-0.23701835,0.046948012,-0.2103951,-10.420304,-0.06346855,0.03903132,0.14810282,-0.0014844106,-0.018870387,0.027642304,0.16643038,-0.064733334,-0.09570646,-0.04595733,0.05439263,-0.09372832,0.093066916,-1.8220662,-0.0930721,-0.10460485,-0.31858525,0.11280459,-0.16042987,-0.031248337,0.12715131,0.0764405,0.17616569,-0.10216971,-0.1886429,0.448344,-0.19433501,-0.16005924,-0.08874852,0.066353455,0.024810279,-0.07987728,0.059040647,-0.03131493,-0.06871977,-0.14167997,-0.0649749,-0.20481518,0.051255554,0.26727214,-0.057348255,0.013178181,-0.16444494,0.12198389,-0.10165778,-0.07407561,-0.09703172,-0.12808774,0.93015426,0.0884081,-0.04964268,0.062470246,0.055504557,0.21621737,0.040209,-0.08460631,-0.09919478,-0.2400152,-0.105040446,0.016307637,0.039357286,0.053074557,0.28969777,-0.0069321753,5.1844125,0.12081219,-0.041718047,-0.14475629,-0.04202952,-0.078068286,-0.11969555,-0.032765698,-0.1565845,-0.22659135,-0.118542284,0.17385396,-0.059466776,0.16404821,-0.12230963,0.0046266555,0.030794179,-0.20438822,-0.12686409,-0.0057710432,0.33862072,0.019081086,1.124851,-0.14186062,-0.06443867,0.11179639,-0.17173897,-0.0479992,0.29468632,0.01357634,-0.074373156,-0.029368093,-0.12937136,-0.10043215,0.03218183,-0.08237371,-0.036257748,0.28194177,-0.11716372,-0.1321118,0.15864381,-0.053579077,0.22446193,0.047047738,-0.0049700825,0.09319943,-0.031063333,-0.11065955,0.015527173,-0.087627195,-0.046805225,0.029757878,0.21734223,-0.23687378,-0.10938938,-0.06725047,-0.037528537,0.06592249,0.1365583,0.035692677,-0.0031957028,-0.080564275,0.07603603,0.09986312,0.06665426,-0.21265878,-0.05242873,0.05727893,-0.026859019,-0.16606696,-0.057261534,0.13994423,-0.08724896,0.10129122,0.084586985,0.09975887,-0.18874454,-0.10749385,0.042288862,-0.030906366,-0.027015582,-0.11315221,-0.0030965672,-0.11315244,-0.005046483,0.10024949,-0.10735697,0.0861403,-0.090131834,-0.10948955,0.2017395,-0.29156867,0.023346025,-0.029060993,0.042108566,0.13800316,0.20347275,-0.061578553,0.1136604,0.07211227,-0.18416366,-0.09825986,0.0313394,-0.01626047,0.13404085,0.0068035405,-0.17437933,0.05143036,-0.083383456,0.0066960603,-0.16281888,0.11715808,-0.093216285,0.028231893,0.025455164,-0.12958477,0.083511025,0.03214755,-0.10660966,-0.009708761,-0.17587988,0.05653601,0.055940185,-0.043321725
audio_108.wav,-0.020850727,-0.087710924,-0.09658199,-0.049169403,-0.075110115,-0.041099858,-0.009171688,-0.13344476,0.35984233,0.0064205904,-0.20032196,-0.0671972,0.11261129,-0.27444002,0.1867441,0.04237605,0.13621785,-0.0006124662,0.055572048,0.10145132,0.21856388,0.08262574,-0.013673088,0.05945898,0.07724884,0.054286696,-0.0868128,0.08650378,-0.20029268,-0.41679475,0.058321714,-0.08383191,0.18572208,-0.005644905,0.04564296,-0.21641487,0.10440197,0.1703364,-0.17163885,0.0029156243,-0.1007713,0.25825837,-0.1546173,0.049084738,0.16697344,-0.0257424,0.013504393,0.08699375,0.057454914,0.02470382,0.056962524,-0.11289547,0.11306362,-0.0049259765,0.002857446,0.072719306,-0.008418667,0.13220204,0.0052857287,-0.22740693,0.22279386,0.35410184,-0.04442279,-0.12560678,0.04342408,0.2299554,0.2016307,0.17148007,0.01613613,-0.2780623,-0.19147323,-0.071755536,-0.05082904,0.13629924,0.024638923,0.08252218,0.03578213,-0.00813705,-0.22120744,0.09715196,-0.18961501,-0.101897,0.0392027,-0.112841815,-0.10874462,-0.07284936,-0.09928259,0.13511528,-0.18807773,0.0724213,-0.5399445,-0.12258296,-0.15599863,0.15230289,0.07111854,0.1852232,0.2986774,-0.046102773,-0.06599709,-0.008694827,-0.07427989,-0.00015653165,-0.04972749,-0.035249583,0.007495548,0.085815385,-0.06490198,-0.014654909,-0.06368716,-0.10269465,0.1347696,0.044295978,-0.029343583,-1.3900961,-0.09470058,0.16142704,0.06874764,-0.11344203,0.14159259,0.14321968,0.25469434,-0.1692037,0.021393308,0.13220333,-0.0033213699,-0.334359,0.13176094,0.14854658,0.09355941,-0.1345207,0.013666592,-0.007752266,0.13589606,-0.07828471,0.02340481,-0.2085237,-0.6029874,-0.036730696,0.04053224,-0.027987015,0.2387253,0.10352396,0.03446912,0.0397683,-0.02473985,-0.07771878,0.015581898,0.040111933,0.0794428,-0.13345492,0.08942289,-0.029648853,0.08421066,0.47977525,-0.14471844,0.07805164,-0.7263837,-0.041137516,-0.07905283,0.060350243,0.055251755,-0.17136735,-0.1437875,0.03657945,0.019536987,0.017809812,0.1228422,0.12354115,-0.22354616,0.0356824,0.17600082,-0.03009174,-0.11384338,-0.08092103,0.14051464,-0.23318861,-0.1444259,-0.011952507,0.06524002,0.025466792,-0.13091074,0.01017044,-0.048435565,-0.22911891,0.13623887,-0.20722371,-0.10353011,0.08463594,-0.06132789,0.1998383,0.24905838,-0.3128418,-0.02650848,-0.043280307,-0.22103678,-0.17971309,-0.106343076,0.0631006,-0.08259477,-0.004589552,-0.14627585,0.2039838,0.19138922,-0.30240127,-0.13012649,0.047301188,0.27852672,0.18465948,-0.016950382,-0.2037255,0.016112678,0.027070994,0.08064675,-0.19627987,0.095362894,-0.06513723,-0.7075659,0.03709365,-0.020798745,-0.0681171,0.098844826,-0.018548634,0.014430496,-0.088910036,0.10350407,0.018214818,0.120683186,0.059400603,-0.37351748,0.148418,0.20483594,0.29323062,-0.13446923,-0.22936422,0.011976602,0.017985998,-0.14093997,-0.13039383,0.116456285,-0.7594832,0.17445348,0.1366562,-0.08534544,-0.13142346,0.5253702,0.07017678,0.007372437,-0.01553032,-0.20247054,-0.057783723,0.032926697,-0.06321414,-0.04759233,-0.09901473,0.120308585,-0.011513496,-0.207368,-0.06663723,-0.11483305,-0.02875035,-0.23599572,0.020204645,-0.06541196,0.17583409,-0.14014192,0.019997306,0.34872535,-0.0043008984,-0.15853254,-0.047918994,-0.2806927,-0.03983386,0.05748478,0.054406025,-0.18826538,-0.017047632,-0.20156738,-0.10779107,-0.07407352,-0.028066885,-0.099302106,-0.012656899,0.09007456,0.22333989,0.048363373,-0.105851606,-0.13605767,0.09158252,-0.0050550713,0.12332892,-0.07725266,-0.086939126,0.50271547,0.13515095,-0.05692997,-0.14493616,0.051085964,0.25366214,-0.20020162,-0.08818136,-0.019620227,-0.20729254,-0.03193981,-0.0120369615,0.2842407,-0.13946362,-0.055876084,0.1597613,-0.17518762,-0.16895221,0.07171614,-0.13326177,0.21868949,-0.24512899,-0.09706517,-0.042997874,-0.17624967,-0.11794761,-0.16163406,0.09206931,0.017927911,-0.08153424,0.07357983,-10.82265,0.1378197,0.015069465,0.11811858,-0.04863639,0.10569458,-0.03688072,-0.15412663,-0.04751786,0.07613202,0.04996172,-0.12434128,-0.40506855,0.049116243,-1.4669445,-0.053517364,-0.053404983,-0.12398984,0.052539643,-0.0658487,-0.08644034,0.16910753,-0.0984252,-0.21693026,-0.09210316,0.16068572,0.18728977,-0.19878723,-0.092273556,-0.2989667,0.20485066,0.03378043,-0.19130552,0.21148962,-0.22872174,-0.14890772,0.010049727,-0.15695074,-0.15178992,0.03896219,0.08424083,-0.040275145,0.088050984,-0.015106965,-0.012559158,0.046840366,0.14725946,-0.072792664,-0.10705101,0.65703976,-0.056258477,-0.025069043,-0.019013565,-0.0077159475,-0.01628579,0.07283721,0.06575531,-0.025976663,-0.18178095,-0.14555873,-0.112896934,0.058047984,-0.15188995,0.25827196,-0.1326667,5.2762423,0.07479276,-0.037280593,-0.10507238,0.027317153,0.2079494,0.32058454,-0.0071646688,0.021546893,-0.6340159,-0.1353253,0.052152216,-0.008844369,-0.012497923,-0.13669243,-0.112812206,-0.08911369,0.19021906,-0.04882932,-0.01180141,1.0133239,0.13034864,1.2497747,0.22001562,0.11657595,0.15738367,-0.027642878,0.029387215,-0.06315139,0.06091108,0.091045655,-0.02467936,-0.36886394,0.0041097132,-0.04914738,0.059759796,-0.16046399,0.30094725,-0.15209433,-0.02698484,0.025425475,-0.24394348,0.10507305,0.0018613574,-0.018823717,0.042570647,-0.14602917,0.23165599,-0.03502108,-0.047114022,0.10511497,0.080183014,0.19296972,-0.22708704,-0.033276774,-0.046679895,-0.32968763,0.088574424,0.10737976,-0.17410083,-0.10493338,-0.18469954,-0.17539604,0.14956297,0.069418274,-0.08695805,0.058275178,0.047145486,0.15831351,-0.14133607,-0.003947956,0.12446338,-0.20887716,-0.42352575,0.017960425,0.17939731,-0.06586946,-0.113761455,0.1365236,0.056618117,-0.20349003,0.1317234,-0.20944838,0.019275595,-0.21630049,0.058155037,-0.009077361,-0.02372869,0.15482537,0.02911384,-0.11277228,-0.05370402,-0.028779252,-0.21272555,-0.08426269,-0.017335525,0.16513608,-0.24388601,0.16191545,0.15235533,-0.17470866,-0.084052816,0.05702173,0.11655566,0.13574658,-0.13940652,0.16502212,-0.111596905,-0.07968879,0.112218894,0.13196197,-0.070372954,0.043059982,-0.08112921,0.03688164,0.045808714,0.20180078,-0.18018068,0.27870607,-0.10373366,0.13550241,0.12144006,-0.2849429,0.0015611623
audio_109.wav,-0.14645351,-0.120417364,-0.08866084,-0.19964,0.28983402,-0.10453154,-0.15987073,-0.18788639,0.58471006,0.1394201,0.16751096,0.059565548,0.045550674,0.07154709,-0.009404966,0.031336594,0.26174393,0.121815875,0.09915506,-0.016508458,0.08937974,-0.12872264,0.1187398,0.09814724,-0.034225997,-0.12072078,0.037386432,0.16003509,-0.11369338,-0.6071982,-0.023455175,-0.29803842,0.38711002,-0.016910803,-0.1571129,-0.11946707,0.21133684,0.1640091,-0.19640134,-0.028961403,-0.23625341,0.2121934,-0.17912512,0.061716147,0.045179345,0.11577222,0.118346065,0.08489103,-0.024242736,-0.031112604,0.23239921,-0.04352361,0.06533224,-0.14714183,0.013772515,-0.024654146,-0.0010579777,-0.014233398,0.05501018,-0.07218451,0.15007135,-0.3911819,-0.00062172697,-0.11656091,0.032492097,-0.011414978,0.23270568,0.16494983,-0.007830847,-0.52672553,0.124585934,-0.017043468,-0.08688028,-0.09144617,-0.07357598,0.0629807,-0.11843351,0.06892285,-0.095358156,0.09208858,0.0009063797,-0.10251267,0.09636366,-0.24693443,-0.10194952,-0.13507426,-0.10158469,-0.11106299,0.41908106,0.2008927,-0.30499622,-0.05597949,-0.041820057,0.15123375,0.020973729,-0.013867971,0.48922363,0.11924209,-0.36515683,0.09354771,-0.24940836,-0.16993086,-0.035623364,-0.25419572,0.039066028,-0.022735188,-0.048740212,-0.046603214,0.21918003,-0.05421224,0.069954224,0.14988749,-0.13223986,-0.84740925,0.0521528,0.007944908,0.067800395,-0.08223914,-0.14355877,0.036559496,0.15269937,-0.13687311,0.17138715,0.040928107,0.047282603,-0.05496522,0.32188326,-0.091451615,0.020252028,0.015395331,-0.18685624,0.07813297,0.026736857,-0.028867895,-0.019277915,-0.028546503,0.0300623,-0.043460358,-0.11214919,0.17424409,0.13069561,-0.24568065,-0.07097779,-0.22154799,0.049831294,0.21439144,0.13279252,-0.012677086,-0.037716452,-0.09255094,0.08199752,0.13996398,0.02138412,0.114500284,-0.1636655,0.12513275,-0.2068428,-0.101869576,0.0022416662,0.045433857,0.04187167,0.09922481,-0.011039515,-0.014706003,-0.12785088,0.06566675,0.13343473,-0.028353248,-0.061505415,-0.13868997,0.016618758,0.021166462,0.13984066,-0.1853049,0.019162612,0.0034147797,-0.06837997,-0.021290844,-0.05464256,-0.11858018,0.09373076,0.047270384,-0.13419837,-0.11689775,0.079786465,-0.120049216,0.024396665,0.0124494145,-0.019867761,0.11721279,0.10255316,-0.1241002,-0.08353484,-0.009635775,-0.2767399,-0.022687139,0.017952356,0.10303017,-0.052264668,-0.079626665,-0.1967685,-0.18918857,-0.074992605,-0.181489,-0.014748792,0.049994532,0.38223124,0.27448282,0.006799818,-0.122296266,0.172843,-0.06590976,-0.16395937,-0.08760823,0.05669593,-0.06585326,0.14293629,-0.19567443,0.0572518,0.16323528,0.1922744,0.020425241,-0.021712048,-0.116216265,0.048177917,0.031984486,-0.06782481,-0.070980236,-0.49403384,0.19174124,0.14074144,0.09688036,-0.17916352,-0.2707941,-0.053087756,-0.16673085,-0.03654033,-0.27750006,0.012639285,-0.6864252,-0.18650681,-0.031501647,-0.017072681,-0.08883254,-0.01967483,0.008622125,0.023583623,0.10502901,-0.07852165,0.08681661,-0.17876297,0.09974464,-0.10287604,0.20344223,0.12705319,0.13738008,0.07375244,-0.2854576,0.086111665,0.142791,0.05357953,0.114159666,-0.14597231,-0.16463901,-0.01951011,-0.24815415,-0.08922938,-0.13692908,0.28257948,-0.0010311527,0.01974997,-0.08212103,0.06439312,-0.022140777,-0.16493745,-0.008270627,-0.16427328,-0.19085169,-0.18043225,-0.14194077,-0.012331054,-0.02571031,0.04738514,-0.08219087,-0.22207345,-0.19561605,0.13861497,0.10239789,0.15011947,-0.026394293,-0.18521163,0.093557686,0.5573336,0.1382991,-0.1375943,-0.07262043,-0.034361754,0.28162038,-0.04447817,0.06836001,-0.042308636,-0.06483438,0.018697502,0.052793812,0.0655346,-0.255698,-0.17859814,0.04101107,-0.09171062,-0.18458264,-0.03218587,-0.11203693,0.09033818,-0.6700608,-0.17025144,-0.12488274,-0.014301798,0.09073505,0.043112837,0.067810476,-0.18069543,0.21201725,-0.20753756,-10.941753,0.004688347,0.03314961,-0.083590545,0.052292496,0.042065974,-0.06958956,0.019073691,-0.046398167,-0.086340636,-0.00940807,-0.08875912,-0.16589239,-0.10181327,-1.0447735,0.04898106,-0.10874077,-0.15751626,0.120721444,-0.29694778,-0.05488124,0.19380595,0.030511655,0.011851965,-0.2817923,0.052641135,0.32424852,-0.25303113,0.0077393544,-0.10519794,0.0023324324,0.16673435,-0.12125787,-0.36365485,-0.032407176,-0.12607653,-0.17353292,-0.13301419,-0.4082712,0.024040151,0.282901,-0.059833545,0.13394187,-0.037137203,0.21530655,-0.17922767,0.041093566,-0.117138386,0.026922127,1.358278,0.015807852,0.06971557,0.018875023,-0.08913235,0.040496003,0.06461149,0.06460934,0.0053916066,-0.21783508,-0.16132952,-0.07140149,0.07239906,0.018569402,0.27733576,0.007504862,5.2279496,0.18541606,-0.27916634,-0.00058268866,-0.0373192,0.025900878,-0.2890416,-0.009725589,-0.17616472,-0.15981945,-0.11987441,0.18095471,-0.07129862,-0.06425031,-0.0037041078,-0.0058680214,-0.12986384,0.15217109,-0.0850339,0.1647913,0.4545491,0.05379897,0.93513095,-0.30503777,-0.07564668,0.1364363,-0.021178108,0.08924707,0.1872771,-0.059660226,-0.021055987,0.015392889,-0.13587601,-0.07647509,-0.07736571,0.004056137,-0.14293805,0.15363029,-0.08900402,-0.15986349,0.1308586,0.04885266,0.28397763,0.020524511,0.0068977624,0.045053717,-0.011898218,-0.15089495,-0.1487172,-0.10924581,0.002036574,-0.08022094,0.08738687,-0.2209918,-0.20263352,-0.12721401,0.018025007,0.08021336,0.24836259,-0.024644641,-0.082009725,-0.2441065,0.0012672627,0.027112205,0.057624836,-0.1684765,0.011839732,-0.06672582,0.020528696,-0.105352774,-0.21862221,0.22484691,-0.24557297,-0.23818237,0.18494566,0.491609,-0.21012507,-0.053934835,-0.022365216,0.07973828,-0.12595175,-0.19143577,-0.0648418,-0.0045170207,-0.11373849,0.044349447,-0.069425285,0.09729714,-0.11131445,0.06021647,-0.09429355,-0.14061317,0.1019212,0.0031279945,-0.058988098,0.25339904,0.18256341,-0.19244492,0.41759506,0.108626075,-0.014055553,-0.1335734,-0.060114276,-0.0473587,0.33045587,0.112094134,-0.09407606,0.04580985,-0.058289032,0.18301652,-0.10632475,0.08480729,-0.050243795,0.12928149,0.025339747,-0.16792616,0.11375184,0.17368223,0.17356415,-0.101729564,-0.0026482684,-0.097834535,-0.11148036,-0.11597326
audio_109_2.wav,-0.122823626,-0.087513104,-0.089062095,-0.22905037,0.22598386,-0.13092591,-0.19674443,-0.25040337,0.5490843,0.10902477,0.25348687,0.119904324,0.04620953,0.04018541,-0.04142768,0.055171937,0.18242355,0.1532289,0.120729186,-0.023064649,0.07461852,-0.102012284,0.11831187,0.06050358,-0.06909931,-0.10485326,0.02945398,0.19692737,-0.09886493,-0.680404,-0.03763389,-0.29333752,0.3658024,0.06654624,-0.15379412,-0.10940429,0.21902077,0.11732659,-0.1997146,-0.0106683755,-0.16212769,0.30396155,-0.12753652,0.069646485,0.030299952,0.15924951,0.11649927,0.059033096,0.001159633,-0.058499973,0.07408439,-0.065236084,-0.013328126,-0.10045031,0.03057228,0.020377574,-0.012478504,-0.027204314,0.058405623,-0.121444196,0.12853108,-0.40841708,0.019034425,-0.07679702,0.039448604,-0.03352389,0.16575412,0.087246425,0.017468931,-0.40228093,0.10583714,-0.016046638,-0.0706319,-0.10250126,-0.13094893,0.082185015,-0.049256917,0.03938337,-0.034919586,0.119917914,0.062880605,-0.097141296,0.0943656,-0.22294995,-0.071731515,-0.16106024,-0.18275125,-0.14376849,0.3920896,0.17709318,-0.33792362,-0.050907593,-0.030579185,0.08052095,-0.024787487,0.009747115,0.7144287,0.07897767,-0.28803736,0.12764479,-0.17823152,-0.16689128,-0.06801294,-0.2604991,0.04971904,-0.047526717,-0.014060746,-0.10885275,0.17765446,0.0056896056,0.010978815,0.12460608,-0.1402213,-0.71270293,0.050693747,-0.031930268,0.051399834,-0.07344763,-0.10122275,0.061781697,0.15463325,-0.15620843,0.123166464,0.11451819,0.07134365,-0.06570658,0.3486836,-0.11427737,0.047326393,0.07933818,-0.1774493,0.0564715,0.010597006,-0.093203105,-0.04415576,-0.038323734,-0.07425629,-0.0207017,-0.10948033,0.16439752,0.18494749,-0.2182511,0.073265746,-0.25647143,0.03543564,0.22425319,0.13447036,0.007995222,-0.041120157,-0.014131407,0.060189676,0.07020701,0.021184837,-0.034374464,-0.11636762,0.09774302,-0.16024797,-0.0990436,-0.03664364,0.060130768,0.052571565,0.060269725,-0.0017475268,-0.012178281,-0.08682655,0.023507949,0.062777326,-0.07761268,-0.08214647,-0.14969045,0.016987605,0.029233973,0.11068247,-0.15664126,-0.021849979,0.037028942,-0.10344657,-0.05532406,-0.07677154,-0.120917015,0.07684844,0.086491436,-0.11792169,-0.16070093,0.08518859,-0.06758283,0.013738749,-0.01621898,0.008733177,0.12890741,0.092915624,-0.13782628,-0.110686146,0.017303128,-0.22329324,0.008324082,0.002911964,0.038307663,-0.033570286,-0.089775726,-0.09162995,-0.23436871,-0.060008097,-0.12763058,0.017443191,0.06415449,0.36336058,0.23910545,0.049572967,-0.15975858,0.2029972,-0.046152223,-0.13174783,-0.116450995,0.07739236,-0.1204489,0.10830763,-0.15030399,0.045863412,0.21440654,0.14858806,0.062202502,0.015760835,-0.086221635,-0.0017434387,-0.017439371,-0.07854949,-0.04019013,-0.44579092,0.18029836,0.17212823,0.03527395,-0.134886,-0.22793782,-0.093436055,0.0108413845,-0.012151161,-0.21339469,-0.010509218,-0.71940154,-0.19031888,-0.0725254,0.0013312111,-0.09690758,0.0577923,-0.012652158,0.018166842,0.118598364,-0.093756124,0.044003602,-0.18440853,0.08215528,-0.14713901,0.17333801,0.106181495,0.12336548,0.17296681,-0.25895095,0.050674956,0.07283504,-0.00189614,0.13464043,-0.1250727,-0.20961522,0.028721191,-0.21585034,-0.1349229,-0.16814744,0.25172448,0.029448679,0.019897448,-0.12368514,0.092117876,-0.10054081,-0.14076279,7.672882e-05,-0.16465077,-0.11219481,-0.15921478,-0.18105061,-0.057943147,-0.077549376,0.07919788,-0.108542405,-0.2590202,-0.20614465,0.1442575,-0.011327438,0.18061756,-0.039377928,-0.18264437,0.10775265,0.5465022,0.1580938,-0.14461485,-0.00894794,-0.07084196,0.3863466,0.021298463,0.077124126,-0.03465942,-0.016985001,0.021727506,0.1432468,0.0075141173,-0.17348754,-0.13273984,0.11885197,-0.08917373,-0.14469582,-0.006245477,-0.14936602,0.034226153,-0.78533,-0.17757042,-0.096566446,0.045787368,0.084631175,0.055322494,0.03306947,-0.097236276,0.26601616,-0.20213687,-10.904638,0.03217974,0.022924466,-0.06849192,0.026902562,-0.0010786165,-0.034562293,0.049782887,-0.049058177,-0.08195067,0.01853177,-0.10577315,-0.08659235,-0.11392507,-1.0920576,0.065812275,-0.18869811,-0.2118115,0.1126487,-0.22689554,-0.06734135,0.095417574,0.053005766,0.0048838193,-0.22905347,0.027979441,0.31301817,-0.15679908,0.04688248,-0.08544821,0.017400919,0.13665403,-0.08657118,-0.30343765,-0.047930043,-0.09684831,-0.12644364,-0.1102865,-0.37422526,0.031048015,0.24249336,-0.033597767,0.08806182,-0.092128515,0.17093599,-0.22573659,0.015363517,-0.0430277,0.07449739,1.289314,0.054160785,0.0843186,0.023470495,-0.057462372,-0.0137420725,0.038355358,0.005932354,0.014993756,-0.19077374,-0.14833294,0.0003559866,0.0542461,0.00409486,0.3149092,-0.015978483,5.1512423,0.101627626,-0.3147825,0.058107655,-0.024791932,-0.0066147386,-0.23558548,-0.038239896,-0.13936281,-0.08700175,-0.1366466,0.18738903,-0.019856047,-0.1396519,-0.02833411,0.020087998,-0.0965042,0.14913096,-0.07371455,0.117398866,0.2547653,0.084772244,0.9684108,-0.29846835,-0.06426421,0.12068843,-0.012693135,0.11712096,0.1686382,-0.07721642,-0.042340033,0.021996194,0.012543993,-0.05040765,-0.068531305,-0.0014052226,-0.19136748,0.044595595,-0.14014016,-0.23533997,0.09434747,0.07149526,0.17508353,0.07521348,0.046369307,0.05743644,0.022477241,-0.16691951,-0.15787369,-0.12412931,0.013398454,-0.022915415,0.019196734,-0.21404997,-0.22223237,-0.06591304,0.06346644,0.05101313,0.27761766,-0.07291042,-0.05663093,-0.22841188,0.0075277924,-0.03446605,0.050008718,-0.1830674,-0.023967825,-0.056038283,-0.013359291,-0.06681439,-0.23662424,0.20547168,-0.16249803,-0.1308918,0.12280224,0.53412807,-0.21315959,0.018843943,-0.03505202,0.006926189,-0.16201493,-0.17897457,-0.078620754,-0.04944348,-0.070831,0.04367386,-0.060870267,0.102862306,-0.18872863,0.044709627,-0.10333954,-0.15351762,0.06910631,-0.011197694,-0.11771881,0.23333536,0.101937346,-0.14601871,0.5058306,0.08339422,0.04380946,-0.15009995,-0.10455725,-0.020195873,0.24379443,0.06598774,-0.04634252,-0.06486407,-0.019029222,0.12438114,-0.11282499,0.12686157,-0.021784054,0.13104698,0.038963385,-0.17996657,0.068598315,0.26976618,0.10822157,-0.12759022,-0.057869617,-0.07878041,-0.09660106,-0.07020879
audio_10_2.wav,-0.01292307,-0.011646065,-0.026360469,-0.048938673,0.10683565,-0.11866345,-0.12773028,-0.022028737,0.5684543,0.12744345,-0.06805656,0.12838499,-0.018165002,0.054991342,-0.16145311,0.014460537,0.099478796,0.10605571,0.09090841,0.0080249375,0.07296571,-0.20236759,-0.08050045,-0.016381886,-0.049437582,-0.18258199,-0.040424872,0.19833392,-0.16496082,-0.3050678,-0.07262615,-0.18954659,-0.002835367,0.06408498,0.050773717,-0.11491169,0.14805436,0.121018484,-0.05929305,0.01702973,-0.11090497,0.27181348,-0.06312153,0.09649182,-0.023115305,0.13804673,0.033167295,0.16252258,-0.13453557,0.0016831347,0.011724068,-0.09227956,-0.09173005,0.10161346,-0.0083673885,0.06953844,-0.061891783,0.0671369,-0.023110716,-0.11291257,0.077075146,0.052009087,0.058115833,-0.019676875,-0.16180599,0.026027288,0.077976346,0.19511463,0.16111499,-0.324355,-0.002857746,0.039566018,-0.14007975,0.026963416,-0.067710705,-0.03970504,0.38580233,0.012480792,0.08191567,0.030486012,-0.04204232,-0.20723398,-0.13439196,-0.08004245,-0.030546157,-0.21081673,-0.29991275,-0.042004984,0.16488098,-0.649194,-0.10400956,-0.07687049,0.039175294,0.11466575,0.07235258,0.00574689,0.8707578,-0.041565016,-0.060610518,0.11688589,-0.05417717,0.09798999,0.0697924,-0.46435362,0.055764496,0.083136864,-0.061160393,-0.17439072,0.22716027,-0.11320682,0.035087593,-0.06523806,0.030252637,-0.6208212,0.011124713,0.15347931,-0.056561057,-0.029181441,-0.11278674,-0.13707033,-0.007770742,-0.012183517,0.1522037,0.20804468,0.03006347,-0.067276284,-0.029274246,0.05849681,-0.04969398,-0.07350942,-0.1680314,-0.04772124,0.11036856,-0.07203631,0.16162229,-0.04837209,-0.48891258,-0.0371799,0.056909077,0.097061604,-0.0016355272,-0.02149948,0.015895177,-0.1861952,-0.01608139,-0.13021845,0.019286403,-0.04411858,-0.120553486,-0.14820065,0.12115752,-0.06476605,0.05324762,0.16245633,-0.0925961,0.18961112,-0.38383928,0.016979858,0.19279766,0.15056358,0.01052792,0.06761155,0.13398503,0.052443154,-0.105187275,-0.03253873,-0.023241274,-0.09830171,-0.20139182,0.080564074,0.19498411,-0.012463842,-0.08293615,-0.03729484,-0.11890032,0.2869154,0.04596937,-0.1074485,-0.05532003,-0.122391485,0.16993028,0.160337,0.057428278,-0.124348916,0.024985552,-0.16642651,0.020322334,0.0054610926,-0.13224627,0.18256006,0.11688873,-0.16681957,0.059822377,-0.012373555,-0.033792723,-0.03696278,0.058979236,-0.07256056,0.024799543,-0.13187513,-0.10492216,-0.11321237,-0.0631022,-0.18143603,-0.07966372,0.109519705,0.23721622,-0.05683423,0.07111993,-0.14434366,0.052819367,0.07437261,-0.050329838,-0.098085746,0.17319283,-0.02625224,-0.107295856,-0.052957967,0.17737453,0.08695578,0.10231366,0.080175415,0.015442856,-0.17985539,-0.08827819,-0.037165284,-0.0022955143,-0.14576481,-0.5267818,0.07041702,-0.01649752,-0.003887563,-0.22083479,-0.205041,-0.04774131,-0.0806716,-0.09818965,-0.029880457,-0.0052675526,-0.86361873,0.24024974,0.19441864,-0.045495305,-0.0004969921,-0.087306455,-0.145819,-0.035801955,0.23951322,-0.039768737,0.0792412,-0.11509341,0.055275727,0.14058132,0.23052879,0.04305352,0.23389603,0.15578279,-0.27095452,-0.09217784,0.042982757,0.08254956,-0.07473199,-0.07031997,-0.05289256,-0.02259027,-0.035176042,0.00045229847,-0.047564205,0.13526183,-0.027373448,-0.06885015,0.06186594,0.034921784,-0.07266856,-0.12564848,0.05897586,-0.32812276,-0.0792182,-0.19250451,-0.12279474,-0.01905562,-0.06466112,-0.019719103,-0.11284448,-0.18669286,-0.23271883,-0.06133191,-0.2642563,0.1854825,-0.0135662025,0.021381743,0.023860712,-0.17199266,0.084765635,0.035572745,-0.11440957,-0.06691149,0.16236681,0.089003965,-0.079717234,0.08317537,0.1307094,0.06863253,-0.090994336,-0.06765982,-0.2586341,0.059150014,0.07834012,0.10380894,-0.036392413,-0.07783182,0.028857809,0.1596121,-0.025129965,0.27087852,-0.30398756,-0.28636166,-0.020218667,0.00755451,-0.054229025,-0.02233936,0.011187067,-0.059437636,-9.74839,-0.09847778,0.058562327,0.098955445,-0.06448638,0.072748266,-0.019009924,-0.07419116,-0.1199732,-0.149725,-0.06844144,-0.13986358,-0.03404456,-0.008172879,-1.9791684,-0.10790741,0.013251903,-0.1838996,0.03973522,-0.13829659,-0.0045518326,-0.04012767,0.3222384,0.37342927,0.016049886,-0.31834775,0.20443563,-0.052666686,-0.023557132,-0.1481579,0.045866694,0.1977214,-0.08882007,0.042731516,-0.033161126,-0.18173636,0.086883344,0.0015647856,-0.19695888,-0.031381797,0.05488784,-0.107183285,-0.031081686,-0.2513558,0.053935222,0.20264667,-0.053856947,-0.07233615,-0.14551744,0.9017363,0.07272735,0.05407765,-0.089727856,0.053949453,0.12167242,0.12973575,0.016502172,-0.151362,-0.21383439,0.024687532,-0.10366744,0.14297812,-0.025309473,0.119699545,-0.059323456,5.2627163,-0.06598432,-0.09814136,-0.14214554,-0.09617176,-0.10672852,-0.7555683,-0.03881521,-0.07994745,-0.1364866,-0.0234334,-0.1034544,-0.07610141,-0.0077107647,0.021129465,-0.046859365,0.13104586,-0.021506693,-0.050436575,0.10430684,0.05701474,-0.10189684,1.336879,-0.44478646,-0.26307854,0.12229519,-0.075234875,0.13455576,0.19908467,0.119514294,-0.02789358,0.097008444,-0.31622058,-0.05104488,0.027595293,0.036910966,-0.013395394,-0.13157143,-0.0058162967,-0.089973666,0.16707723,0.032194458,0.1031588,0.1844272,-0.05829344,-0.011443757,0.13223757,-0.009039727,-0.11186208,-0.15480228,0.15688567,-0.053896148,0.10569022,-0.17583899,-0.19168009,0.032407053,0.06572225,0.0019461822,0.1545273,0.015047454,-0.043692537,-0.07056048,0.0318559,0.2358118,-0.07956049,-0.067668766,0.053784326,0.18003467,-0.031324588,-0.16194423,-0.12423772,0.2453785,-0.12201598,-0.07934382,0.1342509,0.041808773,-0.26402318,-0.048351582,0.0050498773,0.020647671,0.057445943,-0.059691437,-0.01868959,-0.11225947,-0.06849161,0.090012774,-0.07839816,-0.03535203,-0.47618297,-0.06443392,0.22386798,0.0071533183,-0.09657731,-0.15765679,-0.10658757,0.20894156,0.1752514,0.021969698,0.059291594,0.2099758,-0.119371265,-0.058900524,0.030208567,-0.09402099,0.13263988,-0.03330479,0.0014977887,0.019253228,-0.14783354,0.006959615,-0.091807924,0.23971558,-0.015505849,-0.09264642,-0.024273116,0.047906708,0.01725519,0.0077118855,-0.008436983,0.008996498,-0.20629935,0.0019054451,0.012286082,-0.07805938
audio_11.wav,-0.042261325,-0.12551504,0.023351626,-0.14177427,0.24895212,0.001748488,-0.25209472,-0.01841136,0.42997205,0.15760326,-0.03384855,0.065057315,0.05670996,-0.14977276,-0.06717785,0.020088978,0.10274274,0.19157411,0.007401692,-0.024064455,0.2484705,-0.0727159,0.102063864,0.2622978,0.027076812,-0.032496978,-0.13099742,-0.018817445,-0.13322873,-0.068797834,-0.0015464586,-0.2985031,0.12912185,-0.06539578,-0.065991305,-0.010366965,0.13397834,0.04341872,-0.16357172,-0.0025336554,-0.14256214,0.14260231,-0.0059371223,0.06590226,0.11473,0.16465938,0.0960272,0.04096524,-0.079036795,0.08854464,0.024374671,-0.06826278,-0.033286676,0.042911433,-0.066395134,0.037524004,-0.119696125,0.09424585,0.11825766,-0.122634076,0.166729,0.069101065,0.013567233,-0.06862409,-0.03562645,0.07968926,0.085553914,0.23761897,0.03779358,-0.52275974,-0.17817627,-0.042107146,0.041501343,-0.009668517,-0.100121215,-0.021869395,-0.15310061,0.00384866,0.06299586,-0.06923392,-0.103323594,-0.1431972,-0.06314159,-0.15521592,0.0204592,0.016213784,-0.33707288,-0.15566128,0.3061753,-0.14213502,-0.23066895,-0.013624031,-0.026730018,0.19014163,0.056971528,0.087831296,0.12197369,0.013796423,-0.13054562,0.053850062,-0.09364339,-0.10770646,0.034203928,-0.30488345,0.21697786,0.10483789,-0.14481695,-0.12296044,0.08708022,0.015715629,0.100277096,-0.08017996,0.011915639,-0.85499054,0.1103599,0.09869696,0.03166084,0.016683567,0.107066415,-0.15431674,0.075123094,-0.14182352,0.021023711,-0.06270621,0.17554495,-0.10011005,-0.13976794,0.14867581,0.092920125,-0.1357918,-0.17794913,-0.010744616,-0.10996464,-0.16382277,0.12643269,-0.14147927,-0.4581218,-0.16420317,0.049418427,0.1834626,0.09718512,0.035299253,-0.19071022,-0.09993348,0.10319405,0.11488782,-0.0108483555,0.083122894,-0.017851783,-0.14471593,0.06100708,0.06579322,0.15344156,0.2617175,-0.042421393,0.06256671,-0.738606,0.013987242,0.062342223,0.19798869,-0.006804855,0.105875,0.008797512,0.051036075,-0.15180916,-0.09432089,0.0814637,-0.02740601,-0.13023154,-0.01257725,0.18729386,-0.14942129,-0.062536776,-0.072917014,-0.03825232,0.025146903,0.048066996,-0.05208989,-0.08681937,0.12550104,0.1707244,0.067107856,0.07135523,-0.051148936,0.052647796,-0.11688659,-0.1078252,-0.012906283,-0.13101573,0.052589,0.1258628,-0.22472484,-0.016243463,-0.2464651,-0.077969775,-0.12283392,0.08261602,0.11681461,0.10592749,-0.012411636,-0.14404804,-0.07089778,0.020415207,-0.47338304,-0.037111565,0.2252021,0.31727672,0.0031710744,0.11802476,0.08361394,0.10584942,0.023620872,-0.046649877,-0.050892517,-0.061882846,-0.037322972,-0.095719814,-0.014681983,0.101330355,0.1112453,0.16162665,0.06630846,0.03589325,-0.2948581,0.110190086,-0.0349938,0.06647293,-0.021563536,-0.4466369,0.107276455,-0.009229465,0.06508796,-0.116389014,-0.097259216,-0.06537598,-0.2689588,-0.12370716,-0.19934484,-0.022074645,-0.7085936,0.07632252,0.06943367,-0.030211486,-0.07402829,0.33915892,-0.15215707,0.10427272,0.11281606,-0.060946196,-0.114164,-0.14548597,0.056752287,0.29932377,0.11263342,0.014423238,0.130269,0.13654941,-0.3475365,-0.103938274,0.1227354,0.11381411,0.10438855,-0.11141526,-0.13761444,0.005939364,-0.06369867,0.07524302,-0.14311382,0.01578243,0.097237006,-0.052208893,-0.06037428,0.10672786,-0.08402044,-0.23284781,0.04372292,-0.18876404,-0.24200028,-0.24287727,-0.1963457,0.050215684,-0.124986835,0.030738957,0.19007246,-0.2596076,-0.13218646,0.053230688,0.12694767,0.29179564,0.0074021276,0.11165121,0.08793003,0.33831653,0.10818695,0.027354019,-0.081320584,-0.17530555,0.14781024,0.007449763,-0.1368623,-0.03641307,0.015988417,0.0073678656,0.1434339,0.023727257,-0.06989145,-0.08812018,0.030016664,-0.045469165,-0.19242112,-0.035195008,-0.056050353,0.21874805,-0.2345145,-0.14382772,-0.124816164,-0.3504026,-0.06733525,-0.015238442,-0.08138823,-0.16765499,0.062497593,-0.02789045,-10.191996,-0.10574174,-0.059821375,0.059710175,-0.10861526,-0.0038919258,-0.017091436,-0.04341125,-0.12733659,-0.19160315,-0.027479095,-0.067965716,-0.14369233,-0.14305446,-1.837136,-0.112949826,0.034497865,-0.12857021,0.18372206,-0.099145524,-0.031193873,0.10254166,0.13616745,0.114458166,-0.050958525,-0.08050137,0.3256665,-0.24428219,0.011815399,-0.042676494,0.09986219,0.06771013,-0.14064038,0.016255124,-0.02514624,-0.15167968,-0.01932372,-0.11711452,-0.2420755,-0.07245016,0.28907442,-0.042251933,-0.041693874,-0.21815103,0.078977466,-0.1333718,-0.0153215965,0.01981959,-0.1651708,0.8482801,0.10715574,0.096669026,-0.045643035,-0.17551456,0.01825832,0.08105543,-0.02780423,-0.1888608,-0.29595202,-0.007455854,-0.13438459,0.18456946,0.051298365,-0.12451937,-0.073984005,5.3494954,0.0857021,-0.020472432,-0.06894436,-0.02397932,0.03716578,-0.171364,-0.057601348,-0.0637104,0.014139837,-0.07718808,-0.018235084,-0.048582274,0.05036811,0.0005897077,-0.123913154,-0.01012105,-0.32537687,-0.07239134,0.043776754,0.55618113,0.005757792,1.2811853,-0.22023739,-0.076528,0.043185633,-0.0469211,-0.0025847605,0.21743074,0.036089957,0.06402653,-0.14041644,-0.14541951,-0.09454952,0.023730779,-0.009246262,-0.08597066,0.38641724,0.07424304,-0.25857398,-0.026986267,0.027889362,0.18709917,0.19748205,-0.010511113,0.026573924,0.038561437,0.14740762,-0.1855035,-0.021236025,0.24240987,0.046336323,0.17461869,-0.13217056,-0.2049637,-0.1816696,-0.10214976,0.01623838,0.15268035,-0.10163295,-0.12549208,-0.11217649,0.06061737,0.22339234,0.07621258,-0.06526635,-0.19331104,-0.016817002,0.040423807,-0.0981745,-0.13125825,0.09548229,-0.12484274,-0.21202596,0.06106033,0.08015872,-0.03560544,-0.06385744,0.006747352,0.09363955,-0.022505429,-0.09577386,-0.17291577,-0.064463735,-0.10755334,-0.006112962,-0.013357939,0.054255053,0.11003902,0.11693303,-0.13999712,-0.19643292,-0.03815155,0.06646659,0.013536568,0.13623926,0.32372633,0.015332772,0.20996127,0.18572532,-0.048866924,-0.15101293,0.090423115,-0.036428638,0.11697015,-0.08899375,-0.04395269,-0.0712271,-0.060480576,0.08681706,-0.08438077,-0.011058291,-0.09603666,0.006978576,-0.0109404605,-0.02823659,0.045579676,-0.038325813,0.2735394,-0.056247257,-0.09519406,0.14342429,-0.05832853,-0.21677299
