filename,0,1,2,3,4,5,6,7,8,9,10,11,12,13,14,15,16,17,18,19,20,21,22,23,24,25,26,27,28,29,30,31,32,33,34,35,36,37,38,39,40,41,42,43,44,45,46,47,48,49,50,51,52,53,54,55,56,57,58,59,60,61,62,63,64,65,66,67,68,69,70,71,72,73,74,75,76,77,78,79,80,81,82,83,84,85,86,87,88,89,90,91,92,93,94,95,96,97,98,99,100,101,102,103,104,105,106,107,108,109,110,111,112,113,114,115,116,117,118,119,120,121,122,123,124,125,126,127,128,129,130,131,132,133,134,135,136,137,138,139,140,141,142,143,144,145,146,147,148,149,150,151,152,153,154,155,156,157,158,159,160,161,162,163,164,165,166,167,168,169,170,171,172,173,174,175,176,177,178,179,180,181,182,183,184,185,186,187,188,189,190,191,192,193,194,195,196,197,198,199,200,201,202,203,204,205,206,207,208,209,210,211,212,213,214,215,216,217,218,219,220,221,222,223,224,225,226,227,228,229,230,231,232,233,234,235,236,237,238,239,240,241,242,243,244,245,246,247,248,249,250,251,252,253,254,255,256,257,258,259,260,261,262,263,264,265,266,267,268,269,270,271,272,273,274,275,276,277,278,279,280,281,282,283,284,285,286,287,288,289,290,291,292,293,294,295,296,297,298,299,300,301,302,303,304,305,306,307,308,309,310,311,312,313,314,315,316,317,318,319,320,321,322,323,324,325,326,327,328,329,330,331,332,333,334,335,336,337,338,339,340,341,342,343,344,345,346,347,348,349,350,351,352,353,354,355,356,357,358,359,360,361,362,363,364,365,366,367,368,369,370,371,372,373,374,375,376,377,378,379,380,381,382,383,384,385,386,387,388,389,390,391,392,393,394,395,396,397,398,399,400,401,402,403,404,405,406,407,408,409,410,411,412,413,414,415,416,417,418,419,420,421,422,423,424,425,426,427,428,429,430,431,432,433,434,435,436,437,438,439,440,441,442,443,444,445,446,447,448,449,450,451,452,453,454,455,456,457,458,459,460,461,462,463,464,465,466,467,468,469,470,471,472,473,474,475,476,477,478,479,480,481,482,483,484,485,486,487,488,489,490,491,492,493,494,495,496,497,498,499,500,501,502,503,504,505,506,507,508,509,510,511
audio_1.wav,-0.0075974897,-0.12208146,-0.09057937,-0.03426782,-0.029061338,0.35795507,-0.08292025,-0.0002560717,0.1961088,-0.045118835,-0.12828453,0.045874808,0.08604944,-0.15358043,0.005737702,0.16164146,0.12947468,0.13007739,0.0026280887,0.02409088,0.18041381,-0.056697357,0.1353199,0.2461219,0.0722695,0.13988394,0.11007572,0.2999376,-0.15692745,-0.16938806,-0.02959262,-0.14482234,0.26201835,0.061929107,0.04180985,-0.23922291,0.17991789,-0.057251748,-0.1669784,-0.047982737,-0.09382671,0.16548015,-0.067205325,0.10855365,-0.0073204343,0.054523904,0.12565726,0.16296671,-0.0180698,-0.11017513,-0.13764666,-0.014444993,0.14058559,0.071807705,0.15501866,0.096515775,0.04325519,0.012886525,0.059595235,-0.26277253,0.28991443,0.1280476,0.02397323,-0.13242546,0.02225913,0.191692,0.19999772,0.17571,-0.05707546,-0.4770011,-0.04124703,-0.02857495,0.10231533,0.06053755,-0.0055641048,0.06388,-0.16355906,0.031931978,-0.24852131,0.055775315,0.08769773,0.06598814,0.0049706483,0.1085084,-0.1544748,0.12018166,-0.099777475,-0.010537302,-0.1269528,0.06542893,-0.5379884,0.026005376,-0.12751615,0.21536167,-0.17658748,0.11007515,-0.06963877,-0.15318526,0.062653646,0.0953352,0.0146224825,-0.117046714,-0.09231369,-0.20594116,0.03725009,0.109164186,-0.05375069,0.001383564,-0.06996196,0.07666415,0.027315114,0.010632412,-0.16952609,-2.3849149,0.048457783,0.039997745,0.07115645,0.038681895,0.123546906,0.105585806,0.19725375,0.035096772,0.07286225,0.12537193,0.055809148,-0.2809648,-0.013497592,0.23761523,0.058941428,-0.110746376,-0.07345491,0.04692416,-0.1079399,0.006148062,0.11294389,0.038328893,-0.32794905,-0.051360134,-0.08133902,-0.036899097,0.07482605,-0.001102677,-0.28367013,0.19465962,0.03864268,-0.021991981,0.028812388,0.089039594,0.102557495,-0.037607174,0.06980479,-0.025773844,0.07319191,0.69246286,-0.03147529,-0.06852127,-0.6657477,0.009782469,-0.0247913,0.11925945,0.10969435,-0.1801783,-0.011688658,0.1286354,-0.052117374,0.085725136,0.033441152,0.19622868,-0.27753764,-0.053064004,0.33392015,-0.114177234,0.0006881358,-0.08378891,0.050328936,-0.34329173,-0.056860127,0.03093695,0.059639134,0.085950926,0.018426243,-0.25462285,-0.0641266,-0.16229765,0.2434576,-0.27384022,0.008664552,-0.0011665307,-0.0823464,0.16726631,0.17422786,-0.22360034,0.012741889,-0.18112366,-0.22333284,-0.22250073,0.020345189,0.08184432,-0.023202317,0.0026912587,-0.09508084,-0.04097564,0.043997582,-0.5952674,-0.042461604,-0.0150726065,0.19336218,-0.022578288,0.030409988,-0.27320248,-0.19679973,-0.07987051,-0.1654148,-0.25556156,0.12120323,-0.24544771,-0.65966827,-0.04080342,-0.1497416,0.10514728,0.1030251,0.09313242,0.07777892,-0.08606166,0.18333262,0.03939389,0.20207967,0.00920386,-0.6835539,-0.049778942,0.018227108,0.22013074,-0.098833844,-0.27145523,0.01703721,-0.03446672,-0.116681986,-0.014532887,0.10479641,-0.5152123,0.2811768,0.1586676,-0.0041043954,-0.094866596,-0.022520611,0.10963928,0.09326507,-0.012402661,-0.14420098,0.020647416,-0.05310336,-0.114877306,0.2568395,0.081651546,0.12300539,0.029964065,-0.22081158,-0.16347587,-0.25007617,-0.0075985957,-0.08656704,0.11450663,-0.010922575,0.08804177,-0.101137206,0.04254558,0.09595799,-0.13113107,0.054230724,-0.04591592,0.09429064,-0.05976388,0.09477722,-0.048561014,-0.4123379,0.06107684,-0.1971816,0.1129068,-0.078617096,-0.10373885,0.006355075,-0.10127097,0.011141287,0.2830283,-0.34853315,-0.13028245,-0.17816028,0.013311916,0.017721169,-0.06491847,-0.10277017,0.05535205,0.5957756,0.1469617,-0.04776126,-0.109940305,-0.12408013,0.24147333,-0.028602108,-0.090016805,-0.13224693,-0.13889705,-0.04276816,0.05168515,0.19525354,0.09965421,-0.10213162,0.34990796,-0.23279142,-0.17080696,0.05759431,-0.049358714,0.08922579,-0.47014722,-0.03353083,0.04883773,-0.27548277,-0.07604204,-0.17946029,0.08490574,-0.08773743,-0.07013326,0.08235879,-11.698539,0.14901248,0.051445607,0.09972884,-0.14858529,0.14775962,-0.20636657,0.1273504,-0.022481944,-0.0042368066,-0.030841464,0.014532806,-0.62968814,0.0840971,-1.5927074,0.013594627,0.11611792,0.0469169,0.20836048,-0.18975417,0.0077614267,0.07632725,-0.0123268,-0.21999456,-0.14142777,0.41749027,0.105065346,-0.113251425,0.061118014,-0.19796036,0.09546107,-0.019312415,-0.18278895,0.21763735,-0.08971065,-0.13642295,-0.17836073,-0.37035033,-0.14988841,0.06958359,0.32275328,-0.12971869,-0.09570482,-0.10977817,-0.017799571,0.024491532,0.08302912,0.19002704,-0.05004276,0.71554035,-0.017076826,0.117653005,0.025751423,-0.03715146,-0.060326964,-0.025174748,-0.15601136,0.10491062,-0.14973639,-0.2738431,-0.121112734,-0.13904601,-0.07670891,0.12024859,-0.074633375,5.334457,0.07287571,-0.29073152,-0.16438323,0.056347106,0.2448681,0.536225,0.04156163,0.039463863,-0.3392176,-0.020532697,0.08295792,0.09660159,0.106863216,-0.1212336,-0.10580316,-0.029179763,-0.3469812,-0.11375527,0.17214428,1.122514,0.06989352,1.2309954,0.17616232,-0.007143766,0.28265503,0.06402663,0.13044061,0.052960988,-0.016287128,0.09674709,-0.10676119,-0.15140982,-0.018950695,-0.07882192,0.12451529,-0.14255492,0.37631875,-0.096009076,-0.056410376,-0.11094936,-0.1654402,0.102193065,0.0539393,0.027871048,0.13263983,-0.038995266,0.2095155,-0.019921687,-0.10042344,0.03335563,0.043648604,0.0146753555,-0.24930419,-0.07099551,-0.002303047,-0.21183269,0.1024198,0.15751465,-0.02685403,-0.07498966,-0.084437236,-0.031212406,0.16241075,0.14387071,-0.13548277,-0.079584755,-0.05023887,0.023541208,-0.18587935,-0.12471037,0.24862789,-0.12509371,-0.10594369,0.086874895,0.12567191,0.03377389,-0.09700419,0.057238072,0.07762912,0.03467157,0.006755803,-0.17211376,-0.057762593,-0.10049971,0.099226594,0.18145736,-0.008599629,0.28147307,-0.0063467026,-0.12872848,-0.21084484,-0.12821509,0.06996555,-0.06651623,-0.018260328,0.15066323,-0.11690335,-0.17284301,-0.044502605,0.01968956,-0.015729174,0.10594773,0.14413218,0.06713063,-0.2645948,0.19014286,-0.040497083,-0.07043828,0.07955415,-0.10583065,-0.0317946,0.06317649,-0.10845944,-0.02307615,-0.23141074,-0.11409603,0.13602984,0.19797619,-0.035431508,0.009258822,0.08171634,-0.11258325,-0.005960813
audio_10.wav,0.050335716,-0.08430116,0.0416521,-0.04550639,0.013174168,0.15532406,-0.02464121,-0.22832139,0.24514052,-0.01754491,-0.10315654,-0.03719195,-0.028153444,-0.27021956,0.053250268,0.20880167,0.15392026,0.15768017,0.14515093,0.016453326,0.22710848,-0.0254691,0.0033463517,0.21975365,-0.017502407,0.11336088,0.0006024335,0.2719097,-0.12781812,-0.33545372,-0.08389309,-0.09129342,0.0052895127,0.06739936,0.14685872,-0.06593317,0.19393487,0.07160232,-0.19436236,-0.14146805,-0.13432257,0.24254575,-0.13174121,0.1725538,0.0072042593,-0.040316653,0.11487914,0.23751633,-0.03576666,-0.1239954,-0.08146655,-0.06876015,0.16997829,0.18139753,-0.05070582,-0.049398985,0.0625211,0.04356176,0.12532029,-0.2340296,0.31329194,-0.09146601,-0.05780543,-0.06594838,0.023405725,0.10703749,0.2178674,0.17373058,-0.13876152,-0.30251673,-0.17926131,0.045517698,0.10033827,0.0523854,-0.105453975,-0.09154683,-0.26958326,0.08201727,-0.24755485,-0.114545,-0.011406763,0.057795364,-0.074547656,-0.040038675,0.073522806,0.03876355,0.009159355,0.003448485,0.008178413,0.31124488,-0.42726368,-0.068716384,-0.16182254,0.22757764,-0.12909247,0.11514742,-0.0055569024,-0.13841349,-0.21106532,0.17801449,-0.11876453,-0.101146914,-0.12593018,-0.22341715,-0.12904382,0.1038492,-0.11934938,-0.13768567,0.07371241,0.06901386,0.10652071,0.015272158,-0.13230878,-1.7119505,-0.0287253,0.015404221,-0.07069748,-0.12985754,0.17974652,0.037594084,0.18469775,-0.14658822,0.04168179,0.2293155,0.14099988,-0.22508703,-0.006561001,0.24254276,0.12811816,-0.083526485,0.028391562,-0.029899577,0.08422483,0.016527053,-0.04959541,0.024017625,-0.48855257,0.037890725,-0.116347514,-0.06628342,-0.062696256,0.032770857,0.026877578,0.19013838,-0.02331344,-0.009390239,-0.034555156,0.069820434,0.029771617,-0.16628093,-0.030647403,-0.020117493,0.09979191,0.8259623,-0.051324863,-0.043052007,-0.5002156,-0.16071348,-0.09582483,0.15410075,0.04366032,-0.087051794,-0.08381045,0.038449764,-0.15188181,0.08935358,-0.014131865,0.020675557,-0.25120422,0.016099464,0.12414872,-0.10218817,-0.115910746,0.057392202,-0.1275374,-0.33863354,-0.04247588,-0.016522389,0.0150997965,0.10705208,0.008723542,-0.10114316,-0.09277897,-0.14480916,0.23097871,-0.14276762,-0.15054557,-0.051230427,-0.04934556,0.23883978,0.12890334,-0.24246553,0.14177029,-0.047732905,-0.25354567,-0.1690566,0.16688159,0.08096803,-0.0827987,-0.18062268,-0.12629032,0.014919406,0.19602306,-0.5271019,-0.15372764,0.13448176,0.29086524,0.012485463,0.087661356,-0.3097788,-0.19961283,-0.0992076,0.0357012,-0.13309313,0.060087774,-0.11226225,-0.3712872,0.08118103,-0.11814748,0.17254114,-0.027058652,0.015509954,0.15874773,-0.11343164,0.14171399,-0.14461292,0.093380675,0.009048996,-0.6751192,0.07164711,0.17201655,0.05906654,-0.20875488,-0.27382553,-0.059885178,0.028767789,-0.05336067,-0.22739282,0.084082305,-0.6022402,-0.037859287,0.0575446,-0.16520846,-0.14391729,-0.030846791,0.23954636,-0.0055164094,0.07439194,-0.29594398,-0.026183687,0.05877825,-0.0423512,-0.10292709,0.0982915,0.13399808,0.16253653,-0.3030204,0.11001648,0.02047114,0.050192144,0.09270271,0.11526381,0.11696948,-0.11852568,-0.10223525,-0.026030257,0.24336043,-0.2808697,0.017681079,-0.11352993,-0.020026727,-0.019537631,0.062040612,-0.064806305,-0.2908695,0.03885844,-0.12037497,-0.1513397,-0.06633428,-0.043440998,0.15705107,-0.14330314,-0.13290082,0.09722294,-0.37545612,-0.011710209,-0.056500245,0.15846984,0.04659204,0.06707049,-0.114835404,0.08329204,0.6836883,0.10483414,0.17689127,-0.3130813,-0.24897036,0.013222186,-0.0014600741,-0.13947721,0.06106208,-0.27652666,-0.22261974,-0.016000481,-0.01992588,0.053202067,-0.20910957,0.2931086,-0.12306816,-0.1905351,-0.054481637,0.09052514,0.26213098,-0.5792784,0.062092613,0.0035954148,-0.17188588,-0.09184074,0.025877515,-0.015121468,0.04045126,0.20224796,-0.00015442212,-11.456445,0.09172618,-0.124519385,-0.009144478,-0.08234412,0.13566087,-0.071634226,-0.07085037,-0.06842812,0.07239666,-0.021261092,-0.040207326,-0.43447632,-0.035987336,-1.4051827,-0.1412944,0.056684103,0.06966902,0.26379853,-0.033753406,-0.015327332,0.0022049292,-0.097751595,-0.01903095,-0.3214059,0.3429838,0.11005869,-0.27591366,0.012638138,-0.12984367,0.1590483,0.058543976,-0.123778276,0.19700177,-0.19993424,-0.009860421,-0.03561235,-0.21711987,-0.058695998,0.01336027,0.19536991,0.08291066,-0.004630828,0.009183088,0.036481213,-0.15777783,0.07281988,0.1408429,-0.0738248,0.6280908,-0.037619818,0.02297973,0.03682095,-0.07091004,-0.08906151,0.0039095692,-0.078765936,0.22372375,-0.087092854,-0.11460854,-0.079835355,-0.044008005,-0.13717835,0.24193574,-0.097998455,5.2998304,0.097662926,-0.38303,-0.15358427,0.10277295,-0.033118043,0.6457163,-0.10827687,-0.030342095,-0.09938688,-0.031397212,0.06552817,0.050164152,0.073397264,-0.113067724,-0.026608968,-0.015093455,0.16564898,-0.21045463,-0.07283245,1.0601723,0.097646445,1.1518968,0.15645328,0.062986635,0.31824547,0.004034987,0.05562039,0.09379665,-0.00052019244,0.18688309,-0.0032524324,-0.29438004,-0.024932973,-0.14542553,0.19953234,-0.21392041,0.50034714,-0.034680154,-0.094507284,0.17310534,-0.091366395,0.24564297,0.012899545,-0.053827394,-0.006729082,-0.1823715,0.21965006,-0.17194624,-0.028931655,0.13196181,-0.014017491,0.18170343,-0.10517936,-0.16482772,-0.090109564,-0.22183935,0.12330169,0.07086007,-0.10012522,-0.044621952,-0.037895262,-0.057916682,0.0433703,0.1624552,-0.0612977,0.053365245,-0.03709601,0.03455333,-0.2309669,-0.034360655,0.11936773,-0.09771169,0.07243635,0.18168636,0.094121,0.076792896,-0.10592788,0.13076751,0.0032404377,-0.07608208,0.097008765,-0.09615788,-0.048040874,-0.16880994,0.044765096,0.16001551,0.06268848,0.27839625,0.055693023,-0.026030706,-0.12245355,-0.07267993,-0.19381319,-0.01590361,-0.038058955,0.03974393,-0.04882835,-0.078195915,-0.110252135,-0.12939766,-0.028810292,0.017913561,0.1311416,0.05910115,-0.08978478,0.10100463,0.11607136,-0.11213978,-0.030990092,-0.08702753,-0.056792896,0.033681866,-0.032634877,0.067710154,-0.104669675,-0.0874579,0.11388603,0.20393148,-0.03880706,0.0739756,0.03082537,-0.19624244,0.10128394
audio_100.wav,0.11813135,-0.13789459,-0.17976534,0.06886429,0.064394236,0.104909465,0.067324184,-0.2098411,0.39243108,0.04599999,-0.010209057,0.08318282,0.12513562,-0.29587018,0.06464952,0.21269298,0.12991369,0.02646431,0.023278875,-0.010410872,0.28841114,0.109906636,0.18786868,0.046347413,-0.01651175,-0.040231653,0.057649266,0.116861664,-0.19608048,-0.44597948,0.050938785,-0.081495,0.13738851,0.0072812485,-0.07333962,0.05614682,0.1777197,-0.016206093,-0.1300543,-0.052635167,-0.07961914,0.027661758,-0.16519964,0.061677326,0.16812094,0.00040228653,0.16214481,0.10614215,-0.12814407,-0.14781386,-0.09325957,-0.15073536,0.24223244,-0.053727105,-0.019874742,0.07999672,0.0069675157,0.041547146,0.115517,-0.02543365,0.14489934,0.1418259,0.10459508,-0.14088912,-0.13457534,-0.0024859696,-0.019435015,0.11468372,-0.07031294,-0.42965755,-0.037012402,0.0051366827,0.0127031375,-0.009142266,-0.11035062,0.12859277,-0.17138192,0.026342142,-0.08046633,0.017978374,-0.2038542,0.076099716,-0.10876529,-0.018567475,0.016592804,0.0018276913,-0.07541796,-0.03487458,0.076158464,0.7209472,-0.20657806,-0.10904764,0.059742343,0.092217974,0.034106355,0.0069667534,0.0027863095,0.07284315,-0.15851842,0.04014478,0.02372697,-0.062289722,0.015800081,-0.25336516,0.028268214,0.014271338,0.0753427,0.037335366,-0.04127368,-0.15017502,0.10120976,0.027988642,-0.05986649,-2.0642824,0.04202182,0.084453896,0.0067688883,-0.058004383,0.029756358,-0.07144141,0.12725683,-0.20864433,0.1389443,0.014299584,0.033669796,-0.25022036,-0.0030673917,0.1627928,0.11877973,-0.15466331,0.07787403,-0.09745929,-0.14375296,-0.027844971,0.023400897,-0.04682593,-0.25647306,0.033232927,-0.11319619,0.051342063,0.14008147,0.15876158,0.038465075,0.13803175,-0.0018201872,0.17246908,-0.09366413,-0.0039982083,0.14973608,-0.14685197,0.018773248,0.02137098,-0.17377523,0.787903,-0.14812748,-0.007550614,-0.2861344,0.063124,-0.2545136,0.13100547,0.17026664,-0.20923695,0.09578994,-0.06126654,-0.061072104,0.07388151,0.06997397,0.004644227,-0.23737971,-0.020316578,0.048867207,-0.04535168,-0.035019986,0.002310969,0.06131371,-0.07024241,-0.044265274,-0.079489164,-0.06314963,0.14347036,0.056238353,-0.19795603,-0.07844876,0.06478656,0.14262626,-0.28812352,-0.11913397,0.08171609,-0.11590181,0.16639343,0.20808724,-0.15222865,0.08694152,-0.12711157,-0.58348435,-0.19071177,0.17035018,0.071982525,-0.018403355,0.001009922,-0.16931823,-0.049277026,0.051982384,-0.37342772,-0.18500865,0.006637869,0.121815085,-0.0017346115,0.09549254,-0.10836926,-0.142901,-0.004442634,-0.049489025,-0.20960559,0.15299848,0.009991295,-0.58942795,0.05351131,-0.0008904486,0.16406856,-0.038966045,-0.03126817,0.023653636,-0.112188004,0.097016014,-0.016161932,0.2805448,-0.18323629,-0.61544037,0.06845219,0.13809395,0.14533809,-0.16370995,-0.25222966,0.02853109,0.001193875,-0.15041412,-0.16005448,0.0466483,-0.49517107,0.13719246,-0.02570172,-0.09267821,-0.09102828,0.1653166,0.10430246,0.00093572045,0.066621095,-0.35713688,-0.16726032,0.12837191,-0.12806562,-0.21663626,0.0869558,0.12874278,0.035970975,0.0038467115,-0.23134816,-0.0906707,0.07305723,0.15614283,0.17079408,0.046072427,0.034926757,0.008849762,-0.10666645,0.093996,-0.23587082,0.094474845,0.016726417,0.154321,0.039117184,0.05439793,-0.049517892,-0.36110067,-0.0062274165,-0.2500192,-0.23433124,-0.12714142,-0.021445643,-0.056303307,0.0013754336,0.035125755,0.09889948,-0.04475101,-0.06100977,-0.16660856,0.027355572,0.08259347,-0.12851286,0.0018219948,0.1833672,0.7586678,0.075028375,0.0016509825,-0.16270481,-0.11607703,0.15961005,-0.10411737,-0.08778839,-0.0910521,-0.14732963,-0.04254975,-0.03956977,0.219111,0.034234714,-0.18809305,0.24947363,-0.018989937,-0.22058263,-0.12952857,0.035734564,0.19680259,-0.4278846,0.26166666,-0.048070677,-0.06665474,-0.17132634,-0.097654335,0.15871634,-0.15219025,0.083783984,-0.07165214,-11.192669,0.18258482,0.0674925,0.09536026,-0.049409006,-0.029478803,-0.015020725,0.070626654,0.104448065,0.011071786,-0.02385267,0.06258765,-0.5045103,0.21195623,-1.4444616,-0.044374187,0.011224553,-0.036173213,0.16625498,0.06894723,0.14115085,0.20827703,0.012375979,-0.124665596,-0.022684064,-0.09146291,0.15899771,-0.21310131,-0.025687784,-0.106322326,0.12409547,-0.014700949,-0.107117675,0.23861772,-0.28898948,-0.21356297,-0.08914822,-0.22005095,-0.16706131,0.051344253,0.32444835,0.03756048,-0.10158453,-0.1632666,0.16244444,-0.08719691,0.19983378,-0.04244185,0.026027456,1.0016437,0.066812456,-0.04119361,0.050477955,0.1369451,-0.027003754,0.00039297485,-0.071444094,-0.055248044,-0.20847347,-0.15077774,-0.23460318,0.036645453,-0.102039024,0.22968999,-0.034521863,5.23267,0.020233424,-0.1799388,-0.18471211,0.039911356,0.10864217,0.09686059,-0.16873004,-0.058014587,-0.22256409,-0.067363426,0.1433687,0.08577796,0.11764772,-0.0010636471,0.09956134,-0.08103122,-0.2801568,-0.114366636,0.00609419,0.9490702,0.1136474,1.6133028,0.16557515,-0.14761098,0.13732304,-0.030895887,0.10216258,0.11362547,-0.15671062,0.038956247,-0.053512674,-0.2476879,-0.082861096,-0.05499909,0.04679832,-0.2449465,0.43896404,0.015369242,-0.09634027,0.1964801,-0.15954836,0.4364711,-0.07943914,0.055357646,-0.041480068,-0.11707425,0.23321947,-0.042707,-0.06471072,0.071773216,-0.01747284,0.21313271,-0.06227013,-0.09191054,-0.25108033,-0.10227677,-0.0876138,0.03693255,-0.19223718,-0.035647396,-0.17598648,0.096913286,0.09776669,0.29165748,-0.06295184,-0.031254206,-0.04543406,0.09619236,-0.2397582,0.07027604,0.2255721,-0.04235417,-0.21275179,0.0838667,0.12944128,-0.07680812,-0.069454536,0.054581694,0.030970722,-0.18116666,-0.03536195,-0.044087972,-0.14312351,-0.1673256,-0.095707,0.16570447,0.022955395,0.046799533,0.14697044,-0.16627654,-0.3282759,-0.16525204,0.033988703,-0.17504504,0.043428924,0.24441308,0.01671522,-0.44894946,0.00063040666,-0.040089954,-0.19123372,-0.03662774,0.10495856,0.08158351,-0.2036114,0.04342739,-0.10316162,-0.14096282,0.09582501,-0.1339014,0.058919933,-0.03323455,-0.2724763,-0.06093164,-0.18120973,0.15387036,0.19065389,0.28740248,-0.017773349,0.06068682,0.14271607,-0.09441371,-0.059900492
audio_101.wav,0.073060594,-0.12787583,-0.07825971,-0.02923762,-0.0021451067,0.024603955,-0.051384434,-0.051669523,0.42595047,-0.027065547,-0.19440706,0.10851612,0.042327162,-0.13298862,0.25837964,0.09975395,0.113348,0.16667202,-0.01025558,0.038016353,0.2112545,0.086144306,0.1480001,0.004868937,0.09208606,0.15515347,0.104192115,0.14848964,-0.07116013,-0.58890796,-0.11553866,-0.008819782,0.14793855,0.056622107,0.0012088966,-0.1356943,0.05682638,0.076053746,-0.23557855,-0.05430798,-0.058354396,0.07784448,-0.10295191,-0.0023181215,0.033824332,0.08858078,0.056032848,0.16481338,0.019410621,0.085608326,-0.21127023,0.11028967,0.018955814,0.0007210337,0.0909371,0.070262544,0.01800309,0.03179439,-0.010317095,-0.09648026,0.22225079,0.29527295,0.1015223,-0.05551007,-0.14049499,0.07837892,0.25503644,0.23802324,-0.0017911262,-0.3341854,-0.052259363,-0.06404486,0.060933683,0.22910386,-0.0761148,-0.028081141,-0.13845989,0.043015163,-0.12480707,0.089723095,-0.08531784,0.12282011,0.014312821,-0.0034410043,-0.22131705,0.019968295,-0.50333697,0.09216058,0.10513223,0.024206555,-0.49135372,-0.17347196,-0.15235075,0.19225574,0.10067513,0.20719452,-0.3010234,0.0040182774,-0.080870815,-0.0027962,-0.092060894,0.052595925,-0.03503696,-0.12990078,0.020290367,0.09922091,0.017232563,-0.13286419,-0.09570018,-0.1075285,-0.07597639,-0.08306344,-0.13219562,-1.2239028,0.0867118,0.035380207,0.050992005,0.11972743,0.07741993,0.024778735,0.10144673,-0.12437483,-0.0014453836,0.0031470333,-0.08545352,-0.11460838,0.1470052,0.12899528,0.027270088,-0.18360206,-0.0061590355,0.11534871,0.009766307,-0.0365114,0.07961663,-0.15816687,-0.20966992,-0.1499671,-0.030170893,-0.10178155,-0.22227563,-0.04731745,-0.16200094,0.19004883,0.08424483,-0.14517152,0.0040807035,-0.028665002,0.05163967,-0.1419765,0.021290716,0.06199772,-0.08504624,0.6416347,-0.03673297,0.02938446,-0.23515,0.11451235,-0.06890951,0.15515777,-0.02325162,-0.14504232,0.054004338,0.121358156,-0.046295065,-0.002723325,0.05830567,0.039396554,-0.23079798,-0.099994086,0.14459059,-0.07219089,-0.026886592,-0.011873166,-0.028708367,-0.13815992,-0.07609834,0.104042605,0.081091754,-0.089620836,-0.06694198,-0.0071462477,-0.09273108,-0.111112915,0.17392358,-0.06689067,-0.051102273,0.013970968,-0.03407931,0.12880519,0.24028772,-0.23828967,-0.03257666,-0.16416626,-0.21941726,-0.1234575,0.08092835,0.074502274,-0.07255843,-0.07493722,-0.19074896,0.16118655,-0.1375846,-0.5491054,-0.091842264,0.048832856,0.39053002,0.16243294,-0.06717214,0.023786614,-0.06597198,-0.055131715,-0.06805991,-0.310536,0.2182032,0.029627932,-0.13267516,-0.14773846,-0.02231389,-0.06781457,0.1789767,-0.054885823,0.035433512,-0.05880756,0.20294996,0.035490144,0.20236278,-0.015294719,-0.63792735,0.03684293,0.14412604,0.18324368,0.022481522,-0.17548761,0.111820884,-0.24100484,-0.14470439,-0.030023484,0.007086537,-0.6025765,0.1632087,0.1615839,-0.1920636,-0.08817295,0.0920369,-0.02309105,-0.004248389,0.11890216,-0.118864276,-0.078578785,0.005406878,0.084307745,0.20279984,0.07897431,0.02724355,0.011731144,-0.21191368,-0.30113664,-0.07305905,0.10608003,-0.010194262,0.008358612,-0.17535238,0.087860994,0.013423436,0.19502936,0.10580567,-0.020385219,0.045296524,-0.077323146,-0.18020208,-0.11135203,0.038755234,-0.010558139,-0.2550912,0.08121899,-0.15483335,0.012543243,-0.14849104,-0.07851339,-0.052984264,-0.0721068,-0.14773388,0.22110374,-0.17334217,-0.0595884,-0.032497905,0.06765176,0.012331834,-0.09009551,-0.12380322,0.10701683,0.69160277,0.15553379,0.14799279,-0.23701924,0.0071562524,0.06021827,0.07129647,-0.091550864,-0.035822183,-0.075134106,-0.000390831,0.03391794,0.12596169,0.090157814,0.080373645,0.16321513,-0.017671725,-0.26656133,-0.02657901,-0.07875607,0.23211588,-0.16148883,0.12025021,0.087143235,-0.16723008,0.026140107,-0.21797928,0.068344794,-0.080518216,-0.15304518,-0.029481137,-10.655728,-0.07711653,-0.07461667,-0.044708893,-0.19356242,-0.06794573,-0.148137,0.04624975,0.113940686,-0.05835788,0.021468338,-0.027072059,-0.42298564,0.06325337,-1.7530147,-0.08472797,-0.08370765,-0.012899353,0.07687041,-0.22616902,0.06823806,0.3249467,0.044008587,-0.25358027,-0.13078648,-0.15477765,0.16723838,-0.1280185,-0.058804948,-0.22736709,-0.03402366,-0.0029567725,-0.12540342,0.16282982,-0.087456554,-0.09805334,-0.15045276,-0.18655485,-0.18129909,-0.05495255,0.28705734,-0.1580353,-0.07074235,-0.055651728,0.14069763,0.15350573,0.03935403,0.010482434,0.0115189105,0.7169445,-0.108898476,0.07643913,0.051896073,0.0674437,-0.13807942,0.09522019,0.018294973,-0.027569536,-0.22317646,-0.11473895,-0.19326241,-0.059049223,-0.15785272,0.2387925,-0.09002895,5.5151863,0.10397179,-0.066778444,-0.08746162,0.083534166,0.11527211,0.1005366,-0.13381681,0.031166634,-0.10836436,-0.05710566,0.079456225,-0.0123984385,0.05843338,-0.13494454,-0.15064104,-0.041946936,-0.46193725,-0.0803524,0.14540008,0.91817164,0.13063116,1.6264318,-0.035481546,-0.054256152,0.24615854,-0.16507436,0.07623383,0.022601768,-0.008030461,0.12110768,0.007030914,-0.24412842,0.0628333,0.06704971,-0.06718147,-0.1576718,0.48216414,-0.118188106,-0.084565714,0.22979273,-0.13548501,-0.02820489,0.012222916,0.0082145585,0.087464474,-0.06301183,0.030029435,-0.05430612,-0.01846086,0.1563005,0.042961862,-0.024736842,-0.23345877,-0.13274974,-0.17569259,-0.26826546,-0.036728825,0.017301876,0.005708053,-0.074529186,0.015137034,-0.063017696,0.117291495,0.12667008,-0.04602175,-0.10005052,-0.09545211,0.07244098,-0.23608415,-0.10161532,0.13308683,-0.12184519,-0.30673367,-0.012185831,0.18235351,-0.13780904,-0.1506205,0.06046507,0.15262352,0.019258913,-0.014621289,-0.05541515,-0.0048261806,-0.20898454,0.010970064,-0.07828415,-0.041807458,-0.15746161,0.01961701,-0.08866298,-0.09394973,-0.064930275,-0.036948696,0.008648899,0.009101298,0.22068958,-0.063262135,-0.265395,-0.0057268436,-0.05393787,-0.39965522,0.11759064,0.07826392,0.17051516,-0.09401306,0.13400501,-0.032953154,-0.019180186,0.064533494,-0.055794604,-0.10974798,0.02846371,-0.13086551,-0.122736104,-0.12625879,-0.010524433,0.010254654,0.30104756,0.048631392,0.08255339,-0.079327956,-0.072118185,0.06470551
audio_102.wav,0.009572889,0.0018371347,-0.013359283,0.011562327,0.010143446,-0.08125773,-0.02332285,0.047376495,0.48957607,0.114973694,-0.21576597,-0.009237501,0.1751195,-0.24175045,0.22913964,0.17842394,0.2373665,0.077156134,-0.04628809,0.08131525,0.061706502,-0.041664183,0.045842998,0.2313796,0.1141135,0.19761361,0.01312844,-0.11500665,0.055573516,-0.34043375,0.06740214,-0.09096538,-0.05239814,-0.115789354,-0.13618365,-0.09352821,0.16246702,-0.057103302,-0.116957866,-0.093669444,0.04975457,0.0867002,-0.08809523,0.1564953,0.09156604,0.06199096,-0.03949837,-0.1231178,-0.006272165,-0.0058908155,0.33143517,0.07878953,0.08894983,-0.06146524,-0.057421926,-0.026416808,-0.045169473,-0.11020713,-0.009934628,-0.08856165,0.27251315,-0.18769743,0.043496575,-0.048832245,-0.015806746,0.13336276,0.22106342,-0.030890655,0.096774705,-0.41172135,0.048460603,-0.017995607,-0.060083486,0.14060879,-0.067124665,-0.004987677,0.06726005,0.0010417433,-0.1749843,-0.06275541,-0.030665455,0.031778064,-0.012732807,-0.12239569,-0.093912415,0.056917805,-0.21554804,-0.014326586,0.04505607,0.17791255,-0.3545188,-0.14919177,-0.15889883,0.031957656,0.1007612,0.024002705,-0.20477079,-0.12508921,-0.19531097,0.06624069,-0.034391142,0.049229223,-0.035954975,-0.08958004,0.07419917,0.1490702,0.014137184,-0.03370326,0.14828086,-0.07367116,0.028861178,-0.12498181,-0.17661427,-1.1064388,-0.039979726,0.08729645,-0.03107509,-0.004726379,0.045057558,0.13834049,0.17427199,-0.20147528,0.071413495,-0.15255658,-0.003331201,-0.05120578,-0.016192263,0.06147829,0.021508642,-0.16977964,-0.018130327,-0.06583142,0.04154271,-0.121785715,0.03030931,-0.13270849,-0.41401485,-0.116903774,-0.0063129677,-0.17270327,-0.2697236,0.10426052,-0.2895793,0.16008547,0.093742214,-0.1802834,0.03571812,0.14028114,0.09122426,-0.04063717,0.0014203421,-0.012290485,-7.174174e-06,0.4464636,-0.12995613,0.0072315214,-0.46552095,-0.054847952,0.051693447,-0.027880508,0.13697156,-0.14234841,-0.09694961,-0.019411298,-0.10202441,0.1639355,0.108969025,0.027832778,-0.12715515,-0.018859804,0.058550566,-0.12904763,-0.109481156,-0.12038399,0.07680447,-0.14743946,-0.12181758,0.029306253,0.107284404,-0.15994246,0.06823776,-0.04572838,-0.07641145,-0.19368082,0.25253525,0.07381967,-0.1689976,0.1453746,-0.007897888,0.124465786,0.09085853,-0.3182014,0.060355738,-0.012205583,-0.17319845,-0.08631011,-0.067695625,0.00546608,-0.015157917,-0.18743797,-0.23134167,0.104781725,0.06368676,-0.9832584,-0.088029884,0.094390266,0.41327465,0.0071428427,-0.034263376,-0.07762397,-0.09199914,0.013304367,0.12261058,-0.00650236,0.19945464,0.050797712,-0.30542573,0.13938227,-0.07860214,0.078241095,0.07136867,-0.07927663,-0.061657265,-0.18988195,0.15135749,0.065622166,0.21991456,-0.12626281,-0.49836776,-0.0058552423,0.48106378,0.12440162,-0.08889747,-0.22560486,-0.024560485,-0.17245911,-0.06525608,-0.16148628,0.018826883,-0.4872167,0.16196994,0.2270602,-0.027754623,-0.102992356,-0.17839982,-0.0026526917,0.21962008,-0.055996824,-0.18833248,-0.03261107,-0.09545459,-0.030184453,0.24544552,0.049968775,0.23386954,0.16339558,-0.020391429,-0.12721053,-0.27346018,0.084735155,0.016712354,0.16776486,-0.13476557,0.1196689,-0.03903483,-0.054938942,0.2978946,0.051958904,-0.002560784,-0.14010374,0.0009841487,0.014254379,-0.12762986,-0.04176379,-0.23655166,-0.0072372016,-0.15140279,-0.018733155,-0.16191648,-0.087487355,0.14314616,-0.11161818,0.01949003,0.14548756,-0.346534,0.005893234,-0.0911763,0.00042152024,-0.1875734,0.06524014,-0.18496744,0.026958117,0.27109063,0.2585612,-0.2865544,-0.16540188,-0.07920552,0.06960042,-0.04380457,-0.062694915,-0.06845748,0.0031830329,-0.114511475,0.06236255,0.113748044,-0.09685672,-0.13211557,0.08363328,0.084361695,-0.1907248,-0.0955233,-0.048010238,0.29738787,-0.22573736,-0.13815464,-0.06870382,-0.13368665,-0.103130095,-0.018989448,-0.019881386,-0.08175469,-0.108239874,-0.024843037,-10.455471,0.03806546,0.021587946,-0.043812785,-0.10206317,0.04258595,0.08543455,0.0595254,0.102836646,0.0289614,-0.0047110505,0.004106343,-0.29208574,0.07110738,-1.6475444,-0.07482072,-0.07526211,-0.10487368,0.009120762,-0.21292695,-0.12913267,0.1352698,-0.066418454,-0.1681038,-0.31537193,0.048193887,0.10534792,-0.118914396,0.10122074,-0.22170219,-0.019808503,0.12730114,-0.0845436,-0.010641323,-0.20790213,-0.12410687,-0.09146883,-0.052812796,-0.0527088,0.05242944,0.123721406,-0.21725659,0.081354156,-0.062017974,0.18879382,0.16386434,0.17357826,0.13114066,-0.2364235,0.83521616,0.10878153,-0.07903098,0.106086,-0.06893636,0.040590525,0.22019641,-0.11694075,-0.25942826,-0.07144283,-0.0031143092,-0.19411759,-0.008560206,0.030814048,0.29999992,-0.058652967,5.487358,0.084416196,-0.0053758305,-0.09751075,0.084172376,0.1138559,-0.031721093,-0.06437271,-0.04280429,-0.17695414,-0.04051263,0.029618694,-0.035875645,0.031212391,-0.21254091,-0.13368532,0.13506165,0.1907449,-0.0065972544,0.10318227,1.0273527,-0.087772585,1.4453226,0.2218042,0.041515708,0.20273095,0.04195019,0.08455921,-0.17102319,0.052927826,0.07846495,-0.07268668,-0.12303662,-0.008303911,-0.041377906,-0.1702178,0.03612893,0.23364742,-0.13658568,-0.09425775,-0.033920344,-0.045743335,-0.020433065,0.06578756,0.12581247,0.027390674,-0.20244372,0.11252293,-0.072273314,-0.17571695,0.08827195,0.073093235,0.14395244,-0.112586,-0.14698286,-0.094051614,-0.24516107,0.05128778,0.13744392,-0.13405831,-0.16311902,0.10747474,-0.113686316,0.07914265,0.14290203,-0.14823589,-0.08652539,-0.16986082,-0.060553517,-0.08960384,0.041980032,0.200835,-0.11491101,-0.13310543,0.08696049,0.06143382,0.00043004862,-0.0485991,0.103977785,-0.0022875646,-0.078188635,0.12622198,-0.07645939,-0.09514927,-0.18561324,-0.056573693,0.065406725,-0.09337986,-0.03755229,0.16182867,-0.12247772,-0.16294372,-0.054367907,-0.113420635,-0.076211534,0.054153834,0.2764278,-0.3481053,-0.3103702,0.06604718,-0.020122083,-0.08945184,0.12042822,0.10891171,-0.0564902,-0.17927662,0.1623461,-0.037386514,0.088213176,0.027970878,-0.03834344,-0.01909856,-0.067375444,-0.05856456,0.0062732007,-0.029084075,-0.046179306,-0.00044922892,0.33994392,-0.029084193,0.07726705,-0.07387776,-0.19435705,-0.06768607
audio_102_1.wav,0.0029211524,0.004111475,-0.025685715,-0.025619457,0.0056572305,-0.06088505,-0.015194786,0.06413336,0.46760482,0.095645666,-0.1904255,-0.015205169,0.18821773,-0.24914475,0.24563383,0.19968937,0.21974424,0.084628254,-0.031214401,0.0833618,0.09035695,-0.052617904,0.047294706,0.2416722,0.09576471,0.20546845,0.045274626,-0.10152112,0.028157799,-0.35034257,0.0713746,-0.07847054,-0.019815432,-0.10655548,-0.13967638,-0.092798196,0.13227506,-0.08332229,-0.1302225,-0.100531526,0.042898968,0.04361089,-0.115897655,0.1568882,0.063891225,0.05432978,-0.052101195,-0.1256993,-0.0003276399,-0.02200825,0.26760647,0.083304524,0.080597706,-0.042182997,-0.031032491,-0.0143908,-0.04908233,-0.08468891,-0.012852379,-0.08348106,0.28877887,-0.1754351,0.06766848,-0.076212674,-0.086046346,0.13560107,0.23411247,-0.00069422275,0.106416136,-0.35396558,0.05326111,-0.011651082,-0.022304855,0.15420453,-0.065026455,0.009471417,0.015055861,-0.002298429,-0.139611,-0.06392086,-0.008257346,0.026881088,-0.0077404957,-0.102878824,-0.09195186,0.036276475,-0.18470764,0.0055836276,0.055692323,0.22209665,-0.38145193,-0.16103582,-0.10814319,0.007332416,0.1058492,0.049632497,-0.1796528,-0.0818369,-0.21570353,0.054345418,-0.029615264,0.041194916,-0.032844756,-0.085836336,0.053046443,0.1469462,0.012639994,-0.04691393,0.13676274,-0.07092052,0.041400913,-0.11747862,-0.15961762,-1.0831546,-0.05386953,0.043316152,-0.021635966,-0.00528624,0.0196111,0.1281784,0.16052894,-0.20725463,0.061081704,-0.159687,-0.017828193,-0.0731368,0.02380638,0.05770228,0.028815104,-0.1795532,-0.048287507,-0.05003505,0.036804132,-0.13426158,0.02402092,-0.15385298,-0.45658088,-0.10587789,0.0032927901,-0.17085959,-0.24127242,0.09845308,-0.33440512,0.16204716,0.15085158,-0.17972192,0.050143097,0.1398072,0.072177924,-0.047793563,-0.0047984663,-0.023116251,-0.002646295,0.44375107,-0.13392872,0.01824916,-0.41616789,-0.03747983,0.07785245,-0.017466964,0.12931708,-0.14051166,-0.08241041,-0.0062034167,-0.09645585,0.16889141,0.11123252,0.022429954,-0.11148046,-0.0056628,0.049445067,-0.13223436,-0.12719253,-0.13304402,0.08929029,-0.18348654,-0.1268553,0.009263728,0.10467872,-0.15224788,0.072181284,-0.023105329,-0.09752137,-0.20378025,0.23243563,0.05443268,-0.15510376,0.13043863,-0.006928331,0.10303894,0.11779689,-0.3115906,0.044378765,0.012355635,-0.16321535,-0.086836606,-0.067213826,-0.023386676,-0.030500915,-0.17926687,-0.23157701,0.08598119,0.051321253,-0.9727503,-0.07687676,0.105970204,0.4393665,-0.006351222,-0.020525785,-0.09507137,-0.100106575,0.022596613,0.10371819,-0.015109954,0.20932926,0.048276037,-0.28646514,0.12611191,-0.065572485,0.057299804,0.08862152,-0.097820535,-0.07584982,-0.2065088,0.120877855,0.03541292,0.16679685,-0.102451906,-0.49678245,-0.0040531848,0.42642048,0.136122,-0.10059538,-0.25127414,-0.020347819,-0.19853505,-0.059726704,-0.15055358,0.026078954,-0.51803815,0.16146123,0.24981135,-0.036292985,-0.102617756,-0.12112681,0.008244529,0.21309496,-0.07200666,-0.20657715,-0.02954463,-0.122595176,-0.029052027,0.21263704,0.04649694,0.20992313,0.16162723,-0.023500372,-0.16521604,-0.21425419,0.06118417,0.0012040087,0.17390181,-0.13572788,0.099152535,-0.038010497,-0.052532334,0.25165614,0.037767813,-0.0077668503,-0.094033286,-0.0035904618,0.026946792,-0.14054997,-0.03494497,-0.26013634,-0.011341294,-0.15507498,-0.045678142,-0.15641212,-0.06770233,0.1222557,-0.10432978,0.03224248,0.18104866,-0.34064966,0.010729665,-0.06677176,-0.029394414,-0.17794487,0.057870798,-0.17916153,0.018921072,0.3603574,0.23294257,-0.28711402,-0.1650804,-0.06812943,0.11530438,-0.028996088,-0.059606064,-0.088022865,0.03278112,-0.061199315,0.078214906,0.09105176,-0.0735098,-0.11502126,0.07503026,0.06155506,-0.17587325,-0.05806012,-0.048848774,0.27585012,-0.2710896,-0.09038438,-0.052798033,-0.1184151,-0.095746905,0.0038126053,-0.016390765,-0.06904078,-0.08461379,-0.013006688,-10.487347,0.042059,0.029145095,-0.045277078,-0.09766683,0.033889163,0.10357841,0.045155007,0.092366375,0.0026744334,-0.004567639,0.016392035,-0.28394884,0.060569,-1.6737155,-0.07744445,-0.10180965,-0.101405546,0.014974073,-0.23688972,-0.12545428,0.12532957,-0.047876496,-0.13400018,-0.32755682,0.14280523,0.110890605,-0.14825879,0.091669686,-0.22756067,-0.0099986885,0.11099947,-0.078685336,-0.0118605755,-0.18305022,-0.0961429,-0.0886628,-0.053255036,-0.07987182,0.056945384,0.15949601,-0.21230188,0.082516216,-0.04692944,0.1830954,0.15852746,0.18503621,0.111381955,-0.24572937,0.82592034,0.11047957,-0.083657004,0.08523331,-0.09008264,0.035560362,0.22677943,-0.1001749,-0.24133797,-0.070529446,-0.011811694,-0.18764041,-0.029163117,0.044402156,0.3274141,-0.06437673,5.4750996,0.08049595,0.023651123,-0.08962077,0.105132,0.12652493,-0.041070513,-0.031186793,-0.04160319,-0.1423289,-0.024185676,0.0125707565,-0.06364701,0.019589141,-0.18182862,-0.13778168,0.09660131,0.18041484,-0.006384067,0.10865845,1.024526,-0.1209833,1.385359,0.19100726,0.058553834,0.20238878,0.037745167,0.087421365,-0.14841405,0.023398628,0.074797936,-0.054550637,-0.14265148,0.01783113,-0.041471492,-0.17663953,0.052577708,0.20665261,-0.14955819,-0.08677094,-0.035536647,-0.0376445,0.009795356,0.05512334,0.102989785,0.01070875,-0.18927488,0.12311017,-0.051767506,-0.18137863,0.10782119,0.0939599,0.11599258,-0.116057985,-0.12849066,-0.07361975,-0.24015976,0.031633276,0.13038254,-0.11911574,-0.16172689,0.095660806,-0.110967785,0.07463857,0.16220172,-0.14698598,-0.107504055,-0.17976242,-0.04452359,-0.086549394,0.03485763,0.20757332,-0.110134035,-0.14301986,0.086310364,0.0615993,-0.017420303,-0.025176866,0.094513915,0.013311964,-0.0664854,0.11253098,-0.10854781,-0.104580745,-0.19908309,-0.0553644,0.051748402,-0.08041727,-0.057321887,0.15526664,-0.11946507,-0.1592291,-0.02998912,-0.120458044,-0.06324285,0.08539991,0.28703594,-0.32438007,-0.25671786,0.07272991,-0.007803808,-0.12699541,0.1505273,0.102618426,-0.031339247,-0.21456355,0.15356785,-0.027757514,0.067891404,0.031545054,-0.03835638,-0.023464238,-0.06504548,-0.036009833,0.008215959,0.0039708177,-0.06080544,0.004179545,0.309543,-0.034668926,0.04143365,-0.08236629,-0.20627546,-0.048724044
audio_103.wav,0.036323316,0.021151552,0.051185723,-0.051021658,-0.07982448,0.19088869,-0.043062814,-0.5201001,0.3188099,-0.048384387,-0.2537098,0.13357355,-0.11218632,-0.37927213,0.031035682,-0.0044005774,-0.004803107,0.13346104,0.051002666,0.030459376,0.19664915,0.057258848,-0.034836125,0.4447199,-0.09408488,0.062097184,-0.0025282707,0.09394591,-0.11556671,-0.094117336,-0.017776025,-0.30090448,0.15242736,0.07342158,-0.08485191,0.06472085,0.3066373,-0.09007097,-0.2294306,0.009929979,-0.0017558625,0.36441568,0.005135292,-0.05292969,0.13953881,0.057979144,0.25932294,0.12102325,0.0077479496,0.010558334,-0.22491623,-0.1583169,0.16634057,-0.027909296,0.087974876,0.15717839,0.045649998,0.06290879,0.12152453,-0.18869987,0.019644016,-0.06596475,-0.0652036,-0.05466572,-0.035129145,0.0965838,-0.01200407,0.2648621,-0.092653535,-0.3530257,-0.16712739,-0.017574277,0.025999648,0.069017366,-0.09020156,-0.027186241,-0.06406909,0.018576235,-0.03140219,-0.017793242,-0.33958066,0.017174417,-0.267508,0.18422575,0.16437836,-0.026729213,0.034153044,-0.18209743,-0.27270153,-0.08154005,-0.3590362,-0.16541928,0.018776942,0.11002486,-0.041851353,-0.005735746,0.035118736,0.10716329,-0.25085264,0.1949205,-0.044605073,-0.16044192,-0.02945493,-0.2721906,0.023169458,0.021228038,-0.029186025,-0.2028597,0.08954783,-0.046725884,-0.0033896875,0.21757874,-0.043700807,-1.8637218,-0.11184434,0.011691254,-0.11107722,-0.1344711,0.043900542,-0.1169895,-0.018448703,-0.087374575,0.071702786,0.14863661,0.12051587,-0.38995218,-0.22403805,0.25211966,-0.031475596,-0.12504032,0.13783519,-0.08613247,-0.17061193,0.014411103,0.11056093,-0.08736308,-0.5132482,0.06922156,-0.16188277,0.067878105,0.47358504,0.24236812,-0.08741151,0.20648424,-0.07389053,-0.008422508,-0.04344986,-0.057606634,0.08471468,0.019474624,0.09073893,0.07325782,0.0028705727,0.7397073,-0.13163008,0.0833293,-0.5576912,-0.11092759,-0.11398476,-0.0967442,0.04905506,0.005988241,0.24519777,-0.012366141,-0.08297984,-0.12515464,0.026863856,-0.11884476,-0.295175,0.19632243,-0.061274316,-0.16434473,0.016952408,0.09908496,-0.10482088,-0.13960154,0.11203744,-0.06367562,0.0877947,0.14704493,0.1459908,-0.16698572,-0.0001717186,0.1670046,0.07608747,-0.18908775,-0.06841031,-0.0870561,0.062239766,0.12692554,0.13319176,-0.25993603,0.047361072,-0.09832831,-0.23618978,-0.2131943,0.20719394,0.30609712,0.03752511,-0.09235503,-0.1724725,-0.007492676,0.2349932,-0.6359705,-0.16881196,0.052680455,0.13238056,-0.026657293,0.20871529,-0.2406643,-0.092211306,0.022555906,0.036808226,-0.0634968,0.042995278,-0.1235907,-0.40693814,0.06724801,-0.02529118,0.31495842,-0.079428636,-0.0062598735,0.18070309,-0.14139082,-0.0042445627,-0.023725467,0.1881637,-0.06977262,-0.49276772,0.0036007462,0.10612524,-0.026599126,0.11123082,-0.07689736,-0.05791261,0.18920615,0.009877951,-0.14445837,0.047464304,-0.6560956,0.20024806,-0.011234901,0.011531791,-0.02390659,0.28448078,-0.012171833,0.038549386,0.04200131,-0.18104264,-0.1587267,0.20072006,-0.17213592,0.28042796,-0.13852255,0.0034499224,0.07412445,-0.120493226,0.046608392,-0.07383233,-0.086210385,0.11519104,0.14295281,-0.007364087,-0.0034855907,-0.0096966475,-0.040299524,-0.15929078,-0.02674265,0.008052307,-0.07751032,-0.092922546,-0.03342058,0.08613242,0.24994701,-0.1682612,0.06590162,-0.114755824,-0.053282797,-0.106575415,0.047890715,0.15417697,-0.08839152,-0.08251301,0.20195463,-0.25178918,-0.10465993,0.037357096,-0.08393655,0.022072077,-0.039994735,0.060382646,0.055350803,0.48525688,0.18448287,0.01294307,-0.0028210436,-0.09915031,0.063501194,-0.016579948,0.0003311297,0.16180764,-0.04645757,0.16146818,0.1733536,0.14835677,0.181875,-0.08308748,0.14406969,0.0358565,-0.09859385,-0.21046102,0.03718305,0.18063647,-0.24052298,0.10639095,-0.005213966,-0.2540709,-0.07444638,-0.11357577,-0.011816714,-0.0015858535,-0.06641865,-0.07395967,-11.235194,0.16531064,-0.115988515,0.06885981,-0.1403023,0.19207963,0.081047066,0.029547978,0.02031144,0.10315051,-0.020534964,0.00044590217,-0.21912834,0.021947574,-1.7579579,-0.10688274,0.15006678,0.041903716,0.12405724,0.102211,0.14753672,-0.040552724,0.053194642,0.018515842,-0.1586249,0.23156111,0.18794645,-0.14836362,0.108229935,0.0648067,0.08320075,-0.07736636,-0.22324812,0.27574337,-0.14667322,-0.05075532,-0.059180383,-0.26356465,0.007297404,-0.05507378,0.47204205,0.01435691,-0.13914709,-0.19538563,-0.04250719,0.04376503,0.06871367,0.25799537,-0.06301172,0.91576934,0.010960211,0.002324033,-0.13833278,-0.054715656,-0.123245336,0.010384017,-0.19065018,-0.04534255,-0.108163044,-0.20317514,0.0815469,-0.15346389,-0.01229725,0.26771298,-0.0649479,5.3087144,-0.07273788,-0.2441647,-0.03628929,0.026600437,0.06536563,0.032806434,-0.09016219,-0.025519256,-0.38379633,-0.12827036,0.013570345,0.1868142,0.17552917,0.017843662,-0.07372686,-0.07093249,-0.14316092,-0.06670892,-0.060275644,0.9223119,-0.001194762,1.4705508,-0.21551682,0.011696121,0.029971084,-0.010484533,-0.044608958,0.08945302,-0.029506119,0.057271626,-0.074281484,-0.1980622,-0.026872579,-0.07909929,0.12559767,-0.14280218,0.13055766,-0.104544125,-0.12867184,0.13576676,-0.10742055,0.27089602,0.0939893,-0.11509449,0.1036477,-0.092056304,-0.005169589,0.019449485,-0.12582685,0.09834072,-0.06672536,0.0866639,-0.013967044,-0.1899375,-0.13108118,-0.18928133,-0.076934986,0.066581815,-0.26292327,-0.14361902,-0.05583536,0.15730175,-0.061621316,0.07553721,0.003884379,-0.05620368,-0.05973655,0.09556525,-0.23457743,0.12000999,0.077464834,-0.014441591,-0.00015519968,-0.12923008,0.11179649,-0.024706937,-0.08862608,-0.0075022927,-0.081559315,-0.10114985,0.0469817,-0.042944927,-0.109790646,-0.08850422,-0.0013486329,0.03547677,-0.1438801,-0.14075291,0.044018142,-0.03226133,-0.23713472,-0.055697236,-0.13609898,-0.15718187,-0.0063563385,0.30631286,-0.08833987,-0.15349805,0.0684125,0.08107925,0.09459583,-0.06631331,0.1415856,5.7702382e-05,-0.28874537,0.087709025,-0.2211046,0.098208524,-0.08683622,0.097808,0.07554168,-0.09503859,-0.24777824,0.023862643,-0.09339952,0.026858764,-0.007095713,0.22712457,0.18672588,-0.14752008,0.16840826,-0.04743555,-0.11076133
audio_104.wav,-0.09615326,-0.12047148,0.10611758,-0.08416418,0.03278218,0.054022755,-0.11264634,-0.11536267,0.38662973,0.038957447,0.13453375,0.058388986,0.09042436,-0.07323551,0.274769,0.048450086,0.03500812,0.25674513,-0.033310283,0.004295728,0.08854704,0.0014183604,-0.018522032,0.40442026,0.011690794,0.08780024,0.028035825,0.08185642,-0.024607208,-0.07365099,-0.09721825,-0.33074433,0.5306225,0.07023961,-0.028405655,-0.050875366,0.2767116,-0.06355241,-0.11024532,-0.056700148,0.00017728424,0.07921268,-0.10378188,-0.22500713,0.13272353,0.05911687,0.14700845,0.06962517,0.08534307,0.09073245,0.06116114,0.10223306,0.069940254,0.039273497,0.11784514,-0.07871135,-0.034983642,-0.07356232,-0.0071791834,-0.18066703,0.011199679,0.16011047,0.05061849,-0.10809987,-0.113056324,-0.0238613,0.2111278,0.11292934,0.018984485,-0.39747185,-0.055804767,-0.19475262,0.08526018,-0.2337312,0.021242606,-0.06977372,-0.27534002,0.10890772,0.06528978,0.042249907,0.22741789,0.047176115,0.22011371,-0.0006567157,-0.025906647,0.08496575,-0.13324618,-0.0029202756,0.27973908,0.0027711634,-0.5061699,-0.1568233,0.08744263,0.1377695,0.088676445,0.033074375,0.13598509,0.02427709,-0.28501055,0.12201098,-0.16153795,-0.04790186,-0.15946998,-0.2745087,0.008558469,-0.06276854,0.27000526,-0.12096473,0.02534138,-0.23358227,-0.016029602,0.12454155,0.022874385,-1.2964183,-0.045634236,0.20903555,-0.07002757,-0.05636387,0.11719212,0.053937346,0.12277838,0.1899886,0.16544054,0.0979497,-0.058432505,-0.14204274,-0.14923887,0.049513657,-0.026278516,-0.15470795,-0.19196314,0.0138030965,-0.11171445,-0.039718196,0.066605605,-0.120759256,-0.21436767,-0.032800693,-0.049043506,-0.071602196,-0.19512923,-0.055216745,-0.6019471,0.047974173,0.15378477,0.13253519,0.009380971,0.041763045,-0.074935056,-0.116841085,0.11789387,0.16616857,-0.03573776,0.48675564,-0.09014473,0.03682887,-0.5487882,0.010345316,0.0270118,-0.011159312,-0.044751998,-0.017619062,0.061375573,0.21831751,-0.084332794,0.010268653,-0.00437008,-0.15070038,-0.14075992,-0.026674606,0.034979146,-0.14689115,0.15322478,-0.18432935,-0.16068791,-0.0023063628,0.016893644,-0.1347355,-0.11143919,-0.0812247,0.104526624,-0.12956348,-0.23912705,-0.14790471,-0.1116085,-0.11758832,-0.06564668,0.0265799,-0.043775685,0.055197377,0.24549662,-0.11480489,-0.022596695,0.012642837,-0.40954426,0.012128563,0.022126123,0.11336342,-0.025833039,-0.2615506,-0.26969495,-0.24832392,-0.072325565,-0.6847879,-0.007528937,0.10687036,0.42198047,0.20642842,0.0014416185,-0.13654247,0.0828117,0.04340743,-0.018437568,-0.22540924,0.12596539,0.22960748,0.00023709614,-0.057601165,0.045083962,0.052900847,0.07753598,0.007601401,-0.048891205,0.03111345,0.08977272,-0.090730995,-0.0675787,-0.13877209,-0.41443515,-0.03214213,0.5470287,0.20276976,-0.1107632,-0.58011764,0.04324785,-0.04209032,-0.02816728,-0.30927804,0.04426019,-0.6113265,0.08244263,-0.0749574,0.05328323,-0.29579523,-0.020579968,-0.012190687,0.023479192,0.03487382,-0.13509542,-0.025934992,-0.055891592,0.06091981,0.3938452,0.13980961,0.022590002,-0.03413495,0.05738239,-0.29286087,0.049418557,0.24744916,0.040278565,0.22850607,0.057042614,-0.16153617,0.11986086,-0.1441746,0.22896169,-0.19915482,-0.08318047,0.016846864,0.0978787,-0.048452556,0.021183684,0.0215501,-0.3268976,0.003918116,-0.16474351,-0.123032756,-0.25341958,-0.20337684,-0.017160676,-0.06708654,-0.013621652,0.36477643,-0.21727625,0.029504368,0.03691885,-0.036003478,0.008476122,0.015619838,0.009682402,0.06682242,0.99454933,-0.011594579,0.054933064,-0.17116475,0.0072207423,0.12171079,0.030761968,-0.11001521,-0.14806958,-0.17881063,-0.02918865,0.09746663,0.055659555,-0.07308439,-0.07875022,0.14473969,0.059585206,-0.2919503,0.0015035985,-0.11129683,0.09278235,-0.17617343,-0.106363975,-0.0051805903,0.007188352,0.099917345,-0.0034308026,0.05655546,-0.119219504,-0.04011754,-0.12794814,-11.49749,0.0746889,-0.0040917355,-0.007522527,-0.15023522,-0.058653187,0.05702611,0.11409855,-0.10708367,0.06634804,0.009442222,-0.06650146,-0.17615844,0.0038334453,-1.1499331,-0.053718273,-0.21665242,-0.02302405,0.16028121,-0.14418676,-0.044092342,0.344705,0.20633683,-0.077989794,-0.13945714,0.049219925,0.46066806,-0.116049826,-0.10709053,-0.13096027,-0.085080184,-0.15201317,-0.061884835,-0.032323863,-0.24674842,-0.12624702,-0.07865829,-0.10203299,-0.16898018,0.0257585,0.5598005,-0.02615223,-0.1486286,0.008265806,0.12574954,-0.042734805,0.06552239,0.02875575,0.24616472,1.0663853,-0.15804324,-0.09329558,0.022810232,-0.06479841,-0.17554909,-0.13127576,-0.027091352,0.027386464,-0.20737688,-0.2797362,0.0065241023,-0.11319989,0.116781496,0.4216219,-0.15060371,5.1840477,0.16293743,-0.49501887,0.018475274,0.109773934,-0.09820142,-0.070029445,-0.11747133,0.054010723,-0.16161591,-0.05151366,0.13830048,0.068839416,0.09552108,-0.07142186,-0.16924879,-0.06788288,-0.3608303,-0.1402313,0.08464348,1.001051,0.027187249,1.5422918,-0.35103142,-0.09838617,0.17337102,-0.1377139,-0.05263533,0.18989776,-0.1003514,0.0710296,0.10742345,-0.12116397,0.031066494,-0.06501671,-0.07000771,-0.38169092,0.12640335,-0.1288319,-0.14238615,0.22296368,0.029695699,0.1382556,-0.0054551824,0.0696334,-0.0107443435,-0.0033973402,-0.091398485,0.03944181,-0.19133887,0.12020226,-0.107319094,0.03391296,-0.2267656,-0.14153726,0.024661606,-0.16270666,0.06778082,0.085331485,-0.089167625,-0.1336485,-0.24300317,0.07470827,0.0031115436,0.26439354,0.038880426,-0.17189126,-0.09137133,0.009480876,-0.20499483,-0.091147274,0.19783367,0.034062006,-0.27237165,0.023206018,0.038220048,-0.22759472,-0.059202094,-0.08961399,0.04629816,-0.17288521,-0.11160816,-0.11265108,-0.11598069,-0.1146294,0.019101093,-8.10941e-06,0.1301457,-0.29577044,0.0067109503,-0.15993032,-0.17222644,0.009656312,0.028768212,0.010474839,0.022994196,0.27410343,-0.18052617,0.25251427,-0.21208541,0.13258052,-0.0153857,-0.027374253,0.05320936,0.14801055,0.03651206,0.19120565,-0.13953972,0.0623841,0.07472716,0.13159119,-0.050306804,-0.028141672,-0.056502797,0.040928554,-0.042218443,0.09115952,0.061208334,0.42602196,-0.10295979,0.0062938784,-0.15669048,-0.18780957,-0.07647571
audio_105.wav,0.12803493,-0.030487554,0.041904736,-0.06936723,0.16929924,-0.024158832,-0.22580668,-0.22363415,0.5699143,0.28488782,-0.08620994,0.19835657,0.00164711,-0.027876975,-0.0059329146,0.13010994,0.25869125,0.2034791,0.0370066,-0.09087313,0.05645776,-0.04784023,0.009663186,0.19870242,0.06830242,0.05244525,-0.0010160274,0.21040727,-0.10418925,-0.16905516,-0.018106606,-0.2311593,-0.0892216,-0.03081878,-0.065415934,-0.060981587,-0.07170932,0.11980344,-0.040526092,-0.020683855,-0.10109272,0.15791556,-0.07845971,0.21844828,0.05577775,0.019784892,0.082109295,0.202132,-0.070247166,-0.012456845,-0.0364865,-0.066512346,-0.0127891805,0.063858226,-0.042962193,0.04045465,-0.084292896,0.025778167,0.036096938,-0.20998588,0.05827818,-0.15101041,-0.13695909,-0.064536415,-0.09146786,-0.043133005,0.079404354,0.29666093,0.11216183,-0.41058773,-0.004985962,-0.052062813,-0.02047545,0.046565667,-0.18237947,-0.07407865,0.10564861,0.05052966,-0.14831796,-0.021677887,-0.31225854,0.051782507,-0.06340986,-0.09943576,0.021470087,-0.053993348,-0.11025409,-0.12285153,0.33957654,-0.054551817,-0.28782076,-0.033124004,0.0672495,0.14826964,0.07788449,0.16804108,0.15583895,0.04742461,-0.2278811,0.16921368,-0.1408668,-0.005632997,0.0034347037,-0.22468324,0.10148548,0.12054529,-0.14028801,0.013646996,0.18377136,-0.09917183,-0.021911703,-0.050920818,-0.027869822,-0.8702381,0.012668811,0.20862699,-0.109216735,0.18445666,0.122961424,-0.07467231,0.05808127,-0.13070942,0.059611708,0.12698504,0.03750631,-0.1433909,0.09059471,0.090239055,0.07867907,-0.10526467,-0.0002458445,0.013337661,-0.058297362,-0.1511504,0.13594049,0.031317793,-0.35097852,-0.09264801,-0.09977817,0.15869874,-0.079569526,0.0022295841,0.12631036,-0.10131617,0.029247215,-0.064542934,-0.030479377,-0.09173617,0.05890103,-0.0020501404,0.15864243,0.05485567,0.027036194,0.43075252,-0.052548684,0.0075686886,-0.4425157,0.007096501,-0.21499792,0.29259616,0.17318554,-0.16220427,-0.19144966,-0.04359131,-0.08519801,0.11172185,-0.041672897,-0.17669699,-0.1617735,-7.759094e-06,0.09429774,-0.063461855,-0.18332161,0.13729186,0.10492879,-0.09563666,0.10431477,0.04264121,0.16971146,0.014812244,-0.080462486,0.09699597,0.07023631,-0.13457716,0.16303566,-0.29669735,-0.16105975,0.10701986,0.027465299,0.25338203,0.069166675,-0.17172341,-0.09215743,-0.23466346,-0.09169039,-0.20714025,0.15050367,0.10941424,0.023878844,-0.13399321,-0.19552274,0.046574224,0.015968235,-0.64160436,-0.026922038,0.113023,0.19502893,-0.07478832,0.010998573,-0.016151497,-0.13902657,-0.087094076,0.029765936,-0.102314495,0.033589527,-0.0697949,0.043636013,0.06896119,-0.0077903727,-0.04389528,-0.013418317,0.11444248,0.2339462,-0.18868664,0.09445736,0.086792335,0.14515693,-0.008338441,-0.7408414,0.06629661,-0.12212052,-0.030436233,-0.13373281,-0.04261111,-0.042725626,-0.18079269,-0.21057637,-0.26025456,-0.12523068,-0.7746304,0.012638451,0.23910391,0.049773946,-0.12305766,0.1407416,-0.11617289,0.059342,0.13199778,-0.19141872,-0.10981158,0.015677048,-0.025937459,-0.0037604852,0.0740202,0.23427576,0.11956228,-0.010748736,-0.25604486,-0.06738678,0.06492183,0.08023488,-0.13597621,-0.30734596,-0.05289741,0.013551075,0.035040263,0.008621786,-0.04237058,0.11817493,-0.06667902,-0.118412904,0.0022777736,0.050440405,-0.021897823,-0.19371004,0.116710834,-0.111835875,-0.13321362,0.016627347,0.009557614,0.078156576,-0.12921678,-0.009012525,0.115377925,-0.34807006,-0.035592787,-0.17264552,-0.029298019,0.22132963,0.03399534,-0.072676934,0.21888345,-0.031635813,0.15145251,0.0637148,-0.073212944,-0.1407748,0.029735543,0.016778147,-0.1568556,0.0943268,0.09684066,-0.08252926,0.043112233,0.027705738,-0.12782735,-0.21101809,0.11368164,0.05820969,-0.1584068,-0.086417705,0.10003125,0.18911698,-0.18214145,0.16862549,-0.059797466,-0.2574347,0.005797581,0.027391847,-0.08442299,-0.34863597,0.13014854,-0.1320448,-10.378683,0.0395473,0.08812211,0.17581758,-0.13223334,0.058484174,-0.19871093,-0.029605621,-0.06698047,-0.05002168,-0.058867306,0.18284564,-0.35278332,-0.03066987,-1.7205535,-0.09005866,-0.051485866,-0.033723697,-0.013368559,-0.17267492,-0.014084845,0.1891445,0.1613191,-0.051899098,-0.12461425,0.037318055,0.3457084,-0.20629774,0.047721054,-0.12956345,0.06309102,0.05815271,-0.07690026,0.16658998,-0.22432582,-0.07481855,-0.12648006,-0.21374056,-0.1771379,0.14344814,-0.036211174,-0.097725,0.101026714,-0.26634866,0.062170703,-0.011901957,-0.058806743,-0.028456349,-0.16404359,0.6663224,0.053624924,0.22654079,-0.10777516,-0.24916288,-0.021489039,0.0060844575,-0.08623706,-0.14548223,-0.32745263,-0.003501241,-0.020568911,0.08158333,-0.100482084,0.13258371,-0.030637918,5.4166017,0.11073844,0.032547172,-0.0707763,-0.021589825,0.17948821,-0.057535663,0.06382731,0.03031219,-0.124939494,-0.12783404,0.03243043,-0.043914143,0.09804791,-0.16819681,-0.02187174,-0.05942391,-0.106705554,-0.10959158,0.054485116,0.61708933,-0.082853496,1.0565891,0.042006977,0.12880363,0.12860435,-0.09025081,-0.06489451,-0.0024239807,0.20878772,0.045909453,-0.062494088,-0.1458787,-0.07984446,0.02491251,-0.09218353,-0.05680459,0.3819764,-0.04498402,-0.0990707,-0.030692322,-0.15707141,0.11123009,0.08987451,0.16662739,0.08897414,-0.19480531,0.08183715,0.011547915,-0.21990353,-0.045712676,0.026483256,0.32948098,-0.2400075,-0.20081754,-0.088221334,-0.17505403,0.13872729,0.042349756,-0.077969685,-0.08595135,-0.05076246,0.006764853,0.082729675,0.12486618,-0.08321184,-0.17289446,-0.101599164,-0.16130017,-0.15673406,-0.06540379,0.21513762,-0.09770251,-0.12936385,0.11331687,0.15776007,-0.22049162,-0.022779806,0.028221263,0.15466975,0.06841858,0.052210793,-0.16184518,0.08786331,-0.08207198,-0.053572122,-0.1706888,-0.07607572,0.021093965,0.04704483,-0.044556182,-0.21626721,-0.014767727,0.013483256,-0.0653466,0.25294378,0.29275712,-0.11715354,-0.31055906,0.11261571,-0.14820354,0.099533364,0.049355622,0.14989117,0.18278414,-0.15521802,-0.013225433,0.16688293,-0.060124435,0.14585799,-0.12511334,0.038622785,-0.10749929,-0.053797226,-0.04411132,-0.07190386,-0.0037236938,-0.019228365,0.09998119,0.012491391,-0.060749307,0.078471445,-0.009208015,-0.0044240886
audio_106.wav,0.003510189,0.06597242,-0.12664717,0.086363465,-0.0833426,-0.06887757,-0.082635686,-0.35089576,0.67233527,0.0850688,-0.115856156,0.115994535,0.08840102,-0.17523628,0.19095033,0.09006341,0.07569455,0.25368747,0.10126103,-0.028613828,0.16286682,0.016411057,0.022455204,0.058868326,0.05220161,0.070576936,-0.031877324,0.04352751,-0.030068282,-0.67693555,-0.13392417,-0.042611606,0.33129123,0.14927861,-0.07612341,-0.09600802,0.21194254,-0.115268074,-0.13783054,0.015858239,0.12375143,0.2791286,0.0027356104,0.099072,0.16564111,0.10761604,0.13460173,-0.16065428,0.036851816,-0.046033233,-0.07376288,0.0431442,0.012111752,0.11088317,0.024584796,0.14456415,-0.03444627,0.13120288,-0.008375121,-0.028562305,0.0937075,-0.07356964,0.11542331,0.08596707,-0.028752863,0.10417812,0.16015247,0.10669756,-0.030733006,-0.2074526,-0.09048648,-0.050896663,0.029611623,0.11701752,-0.06422051,0.07061674,-0.022616915,0.020892318,-0.103002705,-0.022857195,-0.011435537,0.10317112,0.12519456,-0.13387239,0.03599063,-0.0866144,-0.6605589,-0.07691866,0.22710747,0.17481555,-0.37554032,-0.24612801,-0.028603986,-0.054958485,0.017323608,0.07336726,0.6304278,-0.019593775,-0.09568747,0.08685,-0.12424505,0.00583313,-0.16679537,-0.17804338,0.06968074,-0.05036848,-0.14317466,-0.13786922,0.027651133,-0.011943651,0.08928556,0.03411863,-0.011241701,-0.926288,0.04875384,-0.18355331,0.03908989,-0.19264908,-0.035910536,0.031737212,0.23716047,-0.151498,0.12763037,-0.03161799,-0.05602256,-0.22094205,0.18672909,-0.021705475,-0.011847918,-0.07875164,0.07356997,-0.0623923,0.1519616,-0.00096058525,0.06587515,-0.10540759,-0.5156884,-0.012197181,-0.045091838,-0.12376549,0.05925357,0.014491785,0.28898713,0.029737404,0.0010440054,-0.19242226,-0.044370092,-0.03115798,0.060684565,-0.14585848,0.13048424,-0.0007194379,-0.04829541,0.18585037,-0.08357083,0.0005703913,-0.16493347,0.088654794,0.0422419,0.07019907,0.031384606,-0.00038218687,-0.0018717066,-0.09828808,-0.025494555,-0.049087178,0.13042319,0.036782388,-0.2861577,-0.0942595,0.092440836,-0.034388497,0.002016576,-0.033729147,-0.016827384,-0.26886743,-0.12969388,-0.040508803,-0.028087486,-0.13521738,0.038634524,0.005116455,0.0013103447,-0.22976878,0.021282624,-0.0833483,-0.122627296,-0.051800527,0.03260072,-0.07346579,0.11937085,-0.22186425,-0.0458256,-0.013266505,-0.26959082,-0.041110512,0.024646219,0.0310807,-0.17497627,-0.12963414,-0.07181246,-0.11213322,-0.065077774,-0.8273603,-0.011585859,0.087980315,0.3731245,0.043146525,0.08703833,-0.2644564,-0.097487606,-0.01250069,-0.007020537,-0.15055342,0.19335014,-0.12083329,-0.36021492,0.15360963,0.080204844,0.041067574,0.19452307,0.010737307,-0.03706584,-0.24662504,0.014068528,0.046768826,-0.04136725,0.027640741,-0.43835306,0.18432128,0.29393622,0.18578939,-0.19432025,-0.2119026,-0.014729155,-0.17353825,-0.026357828,-0.071932696,-0.15531519,-0.74447775,-0.03676172,0.088977575,-0.011284983,-0.055533066,0.20790608,-0.059239566,-0.02193037,-0.13814579,-0.1644217,-0.054174982,-0.0402621,-0.09269573,0.102441885,-0.016311325,0.22254525,0.1570377,0.14211124,-0.19252771,-0.11876072,0.01383954,-0.054016113,0.14470805,0.060848173,-0.09900087,-0.1533569,-0.2242512,0.028066149,-0.15826076,-0.20623256,-0.04182553,-0.028772019,0.06752956,-0.1832079,-0.10937692,-0.29710236,0.08890292,-0.28355908,-0.21222271,-0.06441721,-0.100492224,-0.0037504158,-0.02375382,0.16399224,-0.010814509,0.005534604,-0.046736907,0.10347703,0.046222962,-0.025087675,-0.13954106,0.008889304,0.042685375,0.4103424,0.1394999,-0.21797788,-0.07862489,-0.08523296,0.57410043,0.06534737,-0.06307957,-0.15104006,-0.08316752,0.019314034,0.25139466,0.2737989,0.019822937,-0.10842383,0.13123903,-0.25709993,-0.10212686,-0.019475298,-0.055300374,0.29336205,-0.82466877,-0.35683748,-0.022982974,-0.10100115,-0.05673589,-0.097387046,0.013879209,-0.071952626,0.1431138,-0.02988452,-11.064888,0.18799536,0.08727816,0.20751955,-0.08002479,-0.15173665,0.11991809,0.121597126,-0.08167471,-0.031045834,0.019989291,0.0872726,-0.13998725,-0.09999736,-1.638235,-0.07032387,-0.16960122,-0.07293017,0.08061873,0.035748415,-0.06773844,0.042497657,-0.11802317,-0.107621625,-0.22003831,0.41119546,0.12926266,-0.025179267,-0.011386986,-0.36659998,0.098994076,-0.06822782,-0.029574316,-0.074278414,-0.027070541,-0.1510964,0.15378514,0.006328575,-0.071400136,-0.004315385,0.31800884,-0.07883611,-0.08317284,0.11691401,0.0712376,0.056264445,0.21190287,0.040522505,-0.11060748,0.55947465,0.012044937,-0.12938528,0.20000596,-0.143241,-0.0038593826,0.06184212,-0.10082852,-0.32605958,-0.18732543,0.027477128,-0.15419295,-0.12354419,-0.047756534,0.41705343,-0.023507284,5.114379,-0.06930907,-0.07578791,-0.13330612,0.1455961,0.09729856,0.20331457,0.011364158,0.078631125,-0.009704439,-0.23824568,-0.011187317,0.0060223015,-0.04707784,-0.008724958,-0.068733126,0.098060854,-0.012949764,0.11385867,-0.04118576,0.51384383,0.075810894,1.2304809,-0.06719059,0.040626176,0.17712769,-0.11401674,-0.029857071,0.055192877,0.027404794,0.11109768,0.0055604246,-0.031329855,-0.12542655,0.09356813,-0.08697146,-0.097173646,0.1407861,-0.07755543,-0.049708053,-0.07797626,0.024422089,0.18961792,0.048679758,0.108260885,0.08798869,-0.19576225,0.072201714,-0.015406146,-0.16442178,0.034398876,0.23822284,0.0010212796,-0.10935332,0.009295941,0.024239594,-0.05113112,0.02499188,0.11620102,-0.16486824,-0.080325,-0.16597772,-0.051504403,0.07330527,0.16754149,-0.24197228,-0.16302949,0.02374395,-0.11361049,-0.038259212,0.06349194,0.038639817,-0.08976915,0.14127733,0.070444904,0.34218547,0.061897665,0.081380524,0.049358834,-0.06107787,-0.04622844,-0.12257274,-0.030815272,-0.07778767,-0.14770947,0.017121434,-0.015378619,0.05781844,0.006210945,0.11162899,-0.28678736,-0.16116065,0.01934767,-0.021155506,-0.08902668,0.21039787,0.164994,-0.2675238,0.46323046,0.038463973,-0.04482958,-0.26189527,-0.0038473879,0.09504728,0.04256211,-0.26352295,0.022773717,-0.16170819,-0.030668726,-0.0122050205,-0.15877755,0.098254554,0.007480063,-0.07018045,0.09077775,-0.05267162,0.004465168,0.18052046,0.008819834,0.030567575,0.0031518212,-0.05647218,-0.11543522,0.051336963
audio_106_1.wav,0.11947215,0.05770435,-0.11662783,0.061357472,-0.12330616,-0.11670894,-0.09303624,-0.39671403,0.6275433,0.07836209,-0.10401575,0.13977498,0.007353007,-0.20490299,0.17677248,0.064404905,0.07746909,0.28995952,0.1039674,-0.035128932,0.18632609,-0.03368082,0.03689305,0.0077459384,0.050140157,-0.0048924764,-0.06922785,0.03729577,-0.04157074,-0.7072974,-0.1996888,-0.039825503,0.34504423,0.17928141,-0.024583288,-0.051778767,0.13597018,-0.08905424,-0.1452909,0.009951658,0.10670247,0.2320526,0.008853318,0.101111375,0.10896733,0.11013686,0.15607677,-0.20941903,0.06145895,-0.040300056,-0.014824056,0.033767384,0.002596723,0.09930538,0.011722341,0.1644252,-0.055015385,0.1341331,-0.0457046,-0.0029421896,0.09604728,-0.1273002,0.11575185,0.09431627,0.010874888,0.054636557,0.20423849,0.14360274,-0.025469685,-0.13981658,-0.07983491,-0.06295573,0.034024484,0.0734587,-0.09329227,0.088381164,-0.02277955,0.014585454,-0.12225295,-0.023262044,0.017819664,0.10916536,0.13410637,-0.13540445,0.013856092,-0.12618855,-0.57448924,-0.10383008,0.341282,0.17217106,-0.40214565,-0.26587483,0.00335068,-0.047664043,0.0347815,0.08963292,0.76411474,0.016133573,-0.081228636,0.028444808,-0.15243419,0.011712802,-0.20552403,-0.17829472,0.0778858,-0.03266155,-0.13835062,-0.16708158,-0.012536641,-0.038154077,0.12206522,0.042390972,0.005713862,-0.76369107,0.033575878,-0.21031542,0.042518098,-0.22860962,-0.040601533,0.08643202,0.25803083,-0.12972833,0.12366327,-0.044822082,-0.014759812,-0.19189268,0.14438301,-0.08310222,-0.016590351,-0.09781193,0.06355565,-0.04227898,0.23777258,-0.016564634,0.09812145,-0.10819629,-0.54696906,0.0076563885,-0.03358051,-0.11829603,-0.0137518,-0.012060005,0.27196997,-0.006362727,0.04460941,-0.110824674,-0.070442624,-0.061623536,0.110859446,-0.03343922,0.12429365,-0.005996207,-0.031986326,0.09609557,-0.07587968,-0.022445211,-0.14145014,0.09657767,0.08501731,0.13062541,0.062640615,0.034989517,0.00045506223,-0.14167835,-0.0087558925,-0.012853543,0.16406563,-0.0049832524,-0.30140275,-0.13397099,0.093055055,-0.0256984,0.004843418,-0.017022036,-0.026855662,-0.25719512,-0.14349902,-0.049588166,-0.049157787,-0.13031347,0.051622212,0.029365472,0.006934154,-0.26780042,0.028474884,-0.044430625,-0.15772918,-0.016120993,0.07551987,-0.04101235,0.1110482,-0.22430143,-0.036949325,0.04823759,-0.2766677,-0.03174443,0.032609295,0.035898365,-0.21533948,-0.15813568,-0.07736938,-0.13490048,-0.13360737,-0.83506835,-0.015061073,0.07002546,0.38858068,0.10839384,0.075544864,-0.24133085,-0.13270345,-0.036710855,-0.047818527,-0.085089326,0.2270774,-0.059174467,-0.35284054,0.15346557,0.10908824,0.0022741496,0.1868007,0.04823479,-0.03265726,-0.25806198,0.011413609,0.025234168,-0.14701763,0.07998562,-0.40310335,0.19002803,0.17367348,0.19915356,-0.2191646,-0.21857922,0.02231046,-0.158057,0.008813757,-0.04306191,-0.18982944,-0.7025949,-0.014362486,0.071039125,-0.0077858334,-0.054957744,0.28702477,-0.08150341,-0.011575912,-0.082411,-0.15802136,-0.08201755,-0.0885472,-0.08171021,0.069460966,-0.02869849,0.21138203,0.17621067,0.15105456,-0.23568068,-0.114101216,-0.02313372,-0.058762345,0.21567541,0.060381997,-0.09728539,-0.13751571,-0.22611263,0.011580679,-0.09324167,-0.2164589,-0.02846156,-0.06719999,0.07095121,-0.16978078,-0.10338303,-0.31080252,0.09479258,-0.29453954,-0.19925931,-0.082420886,-0.08561149,-0.004378161,-0.007669543,0.16061598,-0.08813279,-0.030953323,0.006459236,0.15530618,0.1410458,-0.009886856,-0.12004494,0.009963409,0.004177396,0.48930418,0.14612928,-0.23898962,-0.057917196,-0.0641092,0.6758265,0.024729626,-0.06050473,-0.11880994,-0.063038096,0.07931939,0.29037017,0.25412077,0.065203,-0.065812685,0.14004883,-0.24550067,-0.12214638,0.0013900134,-0.067989685,0.30454257,-0.8587025,-0.3876851,-0.027351525,-0.06640135,-0.09038257,-0.087406754,0.016889052,-0.0156717,0.1519865,-0.04743689,-11.215215,0.15465227,0.05747075,0.20022711,-0.1425853,-0.1851145,0.1423342,0.15406406,-0.104365416,-0.02620864,0.02178917,0.13864784,-0.077909715,-0.13109645,-1.5978501,-0.03893935,-0.19289754,-0.06676949,0.04002502,0.042248398,-0.094118856,0.026550058,-0.19659825,-0.15694153,-0.2435421,0.4958091,0.1260206,-0.030675834,0.029727384,-0.37923536,0.048609626,-0.044212624,-0.041967936,-0.10753794,-0.022032848,-0.1410097,0.17251319,-0.0087180445,-0.08198948,-0.02945243,0.2929719,-0.049032647,-0.10570522,0.11949485,0.04012262,0.07673175,0.18172914,0.016138444,-0.059686862,0.6194191,0.00947218,-0.13843966,0.23423362,-0.14178348,-0.007109507,0.05674352,-0.08971457,-0.29056984,-0.15722816,0.047688335,-0.1264733,-0.13340938,-0.038193516,0.4466093,-0.032583706,5.039391,-0.05704617,-0.021904523,-0.13544554,0.18699542,0.099302895,0.12041945,0.048274506,0.08400987,0.016526232,-0.26586926,-0.02932632,-0.007695948,-0.087956645,0.006209635,-0.10719846,0.10449323,0.057006244,0.12978366,-0.08239885,0.42434195,0.09027418,1.0543337,-0.11874134,0.025243063,0.13950378,-0.1293385,-0.03196006,0.03230691,0.0054039364,0.06778301,-0.030729583,-0.05102678,-0.12820764,0.09069501,-0.11194948,-0.062488846,0.12734458,-0.1381223,-0.041001707,-0.04124658,0.059622485,0.15402667,0.05009056,0.11163999,0.09228886,-0.18925689,0.032565907,0.0130059915,-0.21266316,0.07770823,0.2687524,-0.02200445,-0.12812288,0.007537374,0.026145296,-0.064598195,0.031240389,0.16071297,-0.16771744,-0.064503714,-0.18057579,-0.06669829,0.095853426,0.18081176,-0.2335253,-0.13930166,-0.003232546,-0.13054867,-0.057441782,0.048334096,0.005810376,-0.06382879,0.22582217,0.06328429,0.32464993,0.008456073,0.05518822,0.089136966,-0.08773565,-0.107763976,-0.11745765,-0.033212792,-0.09915668,-0.17304748,0.04451647,-0.0060998434,0.026634114,0.050481126,0.12873845,-0.36933976,-0.1813455,0.030134363,-0.070116885,-0.08306581,0.186965,0.13183036,-0.36385375,0.578978,0.07026451,-0.02890122,-0.273913,-0.013744235,0.10298753,0.076784104,-0.26541466,0.026564859,-0.20601447,0.024960604,-0.04772866,-0.1278927,0.06916971,-0.0041330936,-0.022222755,0.11905977,-0.01483146,-0.018342441,0.13682032,-0.00048498536,0.031539205,-0.017643878,-0.04600597,-0.12149558,0.08022493
audio_107.wav,0.16375193,0.015495645,-0.039853316,-0.18704407,-0.06464,-0.04934574,-0.076617554,-0.02798494,0.29115576,0.03379835,-0.018365664,-0.057326872,0.037044555,-0.050979633,0.08047229,0.097370595,0.100192145,0.040260952,0.24482523,-0.03327781,0.23158239,0.0061465614,0.1499559,0.17944588,-0.06312024,-0.27368295,-0.09451249,0.364715,-0.06942552,-0.071503244,-0.012085716,-0.1639399,0.12725475,-0.084516324,-0.17986788,0.023168396,0.17740157,-0.11360946,-0.18683453,0.06433042,0.009536575,0.04059037,-0.12300772,0.1004175,0.12143302,0.044284943,-0.03953011,0.09794756,-0.06023569,-0.028474135,-0.06201476,-0.081061415,0.25046843,0.08040769,-0.020504551,0.18554108,-0.17189607,-0.0010385131,-0.040438678,-0.08258906,0.16141322,0.20863225,-0.048029926,0.08942812,-0.0066483,0.20191093,0.1716278,0.1963453,0.03376791,-0.30097303,-0.09522741,-0.0635539,-0.062040813,0.20115772,-0.04570577,0.055723216,-0.02872999,0.0071883625,-0.09235227,-0.20186706,-0.11677189,0.032181785,-0.0613021,0.009757402,0.11680648,-0.17954917,-0.42251128,-0.122438915,0.12861279,0.14196943,-0.4388567,-0.11905369,0.0018709768,0.13480715,0.1287206,0.13535157,-0.15747593,0.20222351,-0.034931954,0.14352627,-0.10824919,-0.03576103,-0.13234952,-0.23694333,-0.12628411,0.061882373,-0.03185948,-0.1388624,0.16514227,0.036090862,0.07810704,-0.075704984,-0.12971747,-1.3349233,0.019244023,-0.1288344,0.05651718,-0.091255516,0.16541106,0.05768425,0.2580818,-0.1816431,0.049591985,0.23887162,0.13728292,-0.1494091,-0.31782913,0.21076155,-0.070014395,-0.21809745,0.03498778,-0.014018025,0.10381376,-0.20160557,0.09700242,-0.15320522,-0.28078946,0.008738014,0.02674837,0.08846529,-0.1700379,0.014250253,-0.14295259,0.089408986,-0.059913363,0.24819012,-0.011619108,0.080798596,0.08481057,-0.11292003,0.110896625,0.06302401,-0.070330754,0.7779348,-0.056066506,-0.015100466,0.11227076,-0.061673462,-0.06026888,0.29289997,0.1775483,-0.04523675,-0.080134965,-0.09009141,0.05929496,0.017206486,0.002753285,0.02973719,-0.14556672,-0.1247709,-0.031685174,-0.038138933,-0.15954408,-0.09274597,-0.09148438,-0.19268487,0.07625535,-0.06261507,-0.028161751,-0.026585156,0.071611784,-0.046552174,-0.02822791,0.045008566,0.15546069,-0.45080715,0.009527176,0.035356317,-0.008862756,0.19733532,0.15564589,-0.1273048,0.1847985,0.122549854,-0.13289982,-0.20252664,0.090680234,-0.03722524,-0.000855127,-0.16151583,-0.057350777,-0.18143184,-0.048898738,-0.87303644,-0.11799595,0.119680315,0.22747932,0.079942584,0.08818446,-0.06607931,-0.124067426,0.076320924,-0.050851792,-0.07116755,0.13550402,0.08198437,-0.5820027,-0.07299664,-0.071568795,-0.046570957,0.02298706,0.031733844,0.10196779,-0.23606142,0.0145149715,0.029779363,-0.08028924,0.09732442,-0.4762892,0.05536499,0.15052184,0.004511134,-0.07652065,-0.27634203,0.13023256,-0.037518464,-0.22330375,-0.2408097,0.06074129,-0.63938844,0.20567544,0.22448722,-0.07298342,-0.12794176,0.30566728,-0.013260208,-0.12488993,0.15070273,-0.26553378,0.003737536,0.100060016,0.028224645,0.17898709,-0.0044463007,0.33189234,0.08183155,-0.13211532,-0.16343082,-0.029659571,-0.0067883967,-0.19265002,0.026782049,-0.05701505,0.08423049,-0.07088124,-0.050605346,-0.015516669,-0.12361291,-0.025822904,0.12351971,0.0471144,-0.037449066,0.1324519,-0.08796164,-0.27766204,0.060408767,-0.22778091,-0.13527486,-0.015731508,-0.15959437,0.001643965,-0.03845064,0.11363646,-0.022134418,-0.15473114,-0.06057589,0.012046436,0.29100445,-0.10991842,0.008576342,-0.103166685,0.025708897,0.7601966,0.043609582,0.038570713,-0.06695094,-0.06276829,0.22518978,0.09463144,-0.034052815,0.033155512,-0.0746979,-0.015380696,0.08062603,0.087774955,0.14419584,-0.029956657,0.07834327,-0.005921318,-0.15800487,-0.0010223192,0.00042800777,0.09432799,-0.23259999,0.10557638,-0.03124698,-0.13305184,-0.13767943,-0.07407835,0.012993749,-0.18545027,0.14504701,-0.10541336,-11.368909,-0.058278717,-0.043422155,0.20611049,-0.22409068,0.09186961,0.13520138,-0.07303141,0.08595123,-0.06662693,0.018725669,0.106378146,-0.22384684,-0.13546178,-1.4971359,-0.24009967,-0.052356225,-0.1430934,0.09505808,-0.063133374,-0.037908908,0.022540273,0.10601208,-0.22491936,-0.2183037,0.6044119,0.3648164,-0.11345795,0.022763213,-0.18362321,0.13087308,0.004641876,0.08424703,0.012019085,-0.13807616,-0.019533327,0.102956854,-0.0031136067,-0.19518062,5.0544102e-05,0.16800809,-0.059454247,-0.16970739,-0.09534436,0.04875718,-0.19691947,0.027216354,0.018473767,-0.0942194,0.89855,0.054387175,0.04787926,0.026493214,-0.048337474,-0.116900325,0.043589406,-0.026465576,-0.028673599,-0.19616957,-0.068964414,-0.09891555,0.043122824,-0.036982488,0.4576424,0.013505647,4.9712605,0.0849427,-0.20565958,-0.07185929,0.08814123,0.004280534,-0.01878276,-0.13958552,0.15059707,-0.017836304,-0.12138902,0.03071861,-0.02648562,0.0701862,-0.04280731,-0.020708552,0.06877271,-0.33054596,-0.12933774,-0.039453413,0.76194954,-0.01641413,1.032668,0.08361725,-0.02755434,0.02807373,-0.1474665,0.0015494232,-0.119889036,-0.117041215,0.1593764,-0.019433832,-0.24715196,0.011564248,-0.009651923,0.09638804,-0.028766189,0.63319385,-0.054552175,-0.21293063,0.35334653,0.031556897,0.07406723,0.0140987355,-0.115462705,-0.059334096,-0.09962804,-0.078999884,-0.0027083855,-0.19136399,0.12733258,0.085504085,0.21780297,-0.23193339,-0.21069416,-0.08037534,-0.04296671,-0.105967835,0.1889025,-0.12459525,-0.22201656,-0.14183325,-0.05910686,0.056384917,0.077314764,-0.016241424,0.0054038027,-0.17569262,-0.01553066,-0.059333436,0.20282291,0.105391346,-0.113340735,-0.21423183,0.119843446,0.04896548,-0.0067710867,-0.13965215,0.14324223,-0.068163976,-0.051727492,-0.21081915,-0.042939276,0.055329014,-0.17045954,-0.096128784,-0.0745136,0.1494864,0.3971981,0.23111193,-0.2672273,-0.11081651,0.031196952,-0.14347762,-0.13477492,0.13149951,0.114965096,-0.12472072,-0.2161558,0.110004686,-0.04580414,-0.0014207255,-0.06959593,0.06745685,0.07351095,-0.30825654,0.14608438,-0.042941976,-0.05184088,-0.022737788,0.041921537,0.051293686,0.082920514,-0.019776102,0.007594226,-0.0053314157,-0.07134951,-0.2877895,0.072677255,-0.066935405,0.018966332,0.019501973,-0.11515457,-0.011932767
audio_108.wav,-0.2520251,-0.17135856,0.13855375,-0.08768194,0.27599698,0.10887388,-0.137117,-0.16427718,0.601233,0.09764862,0.1245955,0.0034440486,0.041861795,-0.24232686,0.036389112,-0.00550369,0.16377567,0.101745695,0.0063290265,-0.01782098,0.0064406046,0.063267596,0.12219954,0.27095276,-0.01879232,0.04852234,-0.07554407,-0.15058976,-0.15689611,-0.28804073,-0.0048265196,-0.15252718,0.21235046,-0.055599272,-0.0662972,0.027303535,0.2355241,0.08449639,-0.07727064,0.052734617,-0.23577726,-0.011046827,-0.08946816,0.011864032,0.16614217,-0.00066507974,0.035884008,0.119338766,-0.035592407,-0.06153016,-0.0020007896,-0.1508361,0.17628247,-0.010574963,-0.0024360435,0.06820567,-0.031932797,0.122980855,-0.057384674,-0.09109206,-0.018896522,-0.014741379,-0.14414178,-0.012645548,-0.0052757827,0.15205865,0.08491154,0.20338422,-0.056626555,-0.66672474,-0.09669743,0.057052743,0.06861642,-0.062482975,-0.10106593,-0.062054545,-0.024040364,0.031865265,-0.15662214,0.015051585,-0.041659668,-0.1747156,-0.15192162,-0.026061086,-0.064854436,-0.082544476,0.41411188,-0.13856207,0.092823416,0.33447397,-0.29061538,-0.05292314,-0.24370585,0.1888317,-0.09448481,-0.14178745,-0.14172676,0.026363553,-0.29082432,0.13336103,-0.20388635,0.04512573,0.044667143,-0.24718091,0.008879149,0.067252755,0.06376822,-0.019500483,0.3367409,-0.08536166,0.05648662,0.17731243,-0.13157886,-1.7380707,-0.02663151,0.25411955,0.12296403,-0.10669084,-0.060973834,-0.20558703,0.19764926,0.08346558,0.086942405,-0.08324915,0.20660445,-0.114828244,0.034994,0.0143573405,0.011200883,-0.08373498,-0.1358068,0.13423601,-0.15360296,-0.099355064,0.17359903,-0.05307854,-0.02650358,0.0047697686,-0.12224687,0.17711963,0.22660735,-0.025831245,-0.26132742,-0.06356887,0.15244749,0.23339607,0.1330622,0.0036541321,0.08394793,-0.28118572,0.1977361,0.17777742,0.06999284,0.626478,-0.119332895,0.013035003,-0.17709704,-0.033490937,0.013443147,0.109387144,0.04731082,-0.004701763,-0.1023525,0.05531261,-0.18236859,-0.09079775,0.20510122,-0.048440743,-0.04249169,0.026250994,0.0060020117,-0.03911078,0.053183388,-0.24217375,-0.08803402,-0.041704938,0.249478,-0.02488061,-0.033768617,0.03794595,0.1605533,-0.014459924,0.035112284,-0.04210393,0.22010075,-0.36671615,-0.15224881,0.026493194,-0.025233679,0.14637409,0.04219419,-0.10228936,0.026009075,0.10858659,-0.3964735,-0.16184495,0.16668932,0.19392842,-0.011639398,-0.12563375,-0.051532134,-0.15062532,-0.059136927,-0.7203053,-0.19556572,0.01788746,0.29197893,0.04686789,0.1261623,-0.041539915,0.051049676,-0.06965395,-0.21135521,-0.33218986,0.15269038,-0.007206942,-0.26482233,-0.06570698,0.06629178,0.28844383,0.1327056,-0.039978348,0.052431446,-0.10856779,0.10339846,-0.0076920483,-0.052309707,-0.124961086,-0.37984893,0.073549315,0.17222093,0.043099068,-0.041087583,-0.22672285,-0.07882982,0.2211736,-0.14686252,-0.25293717,-0.03292572,-0.5799803,-0.000573822,0.027224557,-0.017647661,-0.031060109,0.18824078,-0.109195374,0.064885765,0.09213831,-0.20313975,0.028297849,-0.012867327,-0.14463647,-0.107762955,0.2984331,-0.010686071,0.037564717,0.14191023,-0.14478055,-0.15009621,0.12270746,0.14662334,-0.043789215,-0.011723899,-0.07899017,0.13856028,-0.0760012,0.026682585,-0.08437056,0.05315394,-0.059111774,0.12068333,0.019094909,0.004023247,-0.045142166,-0.23670213,0.028352309,-0.2593198,-0.17818408,-0.23239928,-0.03432363,0.068052776,-0.008089601,0.19068737,0.023839407,-0.155638,-0.18491459,0.12891704,0.08406959,0.04022733,0.10084637,0.033257253,0.10633732,0.66162425,0.20898946,0.05295126,-0.18530223,-0.12087423,0.26476297,0.007389123,-0.067608535,-0.0036672496,-0.13207033,-0.023763468,0.09294068,0.059904084,-0.1190577,-0.047303345,0.05799419,0.0065487935,-0.15840521,-0.07533058,0.10071931,0.073367305,-0.6394515,-0.20147501,0.0032629482,-0.19857584,0.013208257,0.0039382363,0.0075809676,-0.2827111,0.2966492,-0.17045681,-11.736542,-0.062042907,-0.008099681,-0.0025319774,-0.13162813,0.012036372,0.017746098,-0.05464721,-0.110561706,-0.20026988,-0.013835431,0.05032075,-0.05712649,-0.008880465,-0.8039139,0.11206029,-0.062847205,-0.037642,0.061056357,-0.13603866,-0.0413466,0.14648482,0.08172244,-0.040815726,-0.15613177,0.20394771,0.33704194,-0.12002669,-0.0039527575,-0.16234481,0.084923245,-0.060404073,-0.18028052,-0.15013568,-0.07591137,-0.29075214,-0.07079174,-0.13045496,-0.1788839,0.09165517,0.33573252,-0.11709634,-0.09372563,0.020605024,0.1512264,-0.2726466,-0.004272626,0.11734939,-0.068391696,1.1629953,0.062185705,-0.051011384,-0.00092512,-0.16957228,0.2620646,-0.00747347,-0.11489662,0.03967287,-0.16284321,-0.18479057,-0.014461033,0.24710177,0.051675405,0.252981,0.07672784,4.9077296,0.19815157,-0.32781214,-0.112118,-0.09805736,-0.034370128,-0.27847466,-0.09206139,-0.04468766,0.21912898,-0.20674285,0.012823262,0.10800486,0.13098313,-0.044648346,-0.052699868,0.04532557,-0.5774662,-0.08636711,0.17368284,0.598028,-0.08150449,0.8494898,0.056479685,-0.10882586,-0.06598297,-0.16318712,-0.011304726,0.098992795,-0.11324027,0.0994295,0.032998145,-0.063821636,-0.09398256,0.005282749,0.16113432,-0.014789209,0.25507054,0.057437174,-0.045600507,0.05827695,0.040548366,0.36821362,0.12122577,0.010598795,0.020930184,-0.045486767,0.052508544,-0.09540407,-0.12214112,0.055163685,-0.05534854,0.17599097,-0.1651948,-0.085128084,-0.15671076,-0.08325881,-0.004881767,0.14061315,-0.09183614,-0.081490345,-0.0522294,0.015809137,-0.021190839,0.15694563,-0.12074658,0.042753294,-0.0021241626,-0.016397184,-0.20130937,-0.21653387,0.110196196,-0.15285082,-0.1261992,0.14762934,0.0030651526,-0.12243005,-0.093991384,0.06437184,0.05170735,0.002962719,-0.26542887,-0.18883313,0.019627167,-0.06306721,0.20648527,-0.0647069,0.046624746,0.054603443,0.08040637,-0.04718131,-0.08852125,0.099666715,0.17609179,-0.07376316,0.2857049,0.32846373,-0.33024472,0.05964155,0.093017474,-0.16698603,0.032031354,-0.014709194,0.074071534,0.10471484,0.08915275,-0.033823553,0.08455983,-0.10442106,0.091760784,0.02570085,0.076218486,0.03653508,-0.043082304,0.11137193,-0.22151335,-0.021101039,0.021047266,-0.086520925,-0.12827711,-0.007703405,-0.09114264,-0.096627034,-0.074795164
audio_109.wav,0.08311299,-0.15347715,0.09650586,-0.04062026,-0.07931439,-0.04092232,-0.14018044,-0.29497844,0.33855906,0.0376109,-0.043333944,0.15985675,-0.14172906,-0.110223286,0.13744454,0.10437049,-0.08982758,0.19922228,0.1889285,-0.04133098,0.3644975,0.058182076,0.053004947,0.31142226,-0.036085036,-0.3099555,0.15080032,0.0075893695,-0.33222538,0.053796932,-0.031595185,-0.22612508,0.021869063,0.030591605,0.034364384,0.18595967,0.21011905,-0.15122145,0.036837168,-0.16286929,0.025463272,0.22396004,-0.084500514,-0.025532115,0.01993317,0.045614578,0.10415411,0.015154751,0.033672225,-0.024324173,-0.43238,-0.015861353,0.043947056,0.022193652,0.08733251,0.22280672,-0.16221435,0.022360247,-0.10197292,-0.16716114,0.16428663,-0.1667379,0.03149054,0.004068768,-0.15382916,0.20459794,0.007787852,0.16241491,0.013095672,-0.07389334,-0.23831323,0.0062661082,0.059547734,0.031418525,-0.24573697,0.095393136,0.013102699,-0.00022123336,0.04553958,-0.042484485,-0.12464225,-0.13724804,-0.07160909,0.10852522,0.06380144,-0.18038765,-0.4146391,-0.15906295,0.34680247,0.16936214,-0.3267675,-0.17058542,0.2016625,0.10951334,0.04865088,0.17889532,0.015111826,-0.015027617,-0.100361116,0.12262231,-0.055583466,-0.058206726,0.017875845,-0.30839205,-0.17657007,0.055322845,-0.0009030304,-0.19640784,0.12577164,0.00034622446,0.05574877,-0.058174472,0.12658744,-1.0136259,0.02081201,0.0846361,0.011161534,-0.12617698,-0.18660095,0.030508183,0.20159717,-0.21419235,0.09543405,0.054186817,0.13927372,-0.34612194,-0.35216093,0.073159955,0.15453862,-0.067348644,-0.057930347,-0.06787669,-0.40938315,-0.09825244,0.24670075,-0.031547014,-0.6666088,0.13884851,-0.015536522,-0.038589697,-0.049550246,-0.04345688,0.018967787,0.20950536,0.14974076,-0.0657047,-0.07749851,-0.13573352,-0.06673831,-0.10071888,0.11245999,0.038354315,-0.07924743,0.29214415,-0.035669092,0.1449605,-0.81041527,-0.045032766,0.110659935,0.28914747,0.0126404725,0.07537696,0.051607218,0.0047034407,-0.08367751,-0.04003904,-0.023004338,-0.24845186,-0.1772408,-0.007231462,0.16652036,0.026055163,-0.1771956,0.11157035,-0.14100863,0.43511006,-0.037977878,0.029687846,0.03378132,-0.097581625,0.30899593,-0.107577436,0.06212095,-0.009099633,0.11545678,-0.17765841,-0.05335034,0.12094448,-0.09381012,0.15677433,0.104194336,-0.024893774,0.10714761,0.06321589,-0.1465939,-0.16447726,0.16922808,0.0353291,0.025248067,-0.21491042,-0.10065798,-0.06769364,-0.0200352,-0.34029528,-0.111915,0.038645755,0.26228052,0.024812311,-0.0048675733,-0.024930393,-0.112501405,0.16098736,0.13792388,-0.18413632,0.15052463,0.0191497,-0.3924024,0.028082255,0.026370915,0.158214,-0.025121598,0.049712412,0.0012600034,-0.10923105,-0.0781357,-0.2540742,0.25889087,-0.14844944,-0.45175046,0.24995284,0.09826249,-0.0021595932,-0.000450222,-0.14388977,0.041105777,0.1828791,-0.06863125,-0.02452271,-0.09774455,-0.5988485,0.17970572,0.17348982,-0.030167717,-0.05665458,0.42164543,-0.0038028667,-0.07121758,0.16408011,-0.16075833,-0.13904348,-0.07763648,0.16841578,0.39591083,0.02415779,0.1446967,0.06391219,-0.01813945,-0.026230073,-0.097284645,-0.08644524,0.02521644,0.13886756,0.16061646,0.011577087,-0.028445939,-0.025480788,-0.11963261,-0.14885177,0.051045034,0.2140426,-0.009298237,0.05931371,0.05222346,0.13070469,-0.20607479,0.0788553,-0.22444537,-0.10617918,-0.03584219,-0.16621125,0.11951001,-0.12928869,-0.08530928,0.12366302,-0.13571924,-0.06441631,-0.0043814746,-0.27361587,-0.016857233,0.018865261,0.082421355,-0.023011068,0.123430416,-0.07928736,-0.011015319,-0.110208444,-0.06948175,0.4936069,0.041100487,0.09413625,0.031120636,0.007433707,0.07963134,0.2136486,-0.079664804,0.058182698,0.20258549,-0.01363553,0.1943282,-0.024020342,0.018147182,0.009056643,-0.049361367,-0.4904003,0.260671,-0.07502489,-0.14836532,-0.15680939,-0.058871765,-0.18415321,-0.060784455,0.12766655,0.007105614,-10.908197,0.124479875,-0.03619903,0.0812332,-0.16631095,0.0064709918,0.09033836,-0.0762338,-0.0151197715,-0.23356648,-0.040676527,-0.1085884,-0.048228636,0.12527688,-1.8413447,-0.2432362,-0.112616464,-0.16696943,0.1190694,-0.1970461,0.029177563,0.11786729,0.14935577,0.040312607,-0.21392879,0.1128752,0.4843415,-0.23576802,-0.012011006,-0.133325,0.11774575,-0.08094642,0.13146368,-0.14278935,-0.11300417,-0.11447882,0.09065257,-0.09423707,-0.21817535,-0.019479634,0.3808633,0.087845765,-0.17426747,-0.27210924,0.17287865,0.20195585,-0.04533074,0.13743326,-0.012240184,0.87823427,0.021711828,-0.074225664,-0.04597015,-0.15504238,-0.25443983,0.07258467,-0.24921395,-0.13987203,-0.06833685,-0.056674592,0.078124695,-0.14047752,-0.018455664,0.4339074,-0.10613426,5.022796,-0.038676087,-0.19583616,-0.06933606,0.14080133,0.1306693,-0.7807504,-0.022234915,0.007281461,-0.39794493,0.010526123,-0.12651306,0.063111365,0.16024002,0.065015785,-0.13205323,0.04806982,-0.39909175,-0.106834576,0.04970286,0.07227587,0.075953804,1.2253175,-0.05064332,-0.08915275,-0.062367544,-0.1223477,0.043541696,0.16182226,0.14940536,0.0017967898,0.101151966,-0.07624655,-0.05890216,0.007901726,0.031955943,0.028279383,0.05682801,-0.1230923,-0.11672341,0.17820218,-0.13637534,0.15567735,0.018667273,-0.13957858,0.035213057,-0.039656386,-0.11211073,-0.12581174,-0.061524265,0.2558844,-0.040929966,0.036543522,-0.15042734,-0.19062476,-0.03324359,-0.084944,-0.088139586,0.09451261,0.064035505,0.005473462,0.09674819,0.014992703,0.055220094,0.096313834,-0.00519968,0.14280929,0.102720216,-0.006236935,-0.19851625,-0.034702167,0.15769494,-0.07079704,-0.010900817,-0.083338924,-0.1923374,-0.13531543,-0.19407348,-0.004017235,-0.19247448,-0.021262648,-0.0924517,0.027600149,0.007653814,-0.11032704,-0.1235203,0.030346839,-0.056098122,-0.24145377,0.16624445,0.1909246,-0.17322937,-0.07490855,-0.092756785,-0.10649465,0.22552119,0.24294539,-0.17903468,0.121314116,-0.07399055,-0.070344165,-0.10793688,0.018664295,0.0017482198,-0.03609412,-0.26997876,0.25352466,-0.16103601,-0.12073334,-0.01182245,-0.054059967,0.043824013,-0.037438966,-0.13423854,-0.016532114,0.0172475,-0.004714841,0.04028331,-0.02046764,0.045656525,-0.10672707,-0.036946468,-0.050191075,-0.046974096
audio_10_1.wav,0.057673644,-0.06443662,0.068043664,-0.03885544,-0.038944405,0.14666766,-0.015730614,-0.27902788,0.21817105,-0.024412485,-0.15126324,-0.047193184,-0.021760609,-0.27477676,0.07035649,0.20891947,0.19282995,0.15118465,0.227794,0.05064495,0.26516914,-0.015658893,0.0013328831,0.23823038,-0.007396587,0.11464107,0.0035382512,0.23955376,-0.14567822,-0.36206546,-0.08838072,-0.123909526,0.035447378,0.07848183,0.15551771,-0.066507466,0.23672347,0.048641462,-0.19483492,-0.1559589,-0.094473846,0.30178794,-0.14062762,0.16748227,0.034322742,-0.06763302,0.10847067,0.24882486,-0.04794207,-0.11479658,-0.047029525,-0.06888202,0.17748979,0.17775258,-0.05575393,-0.04337227,0.053638667,0.051076263,0.12480762,-0.24970123,0.3350509,-0.055877175,-0.016128091,-0.0681923,0.021691035,0.10287838,0.23190802,0.17961802,-0.12753816,-0.3007269,-0.17394066,0.055642083,0.068275094,0.057907227,-0.092660666,-0.10169006,-0.2559439,0.099709414,-0.21548629,-0.113369524,0.030729318,0.03689476,-0.060151838,-0.042700898,0.066331916,0.03965274,-0.017166372,0.0362921,-0.08175496,0.23393808,-0.44760376,-0.070556164,-0.13264473,0.25083926,-0.11721559,0.134349,-0.0398588,-0.12625578,-0.21350789,0.15441057,-0.10397562,-0.09816356,-0.14320983,-0.21133065,-0.15837687,0.10295585,-0.13977276,-0.14488688,0.056105927,0.05834187,0.11486436,0.030660478,-0.14233238,-1.7070893,-0.057371795,0.051481668,-0.06796664,-0.14765124,0.1606667,0.04996736,0.17605172,-0.18964365,0.05730603,0.27366537,0.1270837,-0.19865409,-0.01756808,0.22674227,0.11496641,-0.114384025,0.040145192,-0.039091475,0.10175024,0.013697071,-0.04692938,0.015939353,-0.48926392,0.052315596,-0.08718903,-0.04197994,-0.14646056,0.028587189,-0.015487862,0.19645576,0.007215693,0.0056533255,-0.013652219,0.056641072,0.06269116,-0.16015907,-0.029136611,-0.051297557,0.12355123,0.77003866,-0.038805474,-0.028929891,-0.5294177,-0.16900486,-0.06297296,0.14081398,0.017215343,-0.08336467,-0.083654635,0.043960072,-0.119047664,0.10603753,-0.03616033,0.026247159,-0.24589111,0.007764035,0.1377677,-0.07359085,-0.10164638,0.037380747,-0.14027354,-0.3446726,-0.03468912,-0.022536216,-0.023910461,0.045899466,0.0136787975,-0.10467354,-0.1135497,-0.11807254,0.23959786,-0.126512,-0.16435891,-0.048593495,-0.009609067,0.25615194,0.14241157,-0.2628408,0.154805,-0.01756076,-0.2176951,-0.14655535,0.15792714,0.06093705,-0.10593865,-0.19088358,-0.12702185,0.013850946,0.1882022,-0.53271323,-0.17137958,0.13777919,0.34537613,0.046927795,0.11119578,-0.32700098,-0.19884008,-0.10607441,0.01839494,-0.11026962,0.04193582,-0.11308152,-0.37111166,0.06495397,-0.11404422,0.20979716,-0.013690925,0.0124955345,0.18743953,-0.09744786,0.13738668,-0.1546026,0.08003827,0.03487569,-0.6624431,0.06337163,0.18419315,0.058972787,-0.18543461,-0.29913402,-0.049459435,0.021512782,-0.07051746,-0.24956587,0.07299674,-0.64108396,-0.04120743,0.054668635,-0.1657524,-0.1190782,-0.08625829,0.2604035,-0.023870585,0.09162683,-0.29997596,-0.01253897,0.020300744,-0.025530212,-0.033817116,0.11104858,0.17816986,0.16052033,-0.29616204,0.15696518,-0.015457466,0.04642839,0.05705359,0.15467015,0.104091406,-0.119549826,-0.14919789,-0.002245189,0.27086592,-0.33574378,-0.021607442,-0.122880585,-0.002504111,-0.0011850967,0.060980376,-0.088794984,-0.2955336,0.026676657,-0.14270444,-0.115691975,-0.093676455,-0.041319553,0.14873187,-0.1291915,-0.103749946,0.06390336,-0.37721142,-0.017511252,-0.063331015,0.07584983,0.046256814,0.065531656,-0.09335949,0.06991549,0.58231735,0.11430346,0.13304216,-0.28327388,-0.25096935,-0.014355676,0.018288705,-0.14212482,0.034673087,-0.25218976,-0.18785036,0.02169511,-0.039120197,0.04454586,-0.18644923,0.25262442,-0.095397726,-0.20126265,-0.029136451,0.09286034,0.21798114,-0.5189249,0.069036715,-0.022228973,-0.1605807,-0.102467835,0.00082934444,-0.008607552,0.07800177,0.17009783,0.008276368,-11.40974,0.08961683,-0.09895587,-0.016107086,-0.12373343,0.118151404,-0.020738974,-0.03306022,-0.039511923,0.059571788,-0.028383305,-0.060963154,-0.44411644,-0.059650216,-1.3857096,-0.13586183,0.06379148,0.05913355,0.22805932,-0.039534003,-0.024132868,-0.003440777,-0.0846963,-0.030517884,-0.3136582,0.27553254,0.118454926,-0.28574145,0.021878667,-0.15752551,0.13253552,0.055119663,-0.11047918,0.21455127,-0.21975675,0.0016829898,-0.046153452,-0.19792724,-0.029336268,0.0383547,0.19506562,0.05683491,-0.03345536,0.035849944,0.06957021,-0.21365191,0.07565879,0.093078166,-0.11772615,0.69038934,-0.061704833,0.020668285,0.030925168,-0.057522133,-0.11792812,-0.0035963503,-0.067376904,0.23813836,-0.06409218,-0.1288122,-0.094240256,-0.04030518,-0.14766817,0.2255051,-0.09823415,5.3035626,0.104455166,-0.4431445,-0.12622198,0.14101163,0.000674661,0.5897389,-0.083105125,-0.022556117,-0.0587636,-0.0170983,0.03986835,0.057318725,0.0522389,-0.14373408,-0.017996943,-0.012615847,0.13694604,-0.22247009,-0.046114206,0.99696743,0.12561767,1.1482303,0.13047951,0.07252398,0.29695523,-0.031668898,0.05786977,0.10401558,-0.0196163,0.18149345,6.8091074e-05,-0.34576675,-0.02335289,-0.15490945,0.21077132,-0.21198726,0.4937046,-0.03819822,-0.09845475,0.20098534,-0.07759781,0.24260467,-0.02833657,-0.040341467,0.008938484,-0.19049576,0.21449931,-0.1653453,-0.01995034,0.1400145,-0.029779302,0.17018472,-0.14279373,-0.14983657,-0.07879796,-0.22164257,0.13452713,0.055334426,-0.08017887,-0.017578885,-0.028916756,-0.072114915,0.056275986,0.17092319,-0.08571346,0.09510675,-0.034595277,0.05836924,-0.19298688,-0.038679093,0.098159544,-0.10078711,0.07694001,0.20173523,0.08664271,0.06931952,-0.12952976,0.16897173,0.015496136,-0.048644606,0.096144736,-0.10885567,-0.049924158,-0.14707766,0.03858733,0.17035365,0.06660523,0.23976277,0.038917117,0.021710543,-0.12061509,-0.05203664,-0.20560944,0.005535001,-0.03826911,0.038302343,-0.13337414,0.019668728,-0.08060143,-0.15152901,-0.06176211,0.01551474,0.10538688,0.067516714,-0.14581242,0.0972588,0.109230064,-0.110089414,-0.053246114,-0.06913184,-0.0721548,1.1521657e-05,-0.01635756,0.07243213,-0.095850065,-0.06682361,0.07448383,0.2056914,-0.05231491,0.08863472,0.04598517,-0.1798446,0.086972184
audio_11.wav,-0.0006902657,-0.039783746,-0.06791823,0.19551751,-0.084065266,0.101366475,0.14213352,-0.04050103,0.44093165,0.10832056,-0.14695282,0.080696225,-0.052851226,-0.19465439,0.14140657,0.12523435,0.19688542,0.18813436,0.003284385,-0.040375914,0.14712198,-0.055959255,0.07689039,0.27764502,0.06808586,0.09973073,-0.039149236,0.05949683,0.020440796,-0.22923976,0.12242909,-0.14958346,-0.00013252004,-0.007488209,-0.03988268,-0.063244395,0.19730377,-0.0043315697,-0.05571874,-0.067018256,0.1262805,0.08669835,0.08548149,0.12493065,0.17571698,0.084601946,0.10389328,0.04189797,0.036133688,0.12700891,0.04818783,-0.011529408,0.044230275,-0.0023658383,0.041328568,0.102528565,-0.03432121,0.019351905,0.10169988,-0.087968305,0.026465015,0.21220636,-0.10000232,0.036620498,-0.057246663,0.13140233,0.024489732,0.033434533,-0.008838584,-0.34740323,0.076636754,-0.047831193,-0.20054615,0.060520146,-0.013253299,0.05461678,0.0056586284,0.03789416,-0.19579373,-0.08685494,-0.32541525,0.007247165,-0.06910516,-0.046529237,-0.04891103,0.10082137,-0.32337087,-0.11989546,-0.035332773,0.094379075,-0.30371386,-0.22978394,-0.10923765,-0.03556586,-0.05063623,0.028930277,-0.044654336,-0.024118355,-0.09315474,-0.013378836,-0.05499942,0.08660338,0.0475433,-0.059141643,0.07147041,0.015015619,-0.10130895,-0.046125367,0.09885678,-0.13428707,0.027024588,-0.13367668,-0.09887136,-0.8760931,-0.09972271,0.108263955,-0.023343408,0.016768113,0.07202375,-0.0016137898,0.15417747,-0.14144346,0.010276194,-0.03231965,0.033198904,-0.23936905,-0.039660096,0.14054193,0.06391684,-0.18715681,-0.060606997,-0.08401764,-0.051744502,-0.1309046,0.07933841,0.06434472,-0.2900013,-0.056643065,0.03178,0.0123621365,-0.41122347,0.1063428,-0.024585918,0.21629648,0.018403107,-0.32458517,0.014766638,-0.03747287,0.07532207,-0.17686236,0.059712507,-0.014995903,0.021252997,0.461985,0.00024677214,0.073875986,-0.767409,0.08721194,-0.03949704,-0.0394487,0.058790762,-0.04187064,0.00863722,0.07972395,-0.10809713,0.07393767,0.075388,0.0017867743,-0.25911894,-0.14031091,0.10997404,-0.19334492,-0.16841918,-0.046308294,0.021799505,-0.017749023,-0.08860461,0.009488235,0.09594988,0.053645305,-0.073913015,0.06744372,0.053178556,0.043543488,0.08840725,-0.18171592,-0.10342238,0.056790415,0.08197409,-0.06511441,0.17156112,-0.23526579,0.03426461,-0.20967667,-0.21207385,-0.06858858,0.023338215,0.11076843,0.005404375,-0.17396611,-0.18175517,0.104274005,0.01768542,-0.7126855,0.0019672215,0.07344872,0.36009327,-0.04131845,0.033454105,-0.018389245,-0.1437,-0.01918254,0.077628836,-0.33616364,0.18847394,-0.07578564,-0.12887453,-0.0053273644,0.014309599,0.09608716,0.042157903,-0.018408315,0.012263903,-0.07544268,0.11230705,0.08751402,0.21533516,-0.13280724,-0.6968616,-0.04604677,0.14892049,0.14829765,-0.08131697,-0.12209827,0.055873748,-0.060940336,-0.19666101,-0.1066403,0.04431971,-0.6988242,0.15136246,0.117309704,0.021480804,-0.095873095,0.15023942,0.012155272,-0.049045704,-0.0051257885,-0.096878685,-0.14194672,0.07930985,-0.053794768,-0.048073597,-0.13820942,0.13595931,0.05350645,-0.12637904,-0.19651774,-0.111211464,0.05390068,-0.01220031,-0.035486672,-0.10493165,0.14384557,-0.13624702,0.022541946,0.088774905,-0.079141624,0.05056958,-0.3471949,-0.12284258,0.027400795,-0.0655447,0.0010220797,-0.23248972,0.03835897,-0.13793966,-0.09842947,-0.16753198,0.010362638,-0.012094561,-0.11664138,-0.1512282,0.13928851,-0.24741621,0.031837877,-0.12937374,-0.08404434,-0.10735191,0.04894282,-0.064483106,0.15556413,0.2105483,0.12040713,-0.09091713,-0.023538686,-0.14832935,-0.03450182,0.05625797,-0.13688388,0.018833928,0.00958676,0.0067026177,0.123880826,0.010286358,-0.111223705,-0.11225947,0.12154506,0.032042954,-0.1343311,-0.15114182,0.088546775,0.15803069,-0.003901352,0.05728143,-0.03137724,-0.23667336,0.018069537,-0.093693286,0.02219461,-0.004215823,-0.078678176,-0.010059109,-10.0664625,0.12122534,0.03869959,0.041713595,-0.12349011,0.05512031,-0.0718642,-0.0015829582,0.052748628,-0.023570564,-0.051033255,-0.006023832,-0.28575644,-0.017385762,-1.8678727,-0.14998893,-0.07211618,0.026431836,0.06082528,-0.18491611,-0.033509996,0.14000444,-0.05965738,0.08123865,0.08169369,-0.12614204,0.1541241,0.011061252,-0.036343243,-0.172939,-0.07321489,-0.0393441,0.03284738,0.22955179,-0.075470924,-0.15928924,-0.064575404,-0.097460896,-0.0675243,-0.027530808,0.12622109,-0.1972338,-0.064098775,-0.09497365,0.13582224,0.33591047,0.062879354,0.21020691,-0.15479274,0.6976463,0.08355113,0.019912487,0.19923948,-0.14714801,-0.117169596,0.20666085,-0.04714101,-0.36149967,-0.22176495,0.018606992,-0.09916748,-0.047655497,-0.071530424,0.30302176,-0.11879416,5.474503,0.0034780488,0.067858584,-0.05321643,0.11294433,0.15594205,-0.22955418,-0.10824889,-0.07914498,-0.27729765,-0.11606412,-0.055375006,0.06748537,-0.029945256,-0.21203949,-0.1432423,0.10846571,-0.20880896,-0.16099985,0.14463656,0.8748956,0.116311826,1.3016534,-0.053115793,0.1203431,0.0846809,-0.12284815,0.10114854,-0.0037056007,0.015517911,0.024901468,-0.08135833,-0.21525826,-0.05985626,-0.06864344,-0.19758385,-0.05178447,0.2880609,-0.08579296,-0.11697399,-0.006051128,-0.029990321,-0.08925743,0.07622955,0.14587675,-0.042557698,0.016757317,0.14308347,0.048171446,-0.09699998,0.01471079,0.054449677,0.024412818,-0.10819108,-0.19431199,-0.10243215,-0.04812523,-0.0068516755,0.07834464,-0.20658402,-0.06948731,0.07887012,0.09380961,0.18323283,0.07738394,-0.22074874,0.060100798,-0.043239187,-0.0718274,-0.15842828,-0.05762773,0.09578209,-0.1200155,-0.22043076,0.006408237,0.091204315,-0.019087458,-0.028748972,0.053039555,0.12569016,0.097380616,0.05935655,-0.067330286,0.0820012,-0.051013436,0.13527562,-0.08278812,0.0091895005,-0.22731192,0.015205651,0.0026415142,-0.21829791,-0.03443071,0.07501542,-0.048214868,0.084530964,0.278434,-0.021586789,-0.38950846,0.005108207,-0.14222205,-0.00015130106,0.068532184,0.10297013,0.075451285,-0.17425887,0.14057581,0.025989706,0.10883266,0.112245485,-0.17145078,0.059943404,-0.115429506,-0.16891211,0.04820815,-0.039197978,-0.018698746,-0.06605772,0.23185892,0.05482927,0.07624584,-0.06958833,0.0035654707,-0.05144923
