filename,e0,e1,e2,e3,e4,e5,e6,e7,e8,e9,e10,e11,e12,e13,e14,e15,e16,e17,e18,e19,e20,e21,e22,e23,e24,e25,e26,e27,e28,e29,e30,e31,e32,e33,e34,e35,e36,e37,e38,e39,e40,e41,e42,e43,e44,e45,e46,e47,e48,e49,e50,e51,e52,e53,e54,e55,e56,e57,e58,e59,e60,e61,e62,e63,e64,e65,e66,e67,e68,e69,e70,e71,e72,e73,e74,e75,e76,e77,e78,e79,e80,e81,e82,e83,e84,e85,e86,e87,e88,e89,e90,e91,e92,e93,e94,e95,e96,e97,e98,e99,e100,e101,e102,e103,e104,e105,e106,e107,e108,e109,e110,e111,e112,e113,e114,e115,e116,e117,e118,e119,e120,e121,e122,e123,e124,e125,e126,e127,e128,e129,e130,e131,e132,e133,e134,e135,e136,e137,e138,e139,e140,e141,e142,e143,e144,e145,e146,e147,e148,e149,e150,e151,e152,e153,e154,e155,e156,e157,e158,e159,e160,e161,e162,e163,e164,e165,e166,e167,e168,e169,e170,e171,e172,e173,e174,e175,e176,e177,e178,e179,e180,e181,e182,e183,e184,e185,e186,e187,e188,e189,e190,e191,e192,e193,e194,e195,e196,e197,e198,e199,e200,e201,e202,e203,e204,e205,e206,e207,e208,e209,e210,e211,e212,e213,e214,e215,e216,e217,e218,e219,e220,e221,e222,e223,e224,e225,e226,e227,e228,e229,e230,e231,e232,e233,e234,e235,e236,e237,e238,e239,e240,e241,e242,e243,e244,e245,e246,e247,e248,e249,e250,e251,e252,e253,e254,e255,e256,e257,e258,e259,e260,e261,e262,e263,e264,e265,e266,e267,e268,e269,e270,e271,e272,e273,e274,e275,e276,e277,e278,e279,e280,e281,e282,e283,e284,e285,e286,e287,e288,e289,e290,e291,e292,e293,e294,e295,e296,e297,e298,e299,e300,e301,e302,e303,e304,e305,e306,e307,e308,e309,e310,e311,e312,e313,e314,e315,e316,e317,e318,e319,e320,e321,e322,e323,e324,e325,e326,e327,e328,e329,e330,e331,e332,e333,e334,e335,e336,e337,e338,e339,e340,e341,e342,e343,e344,e345,e346,e347,e348,e349,e350,e351,e352,e353,e354,e355,e356,e357,e358,e359,e360,e361,e362,e363,e364,e365,e366,e367,e368,e369,e370,e371,e372,e373,e374,e375,e376,e377,e378,e379,e380,e381,e382,e383,e384,e385,e386,e387,e388,e389,e390,e391,e392,e393,e394,e395,e396,e397,e398,e399,e400,e401,e402,e403,e404,e405,e406,e407,e408,e409,e410,e411,e412,e413,e414,e415,e416,e417,e418,e419,e420,e421,e422,e423,e424,e425,e426,e427,e428,e429,e430,e431,e432,e433,e434,e435,e436,e437,e438,e439,e440,e441,e442,e443,e444,e445,e446,e447,e448,e449,e450,e451,e452,e453,e454,e455,e456,e457,e458,e459,e460,e461,e462,e463,e464,e465,e466,e467,e468,e469,e470,e471,e472,e473,e474,e475,e476,e477,e478,e479,e480,e481,e482,e483,e484,e485,e486,e487,e488,e489,e490,e491,e492,e493,e494,e495,e496,e497,e498,e499,e500,e501,e502,e503,e504,e505,e506,e507,e508,e509,e510,e511,e512,e513,e514,e515,e516,e517,e518,e519,e520,e521,e522,e523,e524,e525,e526,e527,e528,e529,e530,e531,e532,e533,e534,e535,e536,e537,e538,e539,e540,e541,e542,e543,e544,e545,e546,e547,e548,e549,e550,e551,e552,e553,e554,e555,e556,e557,e558,e559,e560,e561,e562,e563,e564,e565,e566,e567,e568,e569,e570,e571,e572,e573,e574,e575,e576,e577,e578,e579,e580,e581,e582,e583,e584,e585,e586,e587,e588,e589,e590,e591,e592,e593,e594,e595,e596,e597,e598,e599,e600,e601,e602,e603,e604,e605,e606,e607,e608,e609,e610,e611,e612,e613,e614,e615,e616,e617,e618,e619,e620,e621,e622,e623,e624,e625,e626,e627,e628,e629,e630,e631,e632,e633,e634,e635,e636,e637,e638,e639,e640,e641,e642,e643,e644,e645,e646,e647,e648,e649,e650,e651,e652,e653,e654,e655,e656,e657,e658,e659,e660,e661,e662,e663,e664,e665,e666,e667,e668,e669,e670,e671,e672,e673,e674,e675,e676,e677,e678,e679,e680,e681,e682,e683,e684,e685,e686,e687,e688,e689,e690,e691,e692,e693,e694,e695,e696,e697,e698,e699,e700,e701,e702,e703,e704,e705,e706,e707,e708,e709,e710,e711,e712,e713,e714,e715,e716,e717,e718,e719,e720,e721,e722,e723,e724,e725,e726,e727,e728,e729,e730,e731,e732,e733,e734,e735,e736,e737,e738,e739,e740,e741,e742,e743,e744,e745,e746,e747,e748,e749,e750,e751,e752,e753,e754,e755,e756,e757,e758,e759,e760,e761,e762,e763,e764,e765,e766,e767,e768,e769,e770,e771,e772,e773,e774,e775,e776,e777,e778,e779,e780,e781,e782,e783,e784,e785,e786,e787,e788,e789,e790,e791,e792,e793,e794,e795,e796,e797,e798,e799,e800,e801,e802,e803,e804,e805,e806,e807,e808,e809,e810,e811,e812,e813,e814,e815,e816,e817,e818,e819,e820,e821,e822,e823,e824,e825,e826,e827,e828,e829,e830,e831,e832,e833,e834,e835,e836,e837,e838,e839,e840,e841,e842,e843,e844,e845,e846,e847,e848,e849,e850,e851,e852,e853,e854,e855,e856,e857,e858,e859,e860,e861,e862,e863,e864,e865,e866,e867,e868,e869,e870,e871,e872,e873,e874,e875,e876,e877,e878,e879,e880,e881,e882,e883,e884,e885,e886,e887,e888,e889,e890,e891,e892,e893,e894,e895,e896,e897,e898,e899,e900,e901,e902,e903,e904,e905,e906,e907,e908,e909,e910,e911,e912,e913,e914,e915,e916,e917,e918,e919,e920,e921,e922,e923,e924,e925,e926,e927,e928,e929,e930,e931,e932,e933,e934,e935,e936,e937,e938,e939,e940,e941,e942,e943,e944,e945,e946,e947,e948,e949,e950,e951,e952,e953,e954,e955,e956,e957,e958,e959,e960,e961,e962,e963,e964,e965,e966,e967,e968,e969,e970,e971,e972,e973,e974,e975,e976,e977,e978,e979,e980,e981,e982,e983,e984,e985,e986,e987,e988,e989,e990,e991,e992,e993,e994,e995,e996,e997,e998,e999,e1000,e1001,e1002,e1003,e1004,e1005,e1006,e1007,e1008,e1009,e1010,e1011,e1012,e1013,e1014,e1015,e1016,e1017,e1018,e1019,e1020,e1021,e1022,e1023
audio_1,0.22494665,-0.40584752,0.5733396,-0.4070653,0.052721977,-0.11357979,-0.011056651,0.003411487,0.022138916,0.04253039,-0.2801947,0.574512,-0.5281292,0.18748459,-0.26948175,0.321294,0.64961535,-0.06958619,-0.020032316,0.21422295,-0.13034333,0.22547165,0.1933102,0.24449138,0.12788908,0.13267463,0.042211484,-0.36157563,-0.05272127,-0.005067781,0.19172558,-0.02517975,0.13384686,0.16094957,-0.30960834,0.7332136,0.1702151,0.39424777,-0.2604095,0.6570855,0.6149734,0.10253792,0.41373372,-0.20958157,0.35154817,0.68664557,1.172077,-0.008481539,-0.7164544,-0.058123365,0.17800052,0.03472079,-0.16577905,-0.43832728,0.26662734,0.24120317,-0.2887303,0.1516596,-0.17508166,-0.15766284,-0.279589,0.022899024,-0.2531014,0.13166131,0.1129308,0.17424713,1.6981393,-0.169781,-0.123427086,-0.11117971,-0.017233087,-0.05733275,0.06660521,0.35959968,-0.022688145,0.05576354,0.49623492,0.21482435,0.53348094,0.023877991,-0.27222353,0.088570505,-0.27110836,-0.16113652,0.52244645,-0.30884194,0.8315613,0.009022042,-0.06610867,-0.62076,-0.2887815,0.11495781,0.52945143,-0.41479838,0.39981225,-0.4085553,0.042796426,0.3529926,-0.016352592,0.24437383,0.30774978,-0.22101748,-0.4978006,0.022134338,-0.38978872,-0.36269706,-0.026471805,0.076981984,-0.06779834,0.045358207,-0.09591716,0.9474141,0.13243616,-0.028896173,0.11980826,-0.5825442,-0.33857268,0.55197364,0.20781384,-0.6122347,0.2721828,-1.225381,0.25620562,0.021830423,-0.08050508,0.08090089,-0.04734625,-0.68603134,-0.5672397,-0.13977855,0.21533416,0.15769143,0.052318543,0.19541967,-0.052121066,0.027564768,0.09273363,0.04353079,0.58792454,0.18965212,0.26583168,0.04318695,0.38540003,0.04022269,-0.021882739,-0.14142376,0.01986383,0.22259079,-0.22638912,-0.24653034,-0.16226311,-0.07637428,0.23985325,-0.60996157,-0.28043544,-0.22024234,0.08901832,0.27141523,0.30913827,0.010928599,-0.42881495,0.081237376,-0.00016843465,0.11506118,-0.2301433,-0.18315943,0.060978144,0.34360322,0.9117967,-0.5840984,-0.21066397,0.36360696,-0.16056135,0.09596128,-0.3474339,0.47407442,-0.009775641,0.07625703,-0.04933766,0.2281649,0.60768133,0.22095029,-0.880692,0.032652725,0.501306,-0.07630021,-0.18001744,-0.137076,0.54010624,0.0017748121,-0.34848443,-0.28237256,-0.11780714,-0.23667145,-0.37544942,-0.53701603,0.14489526,0.28779796,-0.15051799,0.2182337,0.14676605,0.13041861,-0.09734181,-0.078199945,-0.22283177,-0.27388433,-0.5808374,-2.0897155,0.017427983,0.26165503,-0.16067328,0.32457238,0.6096114,-0.007522874,-0.0640988,0.02644563,0.14620525,0.068458654,0.3899763,0.096139885,0.22732978,-0.24376562,0.0010838018,0.2806546,-0.32380182,0.027035689,-0.26628184,0.2198641,0.53815603,0.21072133,0.31120422,-0.05814262,0.41011694,0.11257958,-0.44463736,0.16074216,-0.07233164,-0.03538429,0.053111423,0.5161338,0.34340844,-0.00032165495,0.0052353707,-0.15111229,-0.22412227,-0.13162215,0.48859704,-0.4383128,0.30665356,-0.7224379,0.406981,-0.07822665,0.09977216,0.48704216,-0.15469526,-0.1772343,0.007927848,-0.15217751,0.14411785,-0.1992911,0.13281862,-0.48348334,-0.14069551,0.15027292,-0.786837,-0.2589875,0.30674034,-0.6833865,0.033728052,-0.10243658,0.45106837,-0.6727899,-0.78172946,0.20539132,-0.02288927,0.11321503,-0.09853348,-0.45758986,-0.3448844,-0.37633535,0.18638675,0.13474746,-0.103363596,0.02794448,0.12974696,0.21944398,0.551325,-0.4491727,0.54218614,0.032221258,0.16922237,0.11212564,-1.4762985,0.13552445,-0.09271744,-0.36489442,-0.14509298,-0.035377372,-0.36128116,-0.30222574,-0.49140042,0.36336368,-0.43716237,0.21139444,0.04312869,0.33964714,0.27614018,0.45109797,0.17127329,0.22170182,0.1189885,0.31927162,0.6657481,0.72823185,0.06074566,0.09434681,-0.48088112,0.107388474,-0.25479418,-0.34808424,-0.18799876,-0.20442665,0.23100623,0.2655691,-0.21835467,0.014361058,-0.11506835,-0.25957635,0.4829599,0.2809284,0.2690597,-0.22907373,0.12160934,0.5068911,0.19382237,0.050674018,0.43389887,-0.042752825,-0.04684109,0.06969354,0.40073237,-0.18298528,-0.018535266,-0.19154137,-0.27633104,0.09052694,-0.2687169,-0.29546654,-0.14165351,-0.38962418,-0.17333771,0.018759249,-0.61808383,0.14416623,-0.16482148,-0.39120454,0.3856496,-0.60871303,0.15025291,-0.089226365,0.28491512,0.07488882,0.5290338,-0.32217735,0.24756466,0.17570867,0.2570529,-0.10197204,-0.22729217,-0.03303008,-0.24670753,-0.15760867,0.04507494,0.22551624,-0.13483831,0.02452558,0.5029559,0.38238448,0.6340783,0.18764831,0.15612298,-0.2281989,0.43809968,0.29282302,0.22314866,-0.4023431,0.06754946,-0.19077362,0.5006182,0.13810305,-0.36506376,-0.10798644,-0.057417836,0.100873314,-0.31085137,0.23035721,-0.354449,-0.246082,-0.0035554247,-0.27546924,0.14976329,0.29593468,0.186295,0.40901706,-0.43333676,-0.08498155,-0.1476684,0.227527,0.121702746,0.17411552,-0.4988799,0.2512375,0.10755602,0.011761002,-0.25381067,-0.022543713,-0.2518084,0.51538795,0.9350287,0.10883167,0.07567288,-0.38281715,-0.07821325,-0.03002493,0.1688252,0.3795642,-0.009835276,-0.10166949,0.0031199818,0.0019292715,-0.044481248,-0.28238153,0.39669347,-0.1991769,0.3334419,0.119010665,-0.20856608,0.18861252,-0.21406199,-0.03323096,0.3331826,0.35860813,-0.012950756,-0.550991,-0.18635637,-0.06466361,-0.32884276,-0.1836805,0.10581846,0.076014504,0.91259944,0.028060142,-0.029779239,-0.13908221,0.1446034,-0.07747853,-0.27904013,-0.25320742,0.54261214,-0.13588087,-0.2086222,-0.2626315,0.0067656096,0.09256934,-0.24170826,-0.5954825,0.050975263,0.5508695,0.024500031,0.25213233,-0.53169423,0.80086726,-0.24157219,-0.29401958,0.5410525,0.20101133,-0.21812251,-0.16647683,0.17150828,0.33771035,-0.055779546,0.21578482,-0.2199388,-0.45909363,0.39168924,-0.37280422,-0.09848341,0.10455648,-0.25863406,0.032424632,-6.764622e-05,-0.22126247,-0.56076616,-0.33245665,-0.29486412,-0.14742202,0.42852157,-0.1329082,-0.14179721,-0.19123113,0.10275839,0.074850105,-0.15254572,-0.01879343,0.0029851855,-0.57951003,0.2386076,0.07449277,-0.23238787,-0.062474985,0.0031359813,7.157666,0.096243806,-0.34021887,0.2269014,-0.041639965,-0.059585966,0.7488457,-0.31575227,0.35196504,-0.02878633,-0.23664384,-0.4591995,0.16184777,0.1002225,0.19378555,-0.3710505,-0.41787228,-0.08373108,-0.273642,0.07706033,0.4064548,0.005806714,-0.24651928,0.18578906,-0.19376877,-0.47724366,-0.18073785,-0.23025803,-0.25700986,0.20698285,-0.32358015,0.35584986,-0.2775336,0.14497806,-0.00614001,0.0326512,-0.23812465,0.34123296,0.24068652,-0.13881713,0.33943903,-0.38368988,0.3020008,-0.086645074,0.18947585,-1.0303736,0.2250279,-0.10262642,0.036643174,-0.35865363,0.3038272,0.32821286,0.25832483,-0.082819246,0.3283254,-0.08783502,0.07157507,0.2597563,0.28425536,0.33525229,-0.1041418,-0.056910183,-0.36784554,-0.44166118,0.39547613,-0.64420754,0.37620646,-0.25645643,0.3818111,-0.044307567,0.016889408,-0.3318339,0.080376856,0.12310935,0.02895049,0.061660945,-0.36958253,0.6906202,-0.1119425,0.1713528,0.086633176,0.14440812,-0.3550155,0.23760325,0.08842161,0.33896437,0.41629243,0.24892986,0.34439933,-0.16411936,1.0218942,0.42408913,0.17590128,0.13806841,-0.31403822,-0.091312796,-0.41939119,-0.0151552865,-0.12031348,-0.14435983,0.0088837305,0.357044,0.0720975,0.53797823,0.3660451,-0.6026548,-0.22869694,0.6117291,-0.062339123,0.12894112,0.26710135,-0.1763356,-0.06351337,-0.15926208,-3.2462678,-0.39642903,-0.04846779,0.19212033,-0.05413994,0.10508432,0.11888597,0.2600734,-0.4819703,0.33100328,-0.25449637,0.24783552,0.080519184,-0.3451295,0.42140383,0.30348405,-0.50153357,1.3906943,0.16987687,0.15495892,1.3759046,0.03933345,-0.6292999,-0.07465342,0.27601853,0.2704678,-0.23450755,0.09411821,-0.060686514,-0.15564847,0.17600715,-0.22856008,0.35882074,0.12596191,0.19559604,-0.08916616,0.5426972,-0.15387593,0.06894659,-0.13593657,0.12108472,0.49859968,0.25860026,-0.14362255,0.25127462,0.09656022,0.78134215,-0.33579984,-0.08499005,-0.2264317,0.6597407,-0.7903272,-0.07359632,0.15807767,0.05561873,-0.4065356,0.35441133,-0.35711643,-0.7265134,-0.026327165,-0.32833025,-0.0522127,-0.22784048,0.21392083,0.1848067,-0.36633468,-0.13589148,0.39046988,0.008411015,0.003953793,0.4267249,-0.14170215,-0.6633998,0.27719057,-0.17723623,0.119755305,0.20767522,0.2983782,0.3057296,-1.0111506,0.090458445,-0.40987733,-0.21427378,-0.8343796,-0.23080043,0.29589903,0.12561,-0.6007686,-0.22450012,0.0352301,-3.0191371,0.28444186,-0.55614424,-0.16231091,-0.09387672,0.43643534,0.0058460864,0.5111605,0.09596399,-0.19587287,-0.058999833,-0.46465123,0.5042482,-0.18861233,-0.066467606,0.19571243,0.08304331,-0.43272322,-0.050881438,0.17498653,-0.09165856,0.23614676,0.29282114,0.006605098,0.21983802,0.075494975,4.4962707,-0.04891783,-0.6101094,-0.07734727,0.116300985,-0.26132438,-2.8306065,-0.3332629,0.09744398,-0.25484926,0.22431368,0.3442438,-0.45006987,-0.03556111,0.13928598,0.26127556,-0.41094652,-0.06631323,0.23072019,0.08507356,0.33835676,-0.013493419,0.20974085,0.052208047,-0.19768675,0.3329573,-0.12724136,-0.12023929,0.43361786,0.13788326,1.0716766,-0.035464004,0.089731574,0.019833002,0.03783111,1.2576793,-0.2406895,0.62485296,-0.42113832,0.19920126,0.13499247,0.0072146817,0.24339505,-0.14392984,-0.23300335,-0.5561046,-0.1719095,-0.8783908,-0.4560848,0.09550157,-0.0948148,-0.20177428,0.2610695,0.13597618,0.24735183,0.25085625,0.16958137,0.15348935,-0.45465416,0.18759799,-0.43975127,0.14137648,0.50230783,-0.5314493,-0.25403664,-0.2746818,-0.4158006,-0.2952343,0.26211,0.21513335,0.435468,-0.27993408,0.22601733,-0.22156581,-0.24733016,0.33940953,0.1886126,-0.3305625,0.24519423,0.172993,0.104982175,-0.22480793,0.0033228497,-21.371181,0.26914194,-0.029454436,-0.27070677,-0.387489,0.028408626,0.57383025,0.24957842,-0.38438785,-0.10597145,-0.32017368,0.18776366,0.24957691,0.4293248,0.31004512,0.46190542,-0.39809644,0.023309756,0.039442137,0.2347231,0.14710362,0.73714876,0.214197,-0.142899,-0.0013361129,0.44688407,0.24598739,-0.17774059,0.3814943,0.41002753,-0.077404186,-0.43636566,-0.0034892852,-0.03318048,0.367872,0.019770483,-0.6189186,0.5019383,0.30561703,0.3646773,-0.25446978,-0.21579328,-0.0156671,-0.13219619,-0.023287958,0.07193748,-0.083140746,-0.17994383,0.26428875,-0.053698212,0.02419346,-0.036931127,-0.14486633,0.03501134,-0.00044158657,0.38587067,0.63791865,-0.22497146,-0.20774466,-0.03180515,0.45748848,0.2022775,-0.1383228,-0.3944116,-0.07438556,-0.26855192,-0.03232447,-0.01532493,0.4873413,0.45932359,-0.0426552,-0.33547524,0.03439449,-0.07931425,-0.072686695,-0.16386983,-0.23448771,0.21312277,-0.13344792,-0.005383623,0.2544049,-0.00066539797,-0.5225862,0.21476409,0.58272386,-0.008855431,-0.09233927,-0.34372225,0.42554855,-0.094031036,0.21155064,-0.33760065,0.3089505,-0.12735693,0.18960361,-0.62842005,0.5192962,0.20325802,0.17172009,0.37515792,0.51408714,0.009068238,0.026894018,-0.05051409,-0.08388388,0.37674195,0.056035403,-0.38165444,-0.09936303,-0.1911458,0.18616848,-0.02933649,-0.09942406,0.1222481,-0.108845726,0.15958214,0.02294057,-0.016651075,-0.26271152,0.24445036,-0.28132558,-0.35164148,-0.38320586,0.41606072,0.45150417,-0.6406312,0.2965181,0.57049716,0.49826872,0.13917552,0.17126466,0.031601794,-0.022839954,0.053359877,-0.6013656,-0.14826058,0.25193968,0.24713367,0.435854,0.029822042,-0.4088207,-0.2373915,0.06496114,-0.043745246,0.36218584,-0.66972625,0.45620695,0.2843844,0.15083277,-0.24912818,0.14420734,0.72187024,-0.023501478,0.08717021,-0.0784811,-0.28366232,0.12537386,0.11040309,-0.16300066,1.536559,-0.31789896,0.4237003,0.43598688,-0.4669113,0.101474196,-0.12847818,0.34256253,0.3701535,-0.26310945,0.20259772,0.08796892,0.25608647,-0.3062246,0.0697543,-0.08505498,-0.4221883,-0.35027605,0.19038427,0.39090425,-0.044834435,0.16451727,0.3539696,-0.24812463,-0.0333266,0.27578652,-0.49558347,0.0942319,0.058730733,-0.02604129,-0.0066701216,-0.3086984,-0.1841773,-0.0052911793,0.22123922,0.04681826,-0.14709985,-0.06886095,0.028528318,-0.36611584,0.035094935
audio_10,0.09847666,-0.2454174,0.52497107,-0.22128423,0.0037483228,0.163754,-0.007403113,-0.05989897,-0.021319717,-0.08000143,-0.26581162,0.33442807,-1.000102,-0.01630949,-0.1847658,0.39436367,0.72305703,-0.18031748,0.01617984,0.43724248,-0.12798068,0.3720165,0.41280228,0.21465577,0.14583571,0.21593823,-0.23597482,-0.31427842,-0.07573889,0.022358242,0.2654093,0.1841014,0.28322282,-0.05627129,-0.4514145,0.528911,0.36794862,0.15138334,-0.20068641,0.7751899,0.34379336,0.035790514,0.41828826,-0.35202044,0.34052515,0.6664806,0.97492313,-0.025971068,-0.7687502,-0.32671714,0.24227394,-0.012417449,0.013766542,-0.40849653,0.15152231,0.09306439,-0.3735416,-0.02564666,0.009234686,-0.21528867,-0.31597003,0.19045904,-0.0619428,-0.11190797,-0.008267824,0.22019581,1.5977582,-0.077223144,-0.19518858,0.11290683,0.067289405,-0.029992308,-0.061217003,0.4611734,0.03887684,0.020784259,0.36803618,0.17841704,0.3466426,0.21768513,-0.19953622,-0.06675929,-0.6168859,0.008896065,0.47141528,-0.36860073,0.46172804,-0.07015113,0.13139075,-0.24778612,-0.41610634,-0.038449824,0.7638282,-0.40250507,0.57369137,-0.66865724,0.16885646,0.31824747,-0.13653922,0.2533891,0.26966354,-0.37890092,-0.42632812,-0.040009286,-0.21444103,-0.2497011,-0.1178432,-0.35130873,0.088538,0.18944731,-0.2885656,0.86966425,-0.00202375,-0.32456952,0.2999973,-0.6348982,-0.38148084,0.662076,0.01870198,-0.48873723,0.67120296,-0.58123434,0.22869886,0.17738442,0.1547886,0.044520218,-0.012221447,-0.6515248,-0.41384006,0.23408958,0.16283208,-0.16668792,0.101459496,0.0530758,0.21242774,-0.03589449,0.022299077,-0.19501427,0.47495574,0.14206807,0.24591023,0.07207714,0.63289547,0.13317356,0.18862568,-0.26595736,0.06723578,0.19669177,-0.20539433,-0.3805029,0.065754265,0.15893084,0.19104351,-0.6447429,-0.26881608,-0.3974807,0.050527,0.38172534,0.26260287,0.1440246,-0.4009109,0.18634906,-0.028929692,0.14376378,-0.030734675,-0.22431861,0.15874842,0.23301294,0.6284474,-0.34347945,0.2428417,0.35318315,-0.16915646,-0.13526298,-0.4395836,0.29242805,0.015737949,0.021185488,-0.10181652,0.27832633,0.8525021,0.2730193,-0.78941804,-0.12889941,0.6472321,-0.08164001,-0.04439842,-0.35511702,0.35665596,0.16484053,-0.19270994,-0.04998854,-0.04279223,-0.2094196,-0.1784713,-0.3548785,0.12977102,0.027203303,0.012181878,0.35858616,0.44802976,0.28121802,0.057862747,-0.014980865,0.014428587,-0.3531296,-0.3426541,-1.7374504,0.23421891,0.14148372,0.20465797,0.24979846,0.76324177,-0.20942302,0.23048116,0.091820545,0.021229412,0.16395675,0.29621628,0.24485357,0.012494805,-0.3370088,0.1676038,0.27436545,-0.15933417,0.07806956,-0.2565496,0.23286408,0.67554474,-0.07004223,0.5094922,0.04339874,0.31762868,0.27853557,-0.75701445,0.3670354,0.15810733,-0.11252715,0.015787933,0.39668784,0.08807546,-0.22845349,0.13257474,-0.15544118,-0.15560837,-0.13830256,0.61383945,-0.297489,0.48610166,-0.9199606,0.09257607,-0.12813582,0.15863876,0.32987276,-0.5522924,0.1305815,-0.024152732,-0.0911271,-0.092480786,-0.028934076,-0.1107854,-0.43292043,0.12969717,0.18841176,-0.9436098,-0.39396363,0.24394657,-0.8241404,-0.17498657,-0.05467665,0.5057602,-0.5662523,-0.7193049,0.0835777,-0.055569712,0.0051961304,0.2823493,-0.540212,-0.33783233,-0.34202322,0.18589105,-0.04952787,-0.23184572,-0.126393,0.014188949,0.1113341,0.5138747,-0.51567656,0.48258072,0.25336087,0.23152035,0.2543336,-1.7055769,0.2208388,0.0038356239,-0.21134584,-0.05410921,-0.016865669,-0.12849687,-0.23911998,-0.3807095,0.29094565,-0.38082927,0.24404034,0.1446431,0.45936263,0.2046156,0.3842834,0.40337694,0.28665876,-0.012371553,-0.0020985298,0.43705612,0.93417794,0.2562218,-0.03702279,-0.41860953,0.4420483,-0.3022282,-0.3836163,-0.17077716,-0.13148369,0.30817592,0.2937074,0.031918604,-0.115930386,0.04688129,-0.08813325,0.3563191,0.3105262,0.24496736,-0.20484725,0.036809444,0.599414,0.13129823,0.19565798,0.40500653,-0.13763921,-0.24120893,0.12557407,0.67385125,0.13644983,-0.0341756,-0.16768329,-0.1869116,-0.13010992,-0.5513224,-0.23768811,-0.011802416,-0.23388216,0.09383034,-0.17101857,-0.8076538,0.19306962,-0.2613101,-0.13800365,0.43222257,-0.38694173,0.08105446,0.06870123,0.41181225,0.16613247,0.47863236,-0.055529606,0.2161591,0.012869528,-0.15267913,-0.014568011,-0.39745137,-0.04230056,-0.2985938,-0.33466077,0.009416467,0.21821734,-0.34784085,0.067020915,0.6554296,0.62023187,0.7359675,0.34905675,-0.10372179,-0.22390136,0.16272034,0.276964,0.18659359,-0.08733413,0.23710899,-0.37857008,0.56386924,-0.052397933,-0.019678956,-0.14314486,0.22859639,-0.2022311,-0.46234995,0.22934055,-0.6060599,-0.14713337,-0.027255349,-0.11170096,0.19100967,0.07252455,0.22907452,0.3907622,-0.22226784,-0.1605613,-0.33003393,-0.08001589,0.2060232,0.22722681,-0.5152291,0.11445874,0.10885334,0.17011276,-0.25336137,0.21049754,-0.037484016,0.6910971,0.64943695,-0.29752845,0.09509448,-0.22927928,0.03575265,-0.19040374,-0.044975806,0.43221673,-0.39498276,-0.013949601,-0.12559456,-0.013368683,-0.35097492,-0.22264451,0.21671245,-0.37978894,0.18728924,-0.05466529,-0.049003612,-0.15635255,-0.1518276,0.24879143,0.33161303,0.24219471,-0.0052687274,-0.5485721,0.020250363,-0.045702215,-0.27650207,-0.14153145,0.20121679,0.11026822,1.3019879,0.01063772,-0.12976491,0.10002335,0.21924251,-0.17680012,-0.12541991,-0.1885462,0.36808005,-0.11356534,-0.37978315,-0.07982505,-0.1598293,-0.034835473,0.003898593,-0.5643892,-0.17741486,0.38850737,0.18114944,-0.15143953,-0.38672185,0.81008875,0.15570022,-0.23842604,0.33536112,-0.052161068,-0.37128448,-0.18667912,0.27388975,0.20833978,-0.23689346,0.12373127,-0.14892341,-0.2952588,0.51092005,-0.38168162,0.18534143,0.06391994,-0.35708165,-0.041428868,-0.038270384,-0.10512512,-0.5456792,-0.38122943,-0.34622163,-0.5495894,0.506031,-0.16921808,0.012737152,-0.37031394,-0.020545932,0.21365355,0.031812724,-0.080398954,-0.050992962,-0.69912,0.089686215,0.17103703,-0.30307096,-0.25372383,-0.27885517,7.9214697,-0.18556239,-0.30209002,0.28800163,0.20120579,-0.02721867,0.55738485,-0.5214101,0.27152085,0.12607174,0.008143425,-0.3958674,0.063992806,0.35893318,-0.007184348,-0.16770023,-0.25232393,0.24884853,-0.16668922,0.07305038,0.3444258,-0.12536062,-0.42301467,0.0143226385,-0.09280561,-0.15382832,-0.1353211,-0.050020084,-0.2843681,0.157044,-0.14532718,0.38150164,-0.1816454,0.1556525,-0.20083065,-0.063727364,-0.19704722,0.80250585,-0.064328425,0.011970711,0.24735932,-0.45300612,0.043959014,0.008028226,0.21031666,-0.37951848,0.17723337,-0.018154703,0.12708345,-0.37836897,0.47686133,0.2737886,0.23270811,-0.18488371,0.29305437,-0.20444739,-0.118213005,0.3164775,-0.034856834,0.5478369,0.047637843,-0.018163482,-0.5904873,-0.187704,0.4172283,-1.0132592,0.22474153,-0.36275703,0.09553547,-0.022018965,0.052209187,-0.5679985,-0.042746052,0.25384864,0.07606103,0.1855269,-0.34480423,0.61461,-0.008494183,0.4226761,0.11811931,-0.06582963,-0.23353286,0.22402714,0.2015286,0.14232868,0.25583214,-0.072730884,0.18906146,-0.36234528,1.0162036,0.36868295,0.27272916,-0.005502199,-0.31361502,0.12396181,-0.6601044,0.00058281556,-0.26078352,-0.14228247,0.14663266,0.344885,0.40669292,0.39174178,0.15707545,-0.43576822,-0.13979919,0.4511062,-0.14687495,0.21564896,0.06054503,-0.026924891,0.09848249,-0.23255298,-2.7533798,-0.41090587,-0.05362291,0.38831848,-0.17137091,0.004249384,0.21215147,0.2093923,-0.3015558,0.28352565,-0.24585474,0.037733458,0.31465468,-0.2326704,0.68354094,0.2194784,-0.4751631,0.9502274,-0.014036764,0.42711928,1.8262926,0.14102224,-0.7427155,0.19354837,0.43633735,0.14935224,-0.06082658,0.09283623,0.0031360413,-0.31713223,0.15571079,-0.11270161,0.23591487,0.11363676,0.50614333,0.058303967,0.7523665,-0.18503736,0.32852936,-0.58074,0.2878099,-0.0020350225,0.043443043,-0.08095263,0.27888045,0.071876846,0.32010463,0.054248154,-0.22488548,-0.11014864,0.54157317,-0.21607445,0.09829228,0.117898345,0.022739977,-0.301055,0.40916324,-0.57255787,-0.6172,-0.112705424,-0.45212954,0.12105711,-0.3788946,0.013330315,-0.020353818,-0.47087198,-0.19315654,-0.14777404,-0.26998132,0.28713417,0.40883222,-0.14413035,-0.53872865,0.0025526537,-0.25958687,0.04066188,-0.044874765,0.066253476,0.2745743,-1.2040823,0.1578424,-0.47787187,-0.521533,-0.47128922,0.06291104,0.20629491,0.3385732,-1.083727,-0.047826957,0.10800874,-2.5131195,0.33762768,-0.66888744,0.107375145,-0.13191982,0.20160104,-0.17060804,0.6235837,0.25861713,-0.058196146,-0.1283646,-0.5389109,0.5657981,-0.17199059,-0.18213874,-0.07599747,0.06033004,-0.8352661,-0.25757366,-0.033367854,-0.1261664,-0.19121988,0.43774742,-0.06659748,0.446772,-0.18093356,3.7742107,0.016146464,-0.29990834,-0.109673694,0.061460886,-0.24441142,-2.413935,-0.42775998,0.19324379,-0.19328159,0.030597273,0.08503662,-0.45907164,-0.12829866,0.28316414,0.07610144,-0.42223477,-0.11145276,0.14336921,0.17366605,0.3137217,0.122894436,0.35768238,-0.017738182,-0.21844386,0.010197937,-0.16117594,-0.1196018,0.6268237,-0.038182218,1.0018573,0.16490947,0.07114096,-0.050112765,0.035342626,1.002233,-0.19373742,0.5255585,-0.3512587,-0.027398098,0.30279538,-0.25395834,-0.037301347,-0.196047,-0.35697365,-0.32655528,-0.23783281,-0.95307416,-0.1149742,0.23486324,-0.31655964,-0.21986404,0.06117595,0.20688227,0.07894896,0.2731791,0.3640725,0.21111992,-0.32139394,0.25212285,-0.50946206,0.07097401,0.33915597,-0.4994551,-0.31888378,-0.2077371,-0.47566724,-0.42802155,0.47737554,0.19889793,0.004717077,-0.30809242,0.28458893,-0.6562807,-0.077249855,0.53115404,0.1881276,-0.58699656,0.15748818,0.48084792,0.12341333,-0.15933746,0.13832383,-21.46678,0.40821218,0.028908597,-0.17282426,-0.27194804,-0.0012615654,0.54994273,0.16231817,-0.11463758,-0.0040870495,-0.5547507,-0.0071865823,0.2483519,0.56416446,0.6121132,0.83589417,-0.29668605,0.034466594,-0.1352569,0.2842296,0.056884162,1.098755,0.12766378,-0.12370594,0.025422178,0.33625126,0.066887125,-0.20879084,0.3604157,0.21389419,-0.10339498,-0.42006063,-0.17721428,-0.34680045,0.44822794,-0.10318525,-0.681686,0.6342717,0.27612743,0.26470745,-0.22173928,-0.14878157,-0.08929765,-0.036168955,0.12543917,-0.08145897,-0.17741424,-0.13983768,0.2261372,-0.100331314,-0.059544377,0.0638302,-0.16355914,0.13752803,0.11876496,0.21920219,0.54873115,0.043243777,-0.031286765,0.13416891,0.22697902,0.15544866,0.00976944,-0.46539104,-0.09264974,0.15358678,-0.19685334,-0.007907123,0.60703534,0.3453385,-0.026924435,-0.59591675,0.1823096,-0.25326577,-0.068539135,-0.36686814,0.07514834,0.22290993,0.07324467,0.17546931,0.37045398,-0.13488288,-0.41342893,0.15921357,0.61431026,0.1276143,0.06510333,-0.28662273,0.34907097,-0.083860725,0.1390724,-0.5686036,0.27041644,-0.031999532,0.021396464,-0.608211,0.21307695,0.19398186,0.20705253,0.84363914,0.2913819,0.3050546,-0.04734753,0.19700049,0.028350132,0.5492014,0.08591814,-0.09343762,-0.17365563,-0.05565407,0.35061014,-0.11230561,-0.1768717,0.20488451,0.21719751,0.24671686,-0.2837439,-0.15799727,-0.26383594,0.30487752,-0.37916616,-0.29620063,-0.22225976,0.29141033,0.48888388,-0.46769544,0.43321198,0.7331188,0.62762314,0.025195895,0.26859775,-0.032410488,-0.25828496,0.24552354,-0.85851234,-0.26488575,-0.03685805,0.083772,0.9764876,0.041549012,-0.32209578,-0.3096528,-0.11437723,0.10883638,0.3571729,-0.8194147,0.31165332,0.4105506,0.19169427,-0.46854538,0.15898755,0.59598184,-0.19127615,0.2279928,-0.031623945,-0.3751344,0.09187533,0.29029778,-0.24920242,1.3336908,-0.37685597,0.53932595,0.48821828,-0.4909342,0.3490984,-0.21056406,0.3238492,0.2219699,-0.28647244,0.29894394,0.16684632,0.26199952,-0.39132452,0.03491501,0.04372952,-0.4513037,-0.39310166,0.2732275,0.27594048,-0.060649406,0.2526575,0.43688887,-0.47217557,0.030181328,0.15332073,-0.3974069,-0.09947757,0.045590274,-0.06320402,-0.06311348,-0.37576166,-0.40064222,0.059986193,0.24010739,-0.45729297,-0.10448369,-0.15827537,-0.0013686842,-0.5805572,-0.011622997
audio_100,0.4477207,0.05999748,0.66496646,-0.5452525,0.1178742,-0.034651987,0.1068675,0.088439666,-0.08643228,0.044282127,-0.32206684,0.3238409,-0.2438322,0.2088012,-0.29062697,0.2532296,0.7271899,-0.13544644,0.23849283,0.292546,-0.2534281,0.37080806,0.1530645,0.36719272,0.20061292,0.27764633,-0.24388558,-0.14777564,0.101397954,-0.3514154,0.369537,0.23914395,0.38550922,-0.25032562,-0.39222208,0.73517174,0.4678372,0.65305966,-0.10053932,0.6434722,0.78031975,0.0020522645,0.25532138,-0.37082875,0.48422122,0.887418,1.3526632,0.3013221,-0.69130665,-0.2442276,0.27169368,-0.2885334,-0.16691753,-0.33466128,0.089471966,-0.10703579,-0.36998984,-0.0645672,0.20256893,-0.3767626,-0.24258526,0.1471268,-0.35814857,0.15429138,0.14694841,0.3090828,2.2043514,-0.15532802,0.013716608,-0.013561986,-0.0700329,-0.062888905,-0.18327036,0.20745762,0.000743271,-0.09432418,0.49800247,0.13335316,0.67337745,0.113210805,-0.14088516,-0.21566564,-0.35308138,-0.20314673,0.5762347,-0.16965343,0.9736985,0.14616242,-0.03313169,-0.4783743,-0.14642522,0.0722989,0.3318152,-0.13774016,0.5519246,-0.5705537,0.06532576,0.26844695,-0.5291321,0.2936547,0.38438764,-0.46514553,-0.70712423,0.051705156,-0.43815118,-0.5899542,0.15168206,-0.29973218,-0.015155547,0.07424282,-0.42044717,0.93098426,-0.020828294,0.10050552,-0.2866758,-0.6857208,-0.49073493,0.4199976,0.11727525,-0.5421078,0.41469657,-1.0169721,0.0643826,-0.0718608,-0.044794783,0.0670954,0.1401331,-0.74849063,-0.49817294,-0.011027219,0.046707824,0.17079945,0.356723,0.2181283,-0.025169829,-0.1441201,-0.32265097,-0.16512404,0.5403718,0.059020765,0.18589745,-0.13900633,0.55783165,-0.32286695,0.23414563,-0.14110646,0.3709706,0.48432916,-0.35704014,-0.04051496,0.09100456,-0.034400545,-0.16651392,-0.42675442,-0.4848791,-0.24692151,0.005064124,0.45072943,0.17869222,-0.002265206,-0.5206893,0.19314681,0.07308057,0.16947304,0.12666948,-0.06483067,0.21709238,0.2581967,1.0432442,-0.6106075,-0.051381245,0.28775936,-0.051955495,0.15149288,-0.20103313,0.7526501,-0.20187752,-0.07315388,0.043706506,0.5675791,0.54580724,0.14249678,-1.1078382,-0.021615122,0.902938,-0.23784189,-0.117681555,-0.08630186,0.24286462,0.037150007,-0.49126264,-0.22855937,-0.11997466,-0.3474668,-0.55471885,-0.098786116,0.04896259,0.3962677,-0.24746363,0.39428595,-0.06589075,0.001116799,-0.10097023,-0.011932705,-0.085716814,-0.17726448,-0.6241647,-1.4619619,-0.083507486,0.091095306,-0.05148832,0.47632006,0.85350335,0.23909004,0.038005345,0.35304487,-0.12796165,0.08031644,0.25652024,0.041029587,-0.053751945,-0.59127533,-0.09104758,0.47574684,-0.39480555,0.032531295,0.051247463,0.32262102,0.24287368,0.022147212,0.53104913,-0.048066642,0.38835976,0.22760141,-0.10143309,0.3473587,0.13370787,0.207956,-0.38787657,0.60964507,0.28674206,-0.00023205302,0.26670644,-0.36912665,-0.2133687,-0.10095563,0.560144,-0.47875878,0.3452282,-0.77528006,0.67327374,-0.265505,0.23790671,0.37701982,0.028075766,-0.10719211,-0.03431448,-0.02068626,-0.021158775,-0.33686426,0.32000986,-0.47497585,-0.2041584,0.3181121,-0.62769824,-0.2914862,0.19110295,-0.46275294,-0.22890323,-0.36021847,0.45418766,-0.905516,-0.9063161,0.15590362,-0.14328538,0.31069228,-0.13801317,-0.6334317,-0.40371272,-0.19143292,0.23808363,0.17825271,-0.19156498,0.31568035,0.13041659,0.060299303,0.7162326,-0.4559057,0.9654595,0.030523984,0.10099172,-0.0522612,-1.6243896,0.3198601,-0.060672823,-0.461814,0.23496398,-0.15141459,-0.8127533,-0.26458502,-0.32625392,0.37517056,-0.60941505,0.22833826,0.10781676,0.43051085,0.58008754,0.6019619,0.2167073,0.112883724,0.0145905325,-0.03511937,0.51533246,0.51121086,0.1356951,0.023265677,-0.5998813,-0.14423014,0.012296522,-0.36086532,-0.031932894,-0.19891016,0.18967506,0.3770869,-0.08647192,-0.13803662,0.07984895,-0.14376228,0.8233018,0.2570313,0.15526703,-0.18799517,-0.020030236,0.5361992,0.36388832,0.30858555,0.32564318,-0.04036607,-0.22809684,-0.08817417,0.2543796,-0.18318589,0.0064495513,-0.3863098,-0.18396623,-0.0014132946,-0.43649668,-0.120228305,-0.05107313,0.04361422,0.009229642,-0.14596741,-0.20935747,-0.15087758,-0.058168862,-0.54428095,0.7576688,-0.4065989,0.37627468,-0.12776178,0.37535164,0.30022806,0.70713735,-0.11393512,0.16982365,0.15050828,-0.059378956,0.057844568,-0.09976322,-0.15994015,-0.45635632,-0.12208157,-0.15157668,0.19059283,-0.09057688,0.04580725,0.33737904,0.07411261,0.47807172,0.3677101,0.16029689,-0.21685569,0.25165793,0.009948015,0.43673465,-0.24232416,0.21250123,-0.33822516,0.547654,-0.057016525,-0.25527358,0.023872439,-0.073399395,0.21284278,-0.26201966,0.22815102,-0.51183474,-0.3962777,-0.25956053,-0.29080048,0.26451018,0.06178629,0.27712438,0.11827836,-0.7860499,-0.17777951,-0.18610732,-0.0885411,0.060919214,0.19818433,-0.36727643,0.71303034,0.11874468,0.25170273,-0.21177569,-0.05953956,-0.31648126,0.68934673,0.91008306,0.07749707,0.21572007,-0.3103455,-0.14377084,0.18390101,-0.009660514,0.3171964,0.042285714,-0.27175358,-0.13340425,-0.24772483,0.08780028,-0.3999879,0.4843048,0.08782372,0.12903194,0.018672647,-0.011839939,0.19959952,-0.1365686,0.014532151,0.47103104,0.22219335,0.07111706,-0.5181782,-0.24797079,-0.2934184,-0.15490578,-0.38739908,0.33049026,-0.049616512,1.0972258,0.023695221,0.22997119,-0.16241749,0.06658336,0.034526348,-0.26424137,-0.2556316,0.5436778,0.15382154,-0.3493222,-0.07378272,0.105608836,-0.1953583,-0.5540492,-0.5523003,-0.23547944,0.5712607,0.19367455,0.23246382,-0.7673094,0.5389791,0.019367712,-0.18409973,0.4669203,0.18093964,0.021040155,-0.4038305,0.23061322,0.29152334,-0.22359283,0.03146315,-0.15091763,-0.4408194,0.29247174,-0.44732258,0.069287404,0.09794617,-0.6001572,-0.23990554,-0.18272154,-0.3643719,-0.50423044,-0.29708883,-0.077683516,-0.15438703,0.45120677,-0.17525013,0.06819418,-0.3007442,0.15786651,-0.04658011,-0.05302377,-0.11579245,0.052600812,-0.59674567,0.13871863,0.101804785,-0.39639148,-0.17820086,-0.3402326,7.28249,-0.20713902,-0.16392213,0.127027,-0.1083149,-0.2246261,0.6212222,-0.24004354,0.2602429,0.19628225,-0.39163285,-0.67823064,-0.048622336,0.3251076,0.38106215,-0.1766104,-0.6780288,0.13244623,-0.26281762,0.16541624,0.30036354,0.16905034,-0.061720286,0.23397942,-0.103345804,-0.5803838,-0.28184295,-0.1175725,-0.43195662,0.15722162,-0.28086373,0.103493676,-0.27736655,0.12355746,-0.16505037,-0.013483857,-0.24289685,0.42112067,0.13515615,-0.10756888,0.44512516,-0.31835118,0.20819734,-0.029213384,0.083356656,-0.47829464,0.34759605,-0.29784486,-0.09148585,-0.3159456,0.20532843,0.25055516,0.028990654,0.12454556,0.24198444,-0.12251598,0.013194799,0.38555542,0.29292223,0.39437583,-0.029490523,0.043136355,-0.16058958,-0.57402766,0.3963476,-0.8975757,0.6494685,-0.22872852,0.23779373,0.08247455,-0.21596587,-0.5853767,0.008390311,0.0052778954,0.061974216,0.3074228,-0.25167707,0.4837867,0.03488399,0.15501796,0.04781935,0.06929199,-0.6479739,0.5275193,0.21531624,0.64090705,0.17560495,0.31200433,0.06892039,-0.2657683,0.8941547,0.444253,0.29941994,-0.017711662,-0.23850392,0.2232437,-0.63504386,0.0017114888,-0.19340543,-0.309174,0.035116605,0.3906399,0.13548113,0.44944385,0.28902838,-0.4166347,-0.31014556,0.4857033,-0.17906295,-0.10869885,0.3671976,-0.5357295,0.070240706,-0.36222005,-4.1838994,-0.91632646,0.011425994,-0.02808269,-0.20287377,0.27875453,0.19764607,0.2434989,-0.3041271,0.59127516,-0.3781847,0.3478706,0.37511697,-0.19796827,0.3175905,0.12973024,-0.52077764,0.8696396,-0.19399434,0.33018643,2.5589426,0.15930289,-0.48435712,0.18288457,0.22020386,0.32308853,0.13081701,0.22203241,0.08198262,-0.3627706,0.05123554,-0.29466966,0.5511779,0.080970466,0.2918634,0.04913129,0.8254583,-0.11522258,0.06291212,0.0708937,0.024646949,0.22076991,0.254096,-0.15469968,0.07753919,0.18341944,0.6697967,-0.019460447,-0.17856023,-0.026736153,0.96111995,-0.46871334,-0.27721256,0.07194559,0.16029064,-0.10802426,0.54666024,-0.33514446,-0.80674416,-0.18180694,-0.29252115,0.21702385,-0.2970526,0.17634982,0.08854214,-0.32660142,-0.09218108,0.17529346,-0.25270486,0.18141715,0.34983096,-0.16711634,-0.60055876,0.4636747,-0.21240966,-0.06661998,0.20860215,0.19277799,0.026703414,-0.9684079,0.2258056,-0.50905937,-0.2085453,-0.8357636,-0.0988299,0.2042036,0.06630741,-0.4714357,-0.19062589,0.009792926,-3.0690837,0.20745021,-0.66359776,-0.05904278,0.1634413,0.18703936,-0.17467996,0.6861599,0.0882696,-0.37561268,-0.13818556,-0.48160842,0.5278057,-0.31509683,-0.11994241,0.083277375,-0.07183595,-0.21885468,-0.003740717,0.071320236,-0.2984533,0.27326164,0.25278357,-0.20125172,0.37121937,-0.20119731,3.0088043,-0.11108293,-0.3723632,-0.012205183,0.19995736,-0.48025137,-2.679372,-0.025393223,0.04263998,-0.43186456,0.10997605,0.16775852,-0.62948394,-0.1655163,0.008864203,0.33049208,-0.602721,-0.16045655,0.18050997,-0.05789834,0.6039509,-0.09790097,0.27525312,0.07178675,-0.3601639,0.251586,-0.069536485,-0.20411958,0.013371569,0.10398343,0.89754874,0.052787114,0.36540926,-0.044390347,0.021378847,1.3410577,-0.25866008,0.6991305,-0.24857964,0.35377347,0.18204664,0.057715133,-0.14676048,-0.1096975,-0.38098186,-0.5658768,-0.105741054,-0.8419404,-0.45340145,0.0889447,-0.23130305,-0.122549534,0.19638747,0.18864161,0.2184996,0.5043295,-0.040138993,0.28666177,-0.1755803,0.33852237,-0.22105716,0.28539655,0.3764765,-0.50415987,0.018600035,-0.42706037,-0.47794858,-0.31018767,0.13739672,0.16501024,0.54517484,-0.2113004,0.16245404,0.01528887,-0.32310882,0.2614374,-0.18614766,-0.45154622,0.4011251,0.22961967,0.076451935,-0.14937903,0.39325908,-19.95071,0.3381829,0.13952433,-0.3679624,-0.29560477,0.121734604,0.6910149,0.47046486,-0.17860606,-0.22929704,0.030056996,0.20512317,0.10776138,0.45596892,0.48759693,0.21350186,-0.2158848,0.09256311,-0.10911908,0.345026,0.188521,0.6908261,0.19883,-0.054086097,-0.038903527,0.636015,0.1383484,-0.0018936484,0.3257828,0.19700855,-0.0651608,-0.6264632,0.008733893,-0.164371,0.4204841,-0.3875822,-0.30764672,0.643244,0.015179606,0.180782,-0.14396659,-0.051042046,-0.09192406,-0.14085342,-0.23677677,-0.1521281,-0.11793267,-0.26108703,0.2379471,-0.43533272,0.09269967,0.116306975,0.028527036,0.021962972,-0.22317144,0.39743677,0.41277978,-0.016875902,-0.063802406,0.22730969,0.23607416,-0.097279355,0.005851282,-0.05330123,-0.23494269,-0.071546994,0.08737787,0.04774547,0.5815549,0.45837963,-0.09078182,-0.61388016,0.0991047,-0.11797398,-0.016786907,-0.30338416,0.015565222,0.24651861,0.027104761,0.32352996,0.19402607,-0.30159858,-0.3831985,-0.2219472,0.29625967,0.12700902,-0.11890616,-0.26337248,0.2819753,-0.055500023,0.15943934,-0.65241957,0.17586528,-0.05736618,0.4227726,-0.62523067,0.3713002,0.06350511,0.10431398,0.10076218,0.47019315,0.15750426,-0.16190374,0.21131636,-0.17163655,0.38935566,0.07552072,-0.46190205,-0.054480854,-0.18091014,0.07254998,-0.3479553,-0.21919127,0.23594262,-0.027160192,0.18092516,0.012884622,-0.06641796,-0.2131913,0.43990302,-0.05977047,-0.012090148,-0.049653098,0.30637246,0.6120091,-0.48948753,0.12023321,0.2093165,0.6260949,-0.05071614,-0.089310914,0.045697115,-0.20831594,0.21873572,-0.8684424,-0.4149918,0.25019208,0.20421943,0.36669105,0.065696925,-0.39988694,-0.4646733,-0.17972201,0.21117118,0.15679286,-0.19068867,0.5564283,0.42872614,0.16246782,-0.34302774,0.030149821,0.6755385,-0.15978916,-0.06977166,0.09020812,-0.18496361,0.32847476,0.07519342,-0.048753437,1.2284526,-0.69303274,0.57424283,0.37074122,-0.45978615,-0.122273676,0.16357982,0.2642942,0.42402932,-0.25216123,0.22951128,0.24416797,0.6208768,-0.19963095,0.14177828,0.14370018,-0.058175854,-0.506589,0.38951567,0.2680044,-0.1765795,0.08251029,0.42423093,0.046088032,0.08248806,0.1794481,-0.41975898,-0.037837464,-0.1479615,0.1934549,-0.04549609,-0.33427373,-0.09800352,-0.27895722,0.3424362,-0.22920479,-0.052818783,-0.07570223,0.044247184,-0.0042792936,0.13392252
audio_101,0.3690421,-0.3237176,0.55365527,-0.17890197,0.30481333,-0.024624294,0.21136507,-0.026502686,0.096262716,-0.027852623,-0.1938687,0.28965762,-0.7886887,-0.045367617,-0.30961737,0.3367225,0.67650795,-0.23644388,-0.2583272,0.4719983,-0.028517991,0.41410825,0.3702643,0.2141557,-0.1407442,0.3185896,-0.65077704,-0.174689,-0.25728363,-0.1992863,0.33261952,0.14211366,0.099423796,0.05713599,-0.43474928,0.54981863,0.44504714,0.30267373,-0.040227138,0.7663483,0.5466321,-0.06749477,0.24720135,-0.15723985,0.36525378,0.5038234,1.0438445,0.1770665,-0.5629612,-0.09646474,0.1654788,-0.1887825,-0.11385908,-0.34482428,0.624402,0.2652336,-0.090973236,-0.055085097,0.06499589,-0.32358882,-0.2092437,0.25194576,-0.063120574,0.087677084,0.1825603,0.15523101,1.3246537,0.096814275,-0.0015442237,-0.12744647,0.09602778,0.085402325,-0.27059978,0.44852087,-0.27255562,-0.024676017,0.45257074,0.09026501,0.5246253,0.21450016,0.088788226,-0.13617747,-0.42946535,0.080599256,0.41651967,-0.4436972,0.7487348,0.2197432,0.2455084,-0.1971449,-0.18624265,0.029461125,0.6424009,-0.3709188,0.6746248,-0.45131972,0.13080801,0.5377331,-0.062148686,0.2862241,0.23828985,-0.13161422,-0.19786815,0.16671887,-0.2637811,-0.3623121,-0.049004506,-0.15963794,0.15720974,0.27744544,-0.058420382,0.89086413,0.09557396,-0.28017083,0.2525637,-0.20372146,-0.3221665,0.39154303,0.4827059,-0.38938755,0.31968832,-0.36235246,0.27647102,0.30901268,0.07140867,0.16710404,-0.06299615,-0.5956887,-0.39747092,-0.13569476,0.13052908,0.036088426,0.31203118,0.26292652,-0.08686532,0.026157044,-0.1562683,0.012954712,0.73125166,0.18670373,0.31258702,0.06325503,0.26198623,0.21855919,0.27433735,-0.11585413,-0.0139914835,0.08741144,-0.3803426,-0.09843346,-0.015516056,-0.05374665,0.25887918,-0.46694216,-0.12833415,-0.26392776,-0.012196509,0.115490414,0.10584323,0.076819085,-0.39052877,0.033922095,0.17975329,0.03277717,0.06096281,-0.1612184,0.071632385,0.24178596,0.64386594,-0.54720867,0.204491,0.4941676,-0.2965227,0.19695455,-0.22659557,0.26500297,-0.0887143,0.024342822,-0.12773275,0.4925768,0.62070495,-0.054444034,-0.93055165,-0.11197636,0.7581218,-0.39259854,0.079539634,-0.15643516,0.5860551,0.37660116,-0.41562137,-0.20618224,-0.2880818,-0.11936599,-0.41178277,-0.46913028,0.315252,0.15449215,0.14808269,0.3605178,0.1739958,0.39284122,-0.041267615,-0.061490737,-0.11366903,-0.059363876,-0.19656229,-1.5294565,0.0322737,-0.042343482,0.0060039903,0.046928223,0.64844245,-0.01157897,0.13152634,0.22761402,0.1977853,0.33383775,0.19616883,0.14487508,0.13994028,-0.3159662,-0.0071143047,0.3207812,-0.10952403,0.002773483,-0.21664904,0.20051809,0.6615421,-0.21662217,0.3052465,0.1315713,0.16326392,0.13359591,-0.52129495,0.4394987,-0.23805434,-0.06970779,-0.080753595,0.27811003,0.37458467,-0.024556972,-0.10903333,-0.18731128,-0.31749657,-0.037854396,0.69074583,-0.30307457,0.30147183,-0.6708493,0.24329259,-0.14993723,0.05626334,0.31781286,-0.016716097,0.2722186,-0.08736746,-0.03447495,0.26830032,-0.018915351,0.08832935,-0.40719584,-0.14752342,0.24595723,-0.55054164,-0.4037367,0.08939605,-0.7122159,0.07499112,-0.09410249,0.009801841,-0.71914464,-0.9285126,-0.105282515,0.29152602,0.09510567,0.1657067,-0.6754249,-0.53521484,-0.34566703,0.09162028,0.28666767,-0.08368252,-0.02158915,0.31085148,0.3961065,0.4497447,-0.50155246,0.7006446,0.05687314,0.38496283,0.02167992,-1.3138478,0.2494986,0.06469961,-0.14601718,0.22924866,0.07169019,-0.116326764,-0.29396638,-0.36510453,0.25370026,-0.28097576,0.08007252,0.103985794,0.1910559,0.49556646,0.40461144,0.22824548,0.38763377,0.16491756,0.008001882,0.22406487,0.7892251,0.0020379247,-0.10435628,-0.47686294,-0.16222318,-0.3877081,-0.055960055,-0.11111932,0.043232154,0.10690587,0.065897346,-0.20725374,0.18205222,-0.0670953,-0.081988126,0.38038722,0.20611955,0.2955189,-0.27453387,-0.01670756,0.68185574,0.21404056,0.24139759,0.22659184,-0.03915536,-0.123068824,0.15527548,0.45925677,0.221674,-0.028275825,0.04026053,-0.3346171,-0.2136722,-0.3379978,-0.3280232,0.12066212,-0.43781888,0.00059423986,-0.076637134,-0.7918872,-0.08956802,-0.20095088,-0.18548846,0.28666827,-0.4186535,0.2711256,-0.25052023,0.36479366,-0.19419888,0.5479429,-0.32266816,0.1737624,0.13583106,0.14137684,0.108573236,-0.1292269,-0.093891256,-0.2679862,-0.20556001,0.14762303,0.08441813,-0.0752919,0.2728521,0.40079555,0.40825877,0.24978063,0.2989724,0.04713748,-0.02642054,0.25075907,-0.062533945,0.17803018,-0.42794213,0.17006318,-0.41554427,0.38989103,0.11235608,-0.17446022,-0.14184082,-0.0012215779,0.14580981,-0.26841378,0.2684156,-0.5125671,-0.2803101,0.044739332,-0.18714747,0.3648229,0.049578965,0.05666568,0.29066795,-0.64989984,-0.15692547,-0.08923098,-0.25024647,0.015111823,0.16628078,-0.3684821,0.03756693,0.08064027,0.026623987,0.10760343,-0.076484516,-0.0026004894,0.42123067,1.0695981,0.14444606,0.32292283,-0.4943571,-0.21060613,-0.4753404,0.10621533,0.15560582,0.15360066,-0.34992012,-0.045706823,-0.071213,0.16086794,-0.22236603,0.53737557,-0.24265155,0.23718987,0.025767485,-0.17578028,0.09616268,-0.5243189,0.1326193,0.3406976,0.2747774,-0.17671482,-0.32742536,-0.09724775,-0.09902607,-0.08926188,0.022304308,0.29389256,-0.027408512,1.4060512,-0.070257284,0.0950913,-0.13163587,-0.011609584,0.00016271565,-0.068643875,-0.31364045,0.23223104,0.06331896,-0.19043997,-0.06554026,-0.17408013,0.034277935,0.017500333,-0.5520966,-0.07055381,0.31981686,0.01723491,0.24773467,-0.23481864,0.79850304,0.1545617,-0.28798708,0.66104424,0.34382668,-0.5253333,-0.4557479,0.4302888,0.14832942,-0.109267585,0.009073776,-0.24339016,-0.14234138,0.31610972,-0.5540517,-0.08494274,-0.093807295,-0.28779042,-0.081277385,-0.103684716,-0.28262818,-0.43041936,-0.32925943,-0.21132176,-0.30533212,0.49161896,-0.27400982,0.21628013,-0.22895549,-0.0017640322,0.02303514,0.28395268,-0.17410311,0.00559511,-0.48290893,0.079788476,-0.19696024,-0.32149696,-0.25956517,-0.2595869,7.690586,-0.204097,-0.29376242,0.09859644,0.27725446,-0.05154117,0.85526377,-0.35434332,0.15760161,-0.014648251,-0.44556803,-0.3329363,0.10275549,0.15252812,0.35262167,-0.44483206,-0.5717337,0.19094118,-0.4060478,-0.12259207,0.26995844,-0.01720917,-0.41620514,0.43169025,-0.12632354,-0.36874536,-0.17307928,-0.072900526,-0.2471829,0.18332838,-0.38532,0.009959153,-0.2992764,0.16939075,-0.3958915,0.0611208,-0.16494085,0.76414037,0.16691965,0.04625661,0.093621805,-0.4854826,0.08568349,-0.28074372,0.06723307,-0.75583416,-0.014138808,-0.034884125,0.10656608,-0.47293198,0.07830929,0.47202536,0.4205543,-0.13483159,0.3942056,-0.080794506,0.13722453,0.46161577,0.34853622,0.581026,-0.35406,0.04821473,-0.42825028,-0.27924407,0.42991585,-0.78713447,0.35776946,-0.34430835,0.35930726,0.09179395,-0.12536593,-0.5178912,-0.055617634,0.09871868,0.16137064,0.22274338,-0.057460416,0.532403,0.03378758,0.21612997,0.070486054,0.00521313,-0.35724473,0.016624209,0.078976735,0.20714256,0.12834367,0.04654597,0.3315045,-0.21511042,0.886707,0.3344827,0.25315315,0.43004328,-0.18759297,0.07009845,-0.6421283,0.09920706,-0.11028135,-0.18427594,0.28854993,0.33931345,0.055089783,0.34655493,0.0061136177,-0.37966752,-0.47920507,0.3671292,-0.11564765,0.2837567,0.122119516,-0.25108755,-0.02377585,-0.24794227,-2.7459676,-0.68225753,-0.23984317,0.03441319,-0.041468028,-0.2954566,0.053042285,0.298749,-0.50929016,0.14847675,-0.4161314,0.07803356,0.17962833,-0.14597113,0.49990523,0.5959472,-0.34439355,1.1381834,-0.20498224,0.22500286,1.352645,-0.02981473,-0.56360227,-0.09339972,0.078801006,0.12728079,-0.23170187,0.055144273,-0.04325227,-0.07194822,0.10963713,-0.067126445,0.44118178,0.14341988,0.3218044,-0.17246665,0.63726515,-0.23949271,0.41555732,-0.24839151,0.006066584,0.29494047,0.1879834,-0.082628645,0.23546219,0.3711097,0.5669842,0.10000847,-0.1075249,-0.24346086,0.6358583,-0.5932309,0.051892016,-0.0043020993,-0.08943521,-0.057869896,0.42229775,-0.52826315,-0.6147789,-0.3672643,-0.4345167,0.27330866,-0.38538462,0.23725477,0.017120888,-0.31359375,0.05111901,-0.07457479,-0.4004905,0.11174882,0.5644619,-0.21842186,-0.3964522,0.19852494,-0.19309394,0.17866127,0.29175413,0.16432184,0.22984631,-0.95511866,0.28697672,-0.18661606,-0.37776527,-0.54958075,-0.08742185,0.106201544,0.13569185,-0.59164226,-0.2697725,0.03382807,-2.827677,0.29982978,-0.6155823,-0.20501696,-0.029232673,0.28057656,-0.027200093,0.22256751,-0.053136624,-0.29857463,-0.3356299,-0.36694634,0.39606965,-0.23616245,-0.19365665,0.11947597,0.044465307,-0.50602853,-0.117845535,-0.15722553,-0.19077836,0.122455895,0.1344133,0.030071259,0.08127529,-0.08603801,4.0698013,0.18935932,-0.3963363,-0.112514034,0.06274431,-0.115298204,-2.7382188,-0.3014415,0.28099144,-0.16332194,0.4372392,0.38632905,-0.29600698,0.0032093164,-0.046774846,0.28655672,-0.28732404,-0.25308165,0.40830004,0.0380417,0.48446366,0.050330948,0.37446427,-0.057337478,-0.10238719,0.21260904,-0.22451371,-0.08152533,0.44685045,-0.04023403,0.83325344,-0.036677938,0.041546855,0.030681325,0.08780652,1.1010921,-0.20979778,0.5511656,-0.3899492,0.1856963,0.14661686,0.029074593,-0.18674596,-0.2905341,-0.38008982,-0.25409284,-0.09771653,-0.9821988,-0.12684879,0.25948587,-0.22025476,-0.3274363,0.19868134,-0.002343088,-0.0005644136,0.32567912,0.056684986,0.054493275,-0.11505592,0.34137356,-0.50196594,0.24168335,0.21076818,-0.42669824,-0.5977336,-0.4140076,-0.36081165,-0.19733517,0.39939547,0.06292845,0.36344337,-0.08269236,0.11182827,-0.208238,-0.11753492,0.29565418,0.08722945,-0.6059104,0.05986806,0.339631,0.21852417,-0.31919152,0.40713686,-21.998318,0.11112268,0.031014262,-0.2763784,-0.47877535,0.21675496,0.882537,0.1978139,-0.3120794,-0.18577799,-0.44403094,0.083389975,-0.2152915,0.5088928,0.6259372,0.315613,-0.21313749,0.006795514,-0.122565,0.23115787,0.267545,0.84151816,0.27775693,-0.19563317,-0.107060485,0.29241145,-0.07624395,-0.06695833,0.10395159,0.06249264,0.12687694,-0.31928948,-0.15849334,-0.3808375,0.37624812,-0.13476801,-0.50949806,0.72141236,0.32396686,-0.049121227,-0.06075526,-0.24639629,0.14852622,-0.5040264,-0.021147186,0.04198242,0.062174454,-0.23802273,0.22335933,-0.1932707,-0.0890568,0.1284365,-0.43739963,-0.052673515,-0.097677395,0.21649943,0.56964916,0.1561279,-0.09450448,0.06537231,0.28476483,-0.121963084,-0.055703692,-0.20256157,-0.07445101,-0.08092421,-0.14486818,-0.15054536,0.41934308,0.19371888,0.092119984,-0.34452298,0.15931174,-0.09541831,0.18527815,0.048361693,-0.014596567,0.1747568,0.119608045,-0.0017396787,0.097562015,-0.031332314,-0.39739132,0.034970507,0.4412805,-0.008458198,-0.11795486,-0.26693138,0.17387424,-0.18739006,0.16060184,-0.26714945,0.2719734,-0.03902948,0.17431857,-0.5668915,0.34924674,-0.07137845,0.120421775,0.66383004,0.042288445,0.31963062,-0.019039743,0.037073318,-0.27872986,0.4257167,-0.14500645,-0.35046223,0.07158646,-0.18268356,0.34591353,-0.43535465,-0.039114427,-0.025642274,-0.17862694,0.14397869,-0.08152211,-0.14740245,-0.0716785,0.33995226,-0.47202843,-0.3800916,0.034661468,0.23461753,0.67118835,-0.4733415,0.26328734,0.46471044,0.46918154,0.30216566,0.1810534,-0.064275995,-0.0473963,0.14940418,-0.66490066,-0.20543861,0.032059584,0.20671566,0.9028996,-0.024645727,-0.24988137,-0.46412072,0.0686681,0.08895031,0.5283658,-0.8302552,0.5774803,0.30402786,0.23225927,-0.38042256,0.09664565,0.6574781,-0.14126076,0.12277007,0.18043423,-0.27467814,0.22829488,-0.15578541,-0.2325955,1.0614228,-0.2044969,0.5048379,0.39929068,-0.2260845,0.223714,0.040233027,0.35347083,0.43289965,0.004610711,0.31699818,0.26187885,0.42615697,-0.06772022,0.13730942,0.115451224,-0.39786166,-0.35446873,0.41754308,0.1162133,0.014951513,-0.06873944,0.105921306,-0.21446319,-0.059906498,0.057488184,-0.2485885,0.053113353,-0.21538086,-0.049970165,0.111670606,-0.17858653,-0.20358695,-0.10945123,0.45221978,-0.25985485,-0.05130084,-0.25990957,0.026614798,-0.40990728,-0.1103995
audio_102,0.1428802,-0.19964555,0.2717109,-0.45767942,-0.00454885,0.33130124,0.0086554745,0.123271525,0.1902922,-0.0009836857,-0.22784643,0.3672923,-0.07274042,0.024755897,-0.2099357,0.36640024,0.68026656,-0.27907175,-0.25919902,0.34611094,-0.01578755,0.19483085,0.21046898,0.11132259,-0.13317105,0.12392271,-0.33204743,-0.59135216,-0.056528993,-0.31554994,0.47390825,0.039689396,-0.07613387,-0.05935302,-0.44847646,0.54285985,0.43194118,0.1868859,-0.080611795,0.33560467,0.6388493,0.03505881,0.43540588,-0.24126695,0.4392696,0.6487622,1.2974889,0.14417502,-0.60032755,-0.11666284,0.07289078,-0.19483548,-0.14602585,-0.507022,0.51636535,0.13089655,-0.116083525,0.005733909,0.1985104,-0.13505803,-0.11474463,0.2796035,-0.3965124,0.07070041,0.1196657,0.079557106,2.0521834,-0.049258325,-0.28966087,-0.03198785,0.06062739,0.04103148,-0.14923868,0.5219075,-0.3493371,-0.2946488,0.40777138,0.16333404,0.49582076,0.16086742,0.03682695,-0.29971814,-0.17687355,-0.007543564,0.45332044,-0.22818618,0.7218419,0.028922822,0.06917479,-0.37915835,-0.4856444,0.34486836,0.4349813,-0.26418167,0.38856867,-0.44980738,0.10313306,0.24393003,-0.05285782,0.056445107,0.31102675,0.14632094,-0.6336764,-0.09053827,-0.10640992,-0.37598786,-0.2991772,-0.15661497,0.18100148,0.25059268,-0.12620267,0.98123145,0.24557991,-0.02466195,-0.03399932,-0.080195256,-0.23311727,0.5788533,0.2061473,-0.44959903,0.49017197,-0.73743856,0.12971945,0.22041453,0.044880882,0.13927083,-0.054281693,-0.34367412,-0.3714477,-0.16374327,0.29099473,-0.3133421,0.29277626,0.2002095,-0.11470044,0.20232767,-0.19112587,0.07756294,0.8686875,0.2745452,0.34310114,0.072514355,0.1941926,-0.01631958,0.3163693,-0.228381,-0.3219625,0.23610896,-0.41809645,-0.10352735,-0.22283165,0.055387706,0.31519732,-0.0628804,-0.12104157,-0.19224824,0.06163733,-0.08835408,0.051736888,-0.12183474,-0.13423093,-0.12346504,-0.20892902,0.039016012,-0.06850024,-0.3429787,0.07742553,0.09168944,0.7377122,-0.7959912,-0.012409013,0.022089574,-0.076111905,0.012785018,-0.27099067,0.38453302,0.0066576493,0.07670899,-0.070548296,0.419011,0.40915674,0.114751816,-0.80343187,0.015268252,0.58892417,-0.095157914,0.045779876,-0.25537345,0.1359494,0.27355105,-0.4184605,-0.07603212,-0.4008065,-0.11320008,-0.095849685,-0.033576857,0.12928629,0.19236924,-0.044468887,0.17090051,0.19194174,0.32103223,0.119137414,0.034316227,0.12974988,-0.12066985,-0.07897009,-1.7046946,0.21405612,0.024108842,-0.013170786,-0.08118921,0.7242542,-0.047533125,0.004467494,-0.03956422,0.13730522,0.13690366,0.115721196,0.016202714,-0.029944867,-0.44564193,-0.017835882,0.42349687,-0.096023634,0.26220137,-0.17035557,0.60604966,0.03765634,0.011652075,0.3750895,0.2469757,0.061655294,0.16102964,-0.070453726,0.38095888,-0.1025118,0.14358358,0.017096069,0.3622585,0.19369702,-0.0039903573,0.23780167,-0.45531046,-0.5292318,0.081476085,0.34482178,-0.2663097,0.40717685,-0.6357543,0.56298196,0.31029338,0.23170623,0.541883,-0.005769808,0.052580833,-0.09496256,0.041987132,0.4884776,0.11106107,0.056422718,-0.23117468,-0.2366129,0.24710506,-0.68324727,-0.103494704,0.24270338,-0.22711292,-0.24597377,-0.14446555,0.12768671,-0.2562498,-1.1147211,-0.1757733,0.1050048,0.07858962,0.14766249,-0.56073064,-0.40402353,-0.09043442,0.1743812,0.050255753,-0.04823262,-0.023788538,0.084686555,0.19583997,0.3678645,-0.30572468,0.57442266,0.11730664,0.13002434,0.1573988,-1.3258227,0.13220267,0.0030778581,-0.3597536,0.07764012,0.22223794,-0.44733047,-0.28043273,-0.32930845,0.0862643,-0.51081526,0.30704486,0.09784184,0.34648663,0.5433856,0.07100477,0.22501619,0.09451089,0.01788724,0.15320705,0.52520776,0.21972223,0.05542241,-0.007095711,-0.369944,-0.051012717,-0.4856039,-0.0479952,-0.2038278,-0.33193818,0.15244074,0.21346216,-0.18232112,0.22750363,-0.13791196,-0.13433515,0.3060898,0.19553907,0.10639437,-0.21392174,0.16728672,0.7713194,0.0558517,0.017325515,0.32271332,-0.27350911,0.02849202,0.016211132,-0.060569625,-0.08452333,-0.15597965,0.11714939,-0.16048817,-0.06969585,-0.40677163,-0.41663212,0.25475365,-0.20109624,-0.1435868,0.03468909,-0.2551748,-0.035957646,-0.11809935,-0.07125786,0.3397629,-0.2215201,-0.034818623,-0.19082992,0.5265735,0.387685,0.5800911,-0.35703966,0.16318162,0.35262942,-0.10739937,-0.033493284,-0.23650728,0.0894559,-0.28888306,0.026093623,-0.026957478,0.067413725,-0.0006257214,0.061026,0.41371995,0.366425,0.3262722,0.2721764,-0.0476937,-0.06549724,0.4315859,0.21457738,0.45530224,-0.2647825,-0.20659363,-0.28504726,0.35632005,0.11257237,-0.20651473,0.118377656,-0.31011823,-0.042707425,-0.22572243,0.15494542,-0.42606217,-0.34202492,0.09402963,-0.33099908,0.37497175,0.32960847,0.17280336,0.056598324,-1.034362,0.07387552,-0.22914515,-0.16076463,-0.16453579,0.00062941934,-0.28368837,0.5952351,0.10488123,-0.031766243,0.11033178,0.17963535,-0.027235845,0.50238883,0.7573863,0.16825508,0.27090815,-0.28157407,-0.359846,-0.1378417,-0.040067267,0.3836353,0.00590577,-0.19962633,-0.21442625,0.06873132,0.051599685,-0.18904799,0.3662276,-0.33554658,0.14694993,0.045131717,-0.19127145,-0.055473458,-0.21168241,0.0897387,0.3477321,0.21598412,-0.0939863,-0.7223263,-0.17000169,-0.11805221,-0.12304542,-0.21994154,0.28443876,0.10135021,0.6420909,-0.014473813,0.036812417,0.01905017,0.1415569,-0.026112536,-0.05896418,-0.07560926,0.2055761,0.1649003,-0.27728626,-0.16906016,0.019009583,0.03496421,-0.23386781,-0.60889906,-0.047158927,0.575625,0.15156579,0.41459143,-0.24566539,0.8441045,-0.04649628,-0.11331943,0.65202606,0.21452159,-0.19859129,-0.31626526,0.17752658,0.15069848,-0.25964308,0.0036502979,0.003852124,-0.29665115,0.2719985,-0.31048945,-0.07744458,0.020516988,-0.11652133,-0.09399523,0.028999785,-0.40946233,-0.96823853,-0.47738335,-0.2639602,-0.23436935,0.26172078,-0.1814978,-0.099532574,-0.34105965,0.070433214,0.066699,0.1388418,0.052155208,0.041156225,-0.2743534,0.28431487,0.113253005,-0.28729728,-0.23991273,-0.3273305,5.973128,-0.1379149,-0.26063964,0.096028276,0.27515313,-0.09455973,0.68754023,-0.24718857,0.26321998,-0.051580388,-0.2405366,-0.42762825,0.08727433,0.06869277,0.21147804,-0.62097347,-0.7324611,-0.058837924,-0.37986532,0.037570365,0.20672126,0.15308689,-0.25340798,0.013092005,-0.09032997,-0.48914725,-0.119684875,-0.17116432,-0.43815473,0.20834844,-0.1624555,0.10144797,-0.36484608,-0.116309024,-0.093575284,0.018775417,-0.12556416,0.41019875,-0.13957536,-0.23672263,0.23993547,-0.65499586,0.19570324,-0.1757932,0.09316671,-0.7483839,0.23780337,-0.25692484,0.08803685,-0.2293686,0.029458232,0.5024776,0.2186656,0.056994293,0.1329752,-0.23266213,0.1191215,0.07864292,0.25190866,0.12326392,-0.037734047,0.02451051,0.12631573,-0.13926536,0.347859,-0.5591331,0.2485279,-0.28311762,0.17745571,0.24935809,-0.23757422,-0.2614639,-0.040366147,0.120837264,0.15576541,0.32322678,0.02984098,0.6007172,-0.062188476,0.19121598,0.12760316,-0.010914414,-0.66348916,0.24320237,-0.03894292,0.3740346,0.0808748,0.20310429,0.18628079,-0.32485887,0.5285474,0.17576069,0.20598404,-0.22054604,-0.33662176,0.25715783,-0.6808595,0.11889021,0.018749127,-0.20052095,0.1296272,0.6805769,0.17052013,0.24462315,-0.056282476,-0.5252834,-0.26182806,0.49830094,-0.06767316,0.26861927,0.3246834,-0.3051031,0.017115744,-0.07655375,-3.719975,-0.54781157,0.041663896,0.049848784,-0.09892478,0.05684822,0.0857229,0.26464027,-0.7565246,0.36238828,0.087122776,0.018780371,0.4341868,-0.30836073,0.20105834,0.25951537,-0.25733733,1.1526694,-0.14215297,0.20420542,1.5923517,-0.13937902,-0.07847356,-0.020349924,0.19346993,0.27952054,-0.15484636,0.14575961,0.025518335,-0.12416139,0.07467327,0.06284379,0.23733063,0.11725073,0.18399231,0.13080288,0.3091347,-0.14423724,-0.20122173,-0.099558376,-0.06195033,0.4547164,-0.017647862,-0.13818623,0.15041445,0.14954555,0.6502693,-0.029114502,-0.10962403,0.15276882,0.82397556,-0.49930593,-0.022170454,0.13519324,-0.10979833,-0.076911055,0.2855443,-0.5218373,-1.0476881,-0.041824557,-0.4263309,0.40169612,-0.44962853,0.37399223,-0.06971664,-0.4511207,-0.09127366,0.10302679,-0.4056231,0.16146214,0.54926467,0.10416219,-0.28604162,0.12670326,-0.36018616,-0.048593413,0.0854251,0.16264115,0.13895129,-0.8186425,0.31285042,-0.2041826,-0.19290379,-0.56755215,-0.038730778,0.14847393,-0.14984693,-0.71131647,-0.33698294,0.047836687,-3.8002653,0.13044885,-0.031802576,-0.06254149,0.07248397,0.16306984,-0.003330038,0.32268238,0.21685004,-0.086311825,0.014618652,-0.01107674,0.36567706,-0.12471452,-0.29078504,0.178535,-0.030568622,0.00518747,0.022291768,0.043318577,-0.33484656,0.09825185,0.4175666,0.2503809,0.18152186,-0.16988873,3.9290814,-0.14722246,-0.46931526,0.021027053,0.03927791,-0.1353596,-2.7029276,-0.2630444,0.06264165,-0.25300014,0.06987686,0.39335176,-0.4458988,-0.02572019,-0.09797195,0.17988122,-0.28333697,-0.10774912,0.31786287,-0.22908849,0.36268163,0.028084066,0.22388156,0.004874814,-0.09960204,0.1773286,0.037970107,0.050561596,0.11112584,0.03706605,1.2969804,0.11021661,-0.1563603,-0.099584304,-0.24093097,1.112189,0.09376317,0.73017436,-0.16702066,0.3287202,0.100903094,-0.17208056,0.017397257,-0.35112748,0.09485296,-0.33788702,-0.19278319,-1.100692,-0.29765388,0.185026,-0.18113214,-0.37198713,0.21266074,-0.105175205,-0.22299874,0.40100354,-0.20930523,0.35337207,-0.15051667,0.40794948,-0.42404008,0.23219539,0.4857295,-0.2504066,-0.39490762,-0.07173051,-0.47295046,-0.2743332,0.19397758,0.3475167,0.39013907,-0.4160225,0.19128306,-0.42241362,-0.26278743,0.038113855,-0.022082774,-0.09403287,0.16313721,0.36805904,0.051655706,-0.50278884,0.26303437,-20.76718,0.010922588,0.15345885,-0.023347756,-0.5794308,0.20871581,0.70303786,0.1994331,0.015143497,0.052253827,-0.18980002,0.13612744,-0.025116444,0.38648996,0.48060003,0.3794686,-0.10780799,0.05951498,-0.018981298,0.35901076,-0.07289802,1.0134825,0.14203349,-0.115246944,0.11880633,0.20104933,0.03205751,0.044800803,0.3672798,0.16492033,0.08893883,-0.21416025,-0.02581478,-0.2753633,0.07799014,0.17887443,-0.39483762,0.9065486,0.29205695,-0.012543247,-0.0547901,-0.18080235,0.005730448,-0.18492456,0.059141878,-0.006161654,-0.22067486,-0.1592889,-0.024617078,-0.119468324,0.13195896,0.09008981,-0.36389086,-0.13996992,-0.04270301,0.24974181,0.70340604,0.36631685,-0.061163574,0.13610187,0.032120567,0.1377384,-0.08226369,-0.026336491,0.17943014,-0.10332838,0.03967598,0.08043477,0.24579273,0.057896536,0.08957789,-0.4043729,0.13908751,-0.16599162,0.1119369,0.30228558,0.055191744,0.2910059,0.21892676,-0.0063528395,0.10593597,-0.000477056,-0.5352279,-0.05455202,0.0049853423,0.08576092,-0.08520248,-0.32250443,0.15578915,-0.03960226,0.13322568,-0.35777465,0.3747408,0.04962798,0.03424998,-0.38001305,0.45950013,-0.06091189,0.25021842,0.16671662,0.45322073,0.34385285,-0.020374654,-0.14024666,-0.25759396,0.16277096,0.15608728,-0.19084875,-0.12004089,-0.13375682,0.15057227,-0.084036775,-0.022485599,0.044878814,-0.067903966,0.08278666,-0.10662341,0.1373891,-0.008376683,0.24375294,-0.52085584,-0.12529005,-0.10771925,0.26980326,0.47929478,-0.33630612,0.3278638,0.082292184,0.42939648,0.68888915,0.18041544,-0.13953373,-0.12974046,0.14991908,-0.7143027,-0.23929803,0.20040825,0.19375025,0.96361,0.06656174,-0.47651526,-0.3084707,-0.28928724,0.28014547,0.45839596,-0.4732772,0.5394995,0.4745591,0.10450966,-0.3701753,-0.003146534,0.88524795,-0.14714314,0.14253314,-0.0020770961,-0.26647297,0.08209215,-0.08479306,0.12354783,1.177772,-0.17911331,0.72737175,0.41762894,-0.35331732,-0.051963244,-0.18917358,-0.013778474,0.30758402,-0.027747856,0.26766953,-0.042730894,0.33448464,-0.19765985,0.28033292,-0.08156237,-0.13169947,-0.41365063,0.385581,0.21205871,0.033579983,0.16643472,0.05388163,-0.24076468,-0.13158286,0.18073924,-0.3559317,0.16910675,-0.02099191,0.013109628,0.03728277,-0.08954019,-0.22806458,-0.062574916,0.4033215,-0.18505938,-0.18472524,-0.050201986,-0.07612429,-0.008633731,0.35995644
audio_102_1,0.13158332,-0.029573275,0.15015075,-0.45932862,0.122753,0.3574048,-0.15635358,0.096049175,0.1626364,-0.06858579,-0.17345667,0.50028706,-0.35488948,0.0663139,-0.3226076,0.31913328,0.7031568,-0.20119412,-0.3300286,0.4471593,-0.19079158,0.36163285,0.2620531,0.08881914,-0.21508414,0.22653675,-0.24661852,-0.60438424,0.03523906,-0.24158958,0.40394464,0.04363703,-0.10417101,-0.22677948,-0.46405438,0.7579521,0.37187594,0.05752527,-0.14411905,0.50710684,0.23728089,0.09235448,0.33146608,-0.13524942,0.3650293,0.69830775,1.6637802,0.19754376,-0.33360806,-0.095779456,0.2458092,-0.060575146,-0.094785176,-0.4484217,0.59072673,0.20354284,-0.39399597,0.072294034,0.019097008,-0.0912077,-0.2913495,0.34141207,-0.35497105,0.08059329,0.102294356,0.20275633,2.275962,0.037945725,-0.26380053,-0.1072867,0.018745793,0.035624444,0.025370583,0.38372868,-0.23313068,-0.34941447,0.46451384,0.06514849,0.42595902,0.12064085,-0.06247375,-0.40096706,-0.09742184,0.05731665,0.51371735,-0.11144017,0.5567999,0.117182456,0.27144843,-0.32419544,-0.4201324,0.15010788,0.43013993,-0.23730767,0.5218946,-0.5282893,0.079780005,0.077827945,-0.04446575,-0.1132813,0.2930586,-0.042597372,-0.54858816,0.15808131,-0.027804617,-0.21720813,-0.2887787,-0.18306059,0.062851295,0.42744982,-0.078828864,0.90294087,0.22120234,0.030194351,-0.12259181,-0.02317301,-0.13740633,0.5752805,0.09445479,-0.40923798,0.7539899,-0.96675867,0.21517573,0.04950102,0.25031877,-0.06300571,0.10771327,-0.35730538,-0.19092149,-0.19013266,0.44095898,-0.3105182,0.18455985,0.33266774,-0.10202206,0.31019458,-0.14745884,0.07664989,1.0083847,0.20208189,0.13829353,0.25240895,0.13370205,0.011427544,0.068537064,-0.56283134,-0.36956608,0.09163589,-0.2766219,0.060562417,-0.2270854,-0.045958243,0.05965145,-0.25237963,-0.050067987,-0.35119775,0.14016901,-0.10567323,0.08615392,-0.17382598,-0.19189817,-0.056919765,-0.14632002,0.07523884,0.040974345,-0.3161671,0.0012926051,0.21631598,0.7073243,-0.78202796,-0.07695437,0.07907601,-0.068908595,0.10494791,-0.1351588,0.3396282,-0.12002616,0.026710631,-0.15363239,0.74535877,0.5432332,0.09173237,-0.7308942,-0.2439682,0.824954,-0.17105104,-0.003317397,-0.27548254,0.21012151,0.25421253,-0.5395654,-0.0889691,-0.20661631,-0.06887396,-0.09375302,-0.19496566,0.23364931,0.35846186,0.021195889,0.296257,0.15869993,0.22587557,0.12567353,-0.062066477,0.20303033,-0.16798763,-0.12128694,-1.6148568,0.29328448,-0.00569943,-0.0640353,-0.13511625,0.85850143,0.2557871,-0.035000548,-0.13230447,0.30342647,0.26703614,0.13791358,0.046238933,-0.06267369,-0.33949417,-0.07128835,0.54288125,-0.11646914,0.23130403,-0.25329688,0.4160526,0.19758253,0.15388075,0.44827074,0.3831875,-0.039223675,0.25119027,-0.18743406,0.41694543,-0.026746053,0.34271225,-0.2032367,0.33351713,0.36147887,-0.02034723,0.39594805,-0.47478595,-0.4848304,0.056757398,0.35592,-0.42290896,0.34491977,-0.9709067,0.2714914,0.30955085,0.20797862,0.7096102,0.033770125,-0.14666465,-0.21179159,-0.045059122,0.56072545,0.098582216,0.10690213,-0.48359543,-0.24625902,0.30986798,-0.87750524,-0.25698254,0.07459223,-0.4091155,-0.32736358,-0.2699741,0.24461474,-0.20745236,-1.344246,-0.45500842,0.15499413,0.10288768,0.2590123,-0.9767606,-0.13860898,-0.16441597,0.16314137,-0.0007893361,-0.13705583,-0.015523931,-0.076536745,0.052935746,0.14352566,-0.37319845,0.42555308,0.061235275,0.26322892,0.25912523,-1.5814196,0.24008669,-0.08002077,-0.3593264,-0.068667844,0.2722616,-0.5542663,-0.38152266,-0.5391086,0.020333597,-0.52849954,0.39392704,-0.1801108,0.30792275,0.3763035,0.39684105,0.22996731,0.15651092,-0.03739542,0.1841412,0.6212787,0.31055355,0.04728063,-0.0072617545,-0.35026276,-0.4141709,-0.14763452,-0.20943764,-0.08651362,-0.49397576,0.3917253,0.27423093,-0.06953029,0.48902902,-0.082057685,-0.13826406,0.4201566,0.035759,0.008523997,-0.26214653,0.24774271,0.67925525,-0.1317499,0.021700798,0.33010918,-0.52145827,-0.092391945,-0.046414964,0.122347854,0.16950805,-0.07295341,0.22457668,-0.14160995,-0.07924635,-0.23963267,-0.5041055,0.36889413,-0.16179739,-0.017608402,0.0052810633,-0.35605052,0.0503954,-0.15266836,-0.08587233,0.25701618,-0.2912025,0.21881685,-0.119006,0.4223247,0.7662318,0.5250291,-0.505028,0.3720507,0.11700825,-0.13865046,-0.1643507,-0.22098614,0.023532161,-0.3619215,0.15435804,0.046609506,0.00023546231,-0.10166919,0.025263445,0.66363215,0.20626245,0.4238116,0.08134776,-0.101290494,-0.07332415,0.67698157,0.29284996,0.49988002,-0.21944514,-0.36230204,-0.43033814,0.3387212,0.067110464,-0.3740169,0.15566885,-0.16771588,-0.05384659,-0.26232672,0.17987737,-0.46259207,-0.3811502,-0.022243612,-0.30754966,0.37644023,0.33353913,0.26887748,-0.021357592,-1.3304503,0.11676148,-0.124715425,0.032930188,-0.1898904,0.0834957,-0.2912663,0.74485236,0.07098582,-0.1496176,-0.034788743,0.07955531,-0.16276412,0.49485826,0.600259,-0.088814266,0.33219638,-0.26686424,-0.45458448,-0.085035354,0.009703621,0.5097094,-0.10994176,-0.11633344,-0.30362496,-0.038424168,0.015225906,0.02259564,0.37591663,-0.27225965,0.123646475,0.15529463,-0.028579084,-0.117187195,-0.31419355,0.21081635,0.44688165,0.11253933,-0.18551151,-0.6783566,-0.16001041,0.10205389,-0.19082756,-0.20196363,0.3477617,-0.14543276,1.0951947,-0.024173472,-0.14092077,0.070220724,0.2202116,-0.096713655,-0.24498916,-0.05904327,0.16550419,0.027898407,-0.29590368,-0.06224615,0.000984974,-0.008810641,-0.12986042,-0.2865527,-0.077068664,0.45514563,0.17773512,0.21201123,-0.29315075,0.6257745,0.12273348,0.03292574,0.43018794,0.19740425,-0.15263286,-0.44832283,0.12957603,0.07099676,-0.4371455,-0.11570609,0.02734537,-0.39133906,0.3681462,-0.22888121,-0.034568828,0.010795954,-0.20102869,0.13795377,0.09649818,-0.2579318,-0.97319263,-0.51509225,-0.08355246,-0.043548483,0.37895986,-0.22894445,-0.21544965,-0.31660315,0.08388136,-0.00332218,-0.018959908,-0.06845184,0.18085147,-0.2521953,0.45463285,-0.094013676,-0.45571584,-0.1557399,-0.32159853,5.91704,-0.27103302,-0.10365338,0.16504437,0.13897455,-0.118025504,0.5171228,-0.08753796,0.1309682,-0.20717706,-0.042375494,-0.6577881,0.2756556,0.09709601,0.1542712,-0.3280204,-0.58687335,-0.022830417,-0.29964608,0.017903738,0.17024522,0.10969538,-0.15215155,0.10509741,-0.033475365,-0.6613016,-0.12146469,-0.027223159,-0.3262034,0.34358796,-0.1303394,0.03190551,-0.37621012,0.0024946001,-0.022460502,-0.18076405,-0.011268693,0.24614614,-0.069261886,-0.03736678,0.42871982,-0.59937507,0.1304313,-0.005101753,-0.2159358,-0.2939204,0.33328864,-0.36080992,-0.07550646,-0.13162906,0.22842094,0.37089387,0.20336647,0.013950001,0.28956276,-0.21730441,0.040231816,0.039637003,0.18486075,-0.08123383,-0.11179112,0.09229571,0.055334818,0.012647145,0.48234,-0.32977724,0.37316725,-0.11714716,0.08362926,0.09116206,-0.2621815,-0.29334375,0.06626477,0.15198073,0.16726534,0.1625951,-0.22723866,0.6194064,0.12201452,0.17003027,0.21472801,0.10648364,-0.9836453,0.0971413,0.12851478,0.22991289,-0.06289656,0.38186604,-0.010879868,-0.26646265,0.82553005,0.105538525,0.38581502,-0.4159062,-0.28865743,0.28914222,-0.6644959,0.038605493,-0.047988366,-0.0631305,0.1230664,0.3911241,0.15309872,0.3555585,-0.09349177,-0.3932338,-0.3347408,0.40479064,0.09711931,0.16725221,0.37740353,-0.32481718,-0.048196662,-0.018561197,-4.796613,-0.7074681,0.13733774,-0.12173405,-0.11419445,-0.046503026,0.059140936,0.22446921,-0.69795996,0.6205421,-0.0053878156,0.12823716,0.44271383,-0.21798824,0.44101837,0.2788962,-0.41622382,0.90143406,-0.116636276,0.32540998,2.3793743,-0.06668969,-0.20383999,-0.20113197,0.27893156,0.27738243,-0.049633905,0.26408082,0.004294699,-0.1133164,0.22236757,0.20169285,0.26839218,0.058434986,0.092506304,-0.021405084,0.62531555,-0.22111386,0.12231756,-0.13422191,-0.08667627,0.40059772,0.17095274,-0.27214944,0.1780714,-0.018092802,0.5939475,-0.08968338,0.1397342,0.12731978,0.6680653,-0.604535,-0.17395645,0.25846297,-0.21688963,-0.16903645,0.13262111,-0.5089736,-1.1104438,-0.048218247,-0.2692311,0.38362482,-0.34725988,0.32512343,0.04263696,-0.35184753,-0.07541397,0.055038385,-0.33332986,0.3339612,0.42371547,0.30521142,-0.39015588,0.20305133,-0.34402475,-0.04271056,0.18568237,0.25600126,0.18090907,-0.42937344,0.36797136,-0.24414462,-0.2595699,-0.36847854,-0.041584074,0.08073228,0.32970247,-0.77094764,-0.22107317,-0.17786556,-3.4515064,0.063079014,0.026375556,-0.033128798,0.1815476,0.53293395,0.03480669,0.3889347,0.0328227,-0.1503221,0.00805161,-0.0855033,0.2289998,-0.2610846,-0.35721916,0.17653455,-0.030447684,-0.15596242,0.05091931,0.16030082,-0.48919642,0.12769894,0.18465228,0.16838163,0.07380375,-0.29161096,3.5698564,-0.054064494,-0.51895297,0.008603399,0.043288063,-0.20140237,-3.0079243,-0.26240918,-0.0067564165,-0.28331155,-0.0101041645,0.42463,-0.25305063,0.058840353,-0.25735104,-0.023873057,-0.49773145,0.0862979,0.41520917,-0.14065045,0.42341855,0.1220203,0.207769,-0.17206931,-0.48984012,0.17776328,0.18165512,-0.1586121,0.22802068,0.0680001,1.3375468,-0.030308038,-0.108033024,0.051487908,-0.26005653,1.33617,0.18841392,0.74173665,-0.0770439,0.5354136,0.012539546,-0.232885,0.11748579,-0.43387455,0.16452925,-0.39245299,-0.059978403,-0.86702406,-0.2331602,0.07099196,-0.23475647,-0.37323982,0.247972,-0.08947105,-0.2079699,0.34961492,-0.058425564,0.056869633,0.08516061,0.5198047,-0.24725465,0.37732556,0.4052938,-0.28013965,-0.14252052,0.011419531,-0.5372128,-0.3182187,0.07309106,0.19151932,0.3997919,-0.28592685,0.3201088,-0.30832678,-0.24393001,0.10628485,-0.28499728,-0.22035137,0.016097894,0.18862237,0.0059139403,-0.3808043,0.4685824,-19.637098,-0.09624338,0.29225856,-0.05101362,-0.5222151,0.17599523,0.76267225,0.18853946,0.11848652,0.022998063,-0.36752146,-0.054382935,0.025730612,0.4152717,0.35092804,0.37655252,0.03082582,0.006280712,0.033790924,0.21815068,-0.021828888,1.4388757,-0.0058020437,0.004147012,0.2103493,0.34578475,-0.05753019,0.08420993,0.28933376,0.1681954,-0.07510828,-0.25221154,-0.0777034,-0.34675953,0.3028981,0.20267357,-0.5365332,0.75133634,0.24852732,-0.074907154,0.0426381,-0.19222675,-0.059604734,-0.33123714,-0.04979495,0.014612956,-0.1545089,-0.09900787,-0.08913302,-0.040209267,-0.014970591,0.060006183,-0.38294256,-0.21091096,-0.12161678,0.084974885,0.7300743,0.27892107,0.0070113214,0.053209264,0.13705362,-0.10829966,0.041620646,-0.17497157,0.3124961,0.03083542,0.18225993,0.11013261,0.34334812,0.08432653,0.13479567,-0.26647073,-0.010612695,-0.15452205,0.14978267,0.113650896,0.16378602,0.1297408,0.4693091,0.36270198,0.22923687,0.010498535,-0.53279597,-0.25068632,0.16913952,0.11584054,-0.08932205,-0.2148681,0.2841078,-0.009848011,0.15013388,-0.3127183,0.41051623,-0.32365638,0.14679837,-0.35442612,0.39884347,-0.15076561,0.20541887,0.23726961,0.35831988,0.20131437,0.18222289,0.017414328,-0.11260029,0.15344012,0.44711283,0.06078387,-0.18521808,-0.17697826,0.30770952,-0.24361299,-0.20305254,-0.014211786,-0.05430272,-0.01658491,-0.060096752,0.025801528,0.0113720065,0.1387959,-0.4001871,0.10091368,-0.04210816,0.25069955,0.41553357,-0.48997462,0.35812846,0.14068986,0.3528277,0.4353674,0.10622969,-0.16763535,-0.08832306,0.14148761,-0.80938673,-0.065890916,0.27949953,0.22826628,0.99344486,-0.02429534,-0.40923068,-0.19808717,-0.28188887,0.1785262,0.2565558,-0.21562697,0.61638576,0.12469442,0.18106838,-0.45782617,0.077625535,0.7485978,-0.1707191,0.07586675,-0.06856453,0.038704127,-0.05401008,-0.15297043,0.1066979,1.0829681,-0.26420984,0.5827866,0.33293197,-0.2610343,0.18598749,-0.27446648,-0.045024563,0.11661976,-0.18853562,0.24694033,-0.117838256,0.16546653,-0.32135338,0.15574375,-0.21839087,-0.16731022,-0.4826765,0.36410078,0.15812351,0.11208051,0.24337034,0.06177443,-0.061979264,-0.016045654,0.047525857,-0.3592561,0.02257497,-0.24746995,-0.12179093,0.145781,-0.06400271,-0.08269866,0.042393133,0.26393524,-0.26485002,-0.18913467,-0.007962489,-0.17820062,-0.26295525,0.1998136
audio_103,0.21205956,-0.613865,0.562949,-0.37345746,-0.012712524,-0.021485126,0.04855645,0.05295709,0.093065634,0.1295627,-0.31980994,0.12169036,-0.79871774,0.20077556,-0.050780013,0.1747079,0.5619417,-0.055173405,0.14404723,0.21114178,-0.11669396,0.46014106,0.28378284,0.048251648,0.24108857,0.37954032,-0.395265,-0.27020994,-0.31347752,-0.34755197,0.38126615,0.016875898,0.1664913,-0.17084034,-0.5882976,0.33583903,0.3711637,0.32885888,0.017935323,0.9265736,0.62306476,0.08589863,0.51302385,-0.28406352,0.5644069,0.84753424,1.304624,0.02962232,-0.80109704,-0.10732661,0.27012876,-0.09076695,-0.1284231,-0.40476665,0.18266462,-0.006188419,-0.32075578,-0.1082496,-0.0074302177,-0.084091574,-0.24445438,-0.057262585,-0.27107105,-0.0684028,0.06363341,-0.16881199,1.6740739,-0.13780329,-0.06032026,-0.35362422,-0.05164028,0.030144015,0.0909512,0.8471932,0.012854428,-0.33625767,0.17168158,0.21318178,0.35485122,0.11494357,-0.30099005,-0.06300077,-0.60015565,0.039010376,0.5580249,-0.21247824,0.866584,-0.079294175,0.2621158,-0.33032215,-0.3526539,0.3878888,0.5864794,-0.23729776,0.33623165,-0.49334958,0.22069508,0.2853504,-0.10063113,0.22559032,0.047806945,-0.18495408,-0.12051144,0.25027165,-0.6545539,-0.52607375,-0.018717755,-0.2269807,-0.116971985,-0.027165813,-0.21412008,0.62756944,0.18761846,-0.10577485,0.071388476,-0.48512226,-0.4715378,0.6110692,-0.1635587,-0.34856972,0.5431757,-0.9295066,0.11535133,0.40460315,0.27989691,0.106608376,-0.10442264,-0.6666665,-0.39874208,-0.019950196,0.21217844,-0.0814463,0.1964091,0.3756012,0.011963747,0.08403562,-0.27042592,-0.0832036,0.61859566,0.14556459,-0.0057056835,0.17097099,0.6612171,-0.024661334,0.4164058,-0.32518137,0.056087807,0.019604506,-0.21534394,-0.30100343,-0.04183875,-0.35273215,0.36046708,-0.8270318,-0.4937777,-0.34775788,0.2355814,0.6240604,0.1918603,0.09023112,-0.51449156,0.05633519,0.22419792,-0.10164367,0.11053945,-0.0851871,0.33614457,0.21764725,0.99040276,-0.33301523,0.07695869,0.4056894,-0.28196314,0.056323916,-0.14065099,0.3000809,-0.27173707,-0.057928916,-0.21127056,0.82334477,0.39545667,0.25977877,-0.67000663,-0.048905544,0.45292166,-0.16531958,0.031482738,-0.33358982,0.574969,0.23269936,-0.3422882,-0.20846155,0.29670715,-0.035536416,-0.4414211,-0.67323124,0.26043367,0.12194176,0.2326609,0.31181565,0.12775299,0.22826767,-0.09940176,-0.25971004,-0.16137484,-0.22240564,-0.20083565,-1.989074,0.07058051,0.26204866,0.09263443,0.34683642,1.1191446,0.16517311,-0.07076666,0.036136724,0.20664641,0.22012876,0.09803928,0.100243695,-0.039899174,-0.12629242,0.16099052,0.47115493,-0.094002485,-0.0051866183,0.0005403724,0.31384522,0.99876136,-0.015217248,0.3424226,-0.012502169,0.20289753,0.13262838,-0.59906846,0.54369175,-0.26825663,0.2726585,-0.0035946888,0.5229941,0.28855535,0.0704705,0.14565411,-0.22000846,-0.10298281,-0.14904393,0.5700446,-0.49112454,0.380154,-0.8587803,0.47394273,0.33722207,0.26273182,0.725869,0.6423758,-0.2823107,0.03907795,-0.16025515,0.02345064,-0.17128451,0.10164215,-0.28502488,-0.17082208,-0.07878849,-0.61885864,-0.48319364,-0.08350157,-1.0095378,0.08783411,-0.19766912,0.40969446,-0.74044275,-0.8536282,-0.08345641,-0.005807785,0.091161124,-0.27120113,-0.6260506,-0.013125893,-0.19375414,0.18588398,0.08136315,-0.30538902,-0.1402957,0.0933125,0.011735338,0.33823988,-0.788628,0.54443467,0.23093112,0.41806787,0.18752173,-1.628718,0.20588863,-0.26610157,-0.14860328,0.09876046,-0.27008244,-1.0215738,-0.4899445,-0.10616197,0.24900609,-0.305769,-0.041941505,0.00082000485,0.2860787,0.6455697,0.51960444,0.31548652,0.3722317,0.27667466,-0.1606942,0.50188893,0.9053257,0.10428739,0.19806685,-0.6509303,0.24453726,-0.46792462,-0.40532175,-0.14093529,-0.03796234,-0.06934643,0.013906954,-0.108276755,-0.029460764,-0.26947674,0.07475995,0.55520874,0.3586103,0.14346154,-0.4598099,0.1909954,0.6153751,0.20577247,0.1834986,0.46650293,-0.27750367,-0.094205864,0.10967358,0.5573191,0.08162879,0.0072690127,-0.24658775,-0.015851153,-0.05015174,-0.3438299,-0.26367652,0.19890052,-0.3535744,-0.07059045,-0.051977746,-1.0660062,0.09899825,-0.11365171,-0.07101613,0.41722602,-0.5914671,0.5237848,-0.14857322,0.27090997,-0.89566255,0.34597823,-0.593946,0.16574329,0.26331642,-0.15101175,0.06984331,-0.28004858,-0.2799482,-0.3379725,-0.18523283,-0.09078316,0.19430101,-0.0034959945,0.13109931,0.6212883,0.36170584,0.52337193,0.20171863,-0.063193515,-0.11443267,0.48809174,0.52458066,0.4927984,-0.26137322,0.009520702,-0.50983053,0.67617303,0.24296844,-0.27424264,0.13865566,0.10111454,-0.09161479,-0.50909305,0.16516809,-0.7209983,-0.30831057,-0.23805445,-0.034055416,0.11015021,-0.05575007,0.54991347,0.25780722,-0.5698924,-0.06769069,-0.105381064,0.09332501,0.07804021,0.41953596,-0.48822847,0.18840097,-0.037126765,0.007782331,-0.47542614,-0.03999215,0.2819619,0.34316164,1.2747213,-0.27994874,0.20643349,-0.6510453,-0.04171695,0.012495914,0.07917616,0.09333853,0.024431692,-0.1267483,0.004989865,0.034068633,0.006048474,-0.1523938,0.5770172,-0.46370244,0.1961871,0.26414776,-0.014606238,-0.14121161,-0.26301774,0.17545548,0.47733003,0.20549934,-0.0016618735,-0.65864015,-0.22801235,0.02217536,-0.1598869,-0.024020674,0.29975045,0.027328623,1.2372609,-0.108564556,0.35224223,-0.12841958,0.22071438,-0.28459486,0.09460191,-0.34006175,0.2539425,0.15103686,-0.48638663,-0.37046617,0.08704072,0.11986766,-0.113514885,-0.5595902,0.13930379,0.6989211,-0.04512098,0.07111825,-0.3140713,1.3251569,0.27339408,-0.1446783,0.38013482,0.15280712,-0.4838823,-0.27555233,0.3750703,0.1667134,-0.23921776,0.05614527,0.12496097,-0.52367127,0.33397266,-0.52560925,-0.09883257,-0.33089378,-0.28716114,-0.013289853,-0.13515747,-0.59349203,-0.32157665,-0.4350437,-0.32151508,-0.6212066,0.6106098,-0.11362477,-0.37048954,-0.14659184,0.031952877,0.23435964,-0.081167415,-0.06967423,-0.05311462,-0.79283565,0.3508756,0.133368,-0.3065084,-0.24281852,-0.24211235,7.700243,-0.04127987,-0.081119925,0.20544414,-0.15044259,-0.21131793,0.75240946,-0.44017735,0.37067008,-0.115666114,-0.6726948,-0.36202854,0.33556125,0.40319005,0.09899276,0.31063348,-0.66213864,-0.03258318,-0.20212047,0.33331987,0.37109944,0.16142978,-0.102245525,0.2768518,-0.11868314,-0.69463974,0.07238942,0.10852602,-0.18669385,0.48333994,-0.25759968,0.33821335,-0.35832906,0.40167668,-0.44923857,-0.057400163,-0.07879104,0.64697987,0.039169565,0.47754875,0.35272503,-0.4815349,0.44694582,-0.07068799,0.18861863,-0.96158665,0.15233907,-0.45200616,0.099347256,-0.7730293,0.30464956,0.17681392,0.21200112,-0.25438023,0.33289924,-0.51779586,-0.13188237,0.40662822,0.062347826,0.459298,-0.15936734,0.24534672,-0.66162306,-0.22196533,0.5657139,-0.46693152,0.1862136,-0.39910614,0.35149142,0.041831996,-0.14319617,-0.34693712,-0.07995009,0.109206624,-0.14945827,0.45006296,-0.59716797,0.47048602,0.07599206,0.44150594,0.26559165,-0.104783304,-0.51970094,0.26676008,0.078446396,0.31238917,0.30503634,-0.1585941,0.60397863,-0.45151258,1.1352515,0.6412543,0.12118029,0.03970806,-0.13940024,-0.12933977,-0.623704,0.11318234,0.003283611,0.25343743,-0.013592719,0.38668224,0.24344529,0.7394265,0.21704105,-0.39405385,0.007791541,0.26147294,-0.08502496,0.29480675,0.14217371,-0.29661387,-0.23263691,-0.003038253,-2.9303637,-0.31317997,-0.11325569,0.29225326,-0.10705868,-0.12644391,0.029986724,-0.059506584,-0.44563448,0.66774064,-0.29218695,0.46593913,0.42607307,-0.09168178,0.98019415,0.28754574,-0.24742801,1.1348008,-0.03581729,0.40458035,1.6066916,0.023346297,-0.92789733,-0.06603561,0.22124007,0.35176474,-0.08246559,0.6392479,0.05900207,0.10277805,-0.04450782,-0.1722851,0.6604935,-0.11897756,0.26713285,-0.20410587,0.37349898,-0.24499422,0.27144688,-0.28497738,0.119074926,0.104910076,0.37116024,0.10543956,-0.048400607,-0.10052392,0.3232679,-0.1899005,-0.512223,-0.056892093,0.4748308,-0.638371,0.033000678,-0.053515002,0.31730956,-0.28175786,0.6069271,-0.8061971,-0.5914001,-0.27507645,-0.39274067,-0.47911894,-0.092805825,0.07552676,0.4264159,-0.5183002,-0.034749202,-0.3602644,-0.21946055,0.039033033,0.40329403,-0.21681227,-0.34757996,0.021714639,-0.49821198,-0.0002433012,0.22882679,0.38860357,0.14229241,-0.96898234,0.32579198,-0.42539558,-0.60945475,-0.35399014,-0.31257322,-0.0088163065,-0.12151741,-0.6046116,-0.10591307,-0.05682796,-3.0558467,0.1689464,-0.31810012,-0.13423812,-0.17762078,0.19067061,-0.25782672,0.6750624,0.15680729,-0.33696383,-0.114649385,-0.09859615,0.33547363,-0.08360635,0.024533851,0.039704468,0.05013201,-0.82054126,-0.34154174,0.013581958,-0.3252275,-0.13425215,0.53317535,0.15152471,0.25391346,0.06234425,3.1015782,0.02922362,-0.3604845,0.03593383,-0.011312849,-0.28786922,-2.7803748,-0.21542384,0.08426403,-0.40534967,-0.33046672,0.049889784,-0.34865174,0.1455184,0.13963434,0.24582803,-0.56576544,0.33981636,0.059450004,0.12984978,0.32523763,-0.19102846,0.029592644,0.019146137,-0.34278283,0.1427593,-0.10323554,0.22635883,0.8690596,0.06667229,0.60489804,0.051889367,-0.09250477,0.20091021,-0.15179595,1.4546442,0.024671175,0.6333774,-0.017859165,0.17726633,0.36219802,-0.09159708,0.04298083,-0.3730145,-0.2667207,-0.58635205,-0.09559599,-1.1254998,-0.24222988,0.26628864,-0.22370474,-0.4130295,0.06522016,0.09105668,-0.10619739,0.2533305,0.22986645,0.39182237,-0.19259866,0.19443235,-0.4783781,0.48045638,0.5015385,-0.3433134,-0.35209373,-0.2835799,-0.46649534,-0.33749115,0.2653446,0.2409574,0.5520173,-0.16048367,0.14373018,-0.1383887,-0.28864533,0.1954938,0.047929976,-0.41571644,-0.045787588,0.3876924,0.17955472,-0.11519486,0.47106057,-20.285204,0.4832625,0.064111695,-0.06167774,-0.31828618,0.17662294,0.7471907,0.031072514,0.057138108,-0.14780562,0.024249312,0.13800353,0.332539,0.72688377,0.5961007,0.46261293,-0.41308177,0.30805433,-0.334704,0.13926391,-0.06462484,0.8146192,0.011417894,0.09153474,-0.19537817,0.43458402,0.31456545,-0.1600872,0.37723586,0.060426038,0.050548285,-0.50942564,0.06196029,-0.25899938,0.501591,-0.11210795,0.050884716,0.9924027,0.06781039,0.1981034,-0.19758481,-0.107525915,0.075918384,-0.3202396,0.33002797,0.110367335,0.16407773,-0.039819643,0.10911054,0.23230556,0.08633668,-0.13215601,-0.27376392,-0.19077069,-0.24051769,0.4847487,0.59195435,-0.34060988,0.009521336,-0.047456194,0.01939046,-0.051794555,-0.15853606,-0.10016166,-0.1239902,-0.045733664,-0.012412425,0.117906384,0.5061825,0.0060561537,-0.07396955,-0.52247405,0.43702444,-0.34957242,0.07424799,0.035951752,-0.16498142,-0.09732553,0.05099702,0.16494186,0.3121223,-0.086314924,-0.3626955,0.15804711,0.7390148,0.010220588,-0.20110133,-0.010698394,0.24981926,-0.21371104,0.23469321,-0.63091123,0.25599074,-0.2108428,0.35396004,-0.68577504,0.2691149,0.22146699,0.21861394,0.63515735,0.0033405225,-0.049095303,-0.0077759116,-0.06646409,-0.01373952,0.2068778,-0.073417485,-0.40864548,-0.04764906,-0.2646396,0.4093799,-0.14731699,-0.0905089,0.032563966,0.18502684,0.19209057,-0.45329016,-0.072556816,-0.20908806,0.35483524,-0.43737715,-0.17228045,-0.16891153,0.33294705,0.42894185,-0.36815584,0.18577427,0.71099275,0.53716815,0.086368315,-0.0488659,-0.053780563,0.020212945,0.118916236,-0.63960403,-0.3263686,-0.11970618,0.100837916,0.7865771,0.112297185,-0.5327918,-0.3166123,-0.3402031,0.056247003,0.14224936,-0.7938705,0.39831257,0.44016498,0.15985224,-0.46164012,0.20189849,0.54426676,-0.19553435,0.2177713,-0.07978846,-0.18823983,0.43437323,-0.24571155,-0.23490563,1.0823462,-0.40738976,0.66901743,0.6757659,-0.38944152,-0.023224628,-0.07041134,0.46488664,0.14719468,0.033749346,0.2777759,0.30057144,0.43126,-0.43366072,0.46772158,-0.16697572,-0.6330809,-0.33758056,0.47639805,0.20032126,-0.10698479,0.38323385,0.16716293,-0.32711214,0.10109269,-0.1313882,-0.1740587,-0.4936011,-0.38065535,-0.057702012,0.18265554,-0.43752667,-0.23341452,0.10052923,0.35879645,-0.3644099,-0.18913075,-0.05695239,0.24830934,-0.8631795,-0.03589156
audio_104,0.08989044,-0.1126835,0.3209287,-0.3524549,-0.0045758453,0.057835035,-0.09696205,-0.062942564,-0.15724002,0.10164921,-0.3303543,0.23911627,-0.539732,0.28968507,0.02607461,0.15028341,0.47782838,-0.34926486,0.021561041,0.016733658,-0.1437225,0.43635035,0.103851266,0.37644792,0.2825839,0.3429332,-0.65258956,-0.22937918,-0.18624988,-0.18354459,0.5304749,0.18492761,0.20243524,-0.07688113,-0.478237,0.6243805,0.40374526,0.09826337,-0.16564465,0.6343441,0.63864356,-0.04224225,0.40230694,-0.34086472,0.71804523,0.60219353,1.0728133,0.39782578,-0.8186216,-0.34839317,0.40631753,-0.09881836,-0.1897199,-0.3413593,0.3537999,-0.02923735,-0.23846401,0.13440889,-0.065958366,-0.18900512,-0.33449927,0.27895617,-0.29466262,-0.14227273,0.2963996,0.09961849,1.1764866,-0.271013,-0.09059078,0.19791718,-0.19158384,0.019530332,0.047204413,0.5622575,-0.14981218,-0.10672597,0.22614864,0.34762418,0.20314558,0.17693883,-0.07418958,-0.2760776,-0.5028365,-0.123798035,0.4607552,-0.17747523,0.6661528,-0.05935638,0.17773096,-0.38342518,-0.5156718,0.21864367,0.46288082,-0.06496843,0.2848428,-0.21664612,0.3996377,0.11375925,-0.061373346,0.3258807,0.19777581,-0.19818118,-0.30721712,0.2046831,-0.2769012,-0.5311537,-0.0951952,-0.20060442,-0.22218105,-0.018827599,-0.22278121,1.0864754,0.1793459,-0.23244184,0.269108,-0.50605685,0.008067097,0.33191395,0.019523276,-0.26684576,0.4777523,-0.3216766,-0.022812175,0.3876018,0.081435665,-0.34507215,-0.06643657,-0.57115483,-0.59858125,-0.05309966,0.095923364,-0.041978054,0.05075294,0.49165,-0.16720533,0.022261586,0.017192263,-0.15394035,0.48171636,0.34220248,0.21609534,0.03352551,0.77297604,-0.23968649,0.3179999,-0.3360923,0.25408956,0.30341855,-0.009168256,-0.12567563,0.031061772,0.048792087,0.21813594,-0.4558637,-0.29407883,-0.24323826,0.14215039,0.5044184,0.012523583,0.25096792,-0.28332296,-0.024432465,0.19557145,0.07374255,-0.2601379,-0.18508369,0.41841462,0.3024091,0.8086103,-0.61702937,0.25408855,0.376881,-0.124780014,0.063039504,-0.41101015,0.06961077,-0.09262001,0.012012098,0.09415128,0.8788949,0.47362906,0.35878888,-0.83019835,-0.0637705,0.7226428,-0.45143443,-0.032397147,-0.37304762,0.31133997,0.14209616,-0.317948,-0.31908086,0.2760377,-0.15020676,-0.69337296,-0.60421765,0.24495028,0.2540032,-0.20197038,0.23336627,-0.027296187,0.109755404,0.12860437,-0.2346233,-0.22826315,-0.2665321,-0.35411417,-1.2979904,0.19637008,-0.039212216,0.26826647,0.17223907,0.7292998,0.17977266,-0.04236532,-0.030704303,0.12530157,0.2661599,-0.04587899,0.21070966,0.3410544,-0.09763291,0.21094424,0.288235,-0.29119027,0.19237243,-0.0678991,0.40947086,0.5054783,-0.35888672,0.15359347,0.08570279,0.18630631,0.23647076,-0.3556811,0.57170993,-0.0021996552,0.19492938,-0.2496427,0.2869696,0.21899672,0.3020409,0.07555169,-0.4135222,-0.23683964,-0.100220665,0.65062934,-0.4394879,0.42457837,-0.7116802,0.60464317,0.38251564,0.279446,0.4908887,0.5874125,-0.15300131,-0.01182571,0.12503107,0.08988808,0.05623118,0.06389796,-0.3576909,-0.2737176,0.35121867,-0.6476964,-0.36789405,0.22007777,-0.3980427,-0.06566519,-0.01759756,0.24059068,-0.56178313,-0.77668744,0.03161994,0.47468895,-0.1155219,0.1725768,-0.26194224,-0.44481054,-0.028144013,0.053375106,0.19043033,-0.0036552572,0.0022433577,0.030666426,0.11461207,0.6574581,-0.63786185,0.42214817,-0.009807497,0.37682962,0.40112093,-1.190211,0.17745288,-0.012496316,-0.12521803,0.04355313,-0.30970114,-1.0551696,-0.531054,-0.40612084,0.60485125,-0.20624131,0.20774783,0.48576108,0.30395794,0.6383675,0.3814952,0.28142667,0.1667436,0.28595006,0.19645965,0.54301643,0.6061159,0.33305144,-0.20169872,-0.6293122,0.03929708,-0.23564862,-0.26282722,0.012884161,-0.29438183,-0.13904582,0.41187033,-0.04097162,0.037408754,-0.19547957,-0.05538549,0.27076098,0.09026749,0.05868866,-0.45231268,0.24088916,0.57915956,-0.023089396,0.06239258,0.46614537,-0.27971965,-0.12713343,0.12599112,0.5367225,0.081202865,0.09551492,-0.05459819,-0.24577262,0.006100803,-0.37112308,-0.34110534,0.081988424,-0.2804745,-0.0954526,0.043270487,-0.46499223,0.23797877,0.050162032,-0.07204285,0.45088062,-0.2983983,0.49927807,-0.21363232,0.4567251,-0.44786826,0.76201344,-0.43738472,-0.12534088,0.12713653,0.07566689,-0.13624594,-0.3505015,-0.099994086,-0.054710705,-0.07617819,0.07332813,0.09948057,-0.11650702,-0.06511523,0.47643816,0.4593485,0.6584739,0.5078362,-0.15706521,-0.20766279,0.0040520043,0.3800775,0.54382706,-0.392306,0.24149162,-0.5561963,0.40177405,0.27127698,0.041709326,0.12226146,0.08772195,-0.008938703,-0.44707233,0.1452043,-0.6601664,-0.09683022,-0.31725842,-0.085076705,0.37952623,0.10242093,0.3812204,0.21190272,-1.0567893,-0.15541078,-0.06844462,-0.23304072,0.12390767,0.21331012,-0.73287773,0.08079933,-0.15624839,0.25145188,-0.26236355,-0.09583483,-0.010918739,0.4983486,0.9681953,-0.16218232,0.23402831,-0.39391822,0.02844601,-0.40189227,-0.15298554,0.5854543,-0.18704051,-0.2509605,-0.19550261,0.09378511,0.031542953,-0.27330795,0.3674592,-0.14050226,0.1461973,-0.11249966,-0.14428139,-0.32290396,0.19651395,0.22596101,0.6103885,0.3269818,0.08265999,-0.31279936,-0.12401336,-0.066939,0.07692531,-0.0366339,0.31675667,-0.013543795,1.0855297,-0.22539464,0.06945677,-0.052532475,0.52121645,0.073124796,-0.40029633,-0.21602613,0.41346088,0.40330848,-0.38670915,-0.20423272,-0.2867762,0.12942863,-0.12918092,-0.5719234,-0.063043766,0.6184088,0.045438953,0.20909485,-0.43902317,1.1256928,0.234272,-0.3739099,0.48144037,0.008352378,-0.35795665,-0.27965415,0.28132248,0.21298552,-0.2683144,-0.031608645,-0.12791677,-0.27064437,0.42099282,-0.53535396,-0.1929488,-0.35645887,-0.19536813,-0.034597494,-0.023338705,-0.41518688,-0.7322984,-0.8082714,-0.3136324,-0.5757301,0.45129356,-0.24284105,-0.13642798,-0.32528856,0.3104661,0.34254125,0.293263,-0.065701544,-0.033121876,-0.39280427,0.034473367,-0.0038396383,-0.3836318,-0.45381525,-0.2395867,8.486732,-0.0015204076,-0.4804516,-0.1445685,0.07601635,-0.10570006,0.659062,-0.6573825,0.65715367,-0.028344529,-0.21960437,-0.83653665,0.07796579,0.40228435,0.03769402,-0.044092964,-0.55861264,0.3134777,-0.2664068,0.15939163,0.4186277,-0.022142112,-0.3614601,0.013378637,-0.0286228,-0.472186,0.043340165,0.027657183,-0.121454,0.34127384,-0.32542837,0.20419362,-0.1612235,0.15247439,-0.19936858,-0.22061276,-0.2358508,0.36597562,-0.20429556,0.33961552,0.2758112,-0.4014934,0.11383739,0.040221155,0.54515594,-0.8398403,0.074693665,-0.09183979,0.033557612,-0.47085324,0.14056231,0.5125887,0.38286155,0.13468842,0.15401198,-0.15638296,0.24134104,0.1910823,-0.048170302,0.14127244,0.06481572,0.42530957,-0.4850897,-0.46888396,0.36292845,-0.6934962,0.42766094,-0.28638393,0.3036379,0.111130826,-0.09969019,-0.5040825,-0.27464256,-0.14401864,0.2627493,0.22466333,-0.6009471,0.5896212,0.11701137,0.36765942,0.43488717,-0.12357405,-0.32314527,0.15884487,0.26948184,0.21787344,0.12986693,-0.13751903,0.49964076,-0.60567564,1.0102264,0.37903234,0.09420853,0.13774262,-0.09104771,0.032100003,-0.60466135,0.19699425,0.09455296,0.20652445,-0.037046906,0.17243482,0.18047777,0.6213653,0.48559114,-0.4109617,-0.11897682,0.3749515,-0.055482246,0.33366027,0.16691956,-0.023330664,-0.113831446,-0.07798109,-3.6169326,-0.42431447,-0.20219591,0.440142,-0.019020883,0.14893015,0.24143238,0.092796095,-0.36123943,0.37198824,-0.13005899,0.23232685,0.31776112,-0.22719468,0.65412885,0.328015,-0.7206805,0.7150628,-0.11371749,0.51873326,1.899064,-0.26238087,-0.48783955,-0.3430769,0.67882144,0.4507777,0.04385155,0.5101885,0.057814386,-0.2992654,-0.28640705,-0.28150287,0.49219364,0.07329888,0.32524416,-0.08557912,0.12826864,-0.1739001,0.2705074,-0.27719167,-0.17951913,0.16139445,0.3355748,-0.011285628,0.09022157,0.0010029712,0.36367798,-0.33371684,-0.28355223,0.09269415,0.3564469,-0.5097094,0.16240615,0.055054985,-0.22364376,-0.3055049,0.49787927,-0.4969786,-1.1003795,-0.31501222,-0.29699892,-0.34943786,-0.32985035,0.22498992,0.15046076,-0.5156945,-0.12732151,-0.3865924,-0.33310634,0.033038173,0.41050765,-0.041371223,-0.3312487,0.20168883,-0.18783022,-0.24960941,0.37824368,0.26531518,-0.023756528,-0.99957055,0.46520218,-0.4966411,-0.6801906,-0.5048102,-0.110373236,0.28329518,-0.029060513,-0.9163337,-0.12917313,0.17725238,-2.749794,0.38535827,-0.4531511,0.023171075,-0.08845182,-0.33835986,-0.22260094,0.59540325,0.076000646,-0.24797279,-0.1294377,-0.21604924,0.60048467,-0.42677224,0.19683696,-0.1273332,0.02225872,-0.62159675,-0.1516251,-0.15803628,-0.12931834,-0.29052654,0.14380619,0.26926336,0.0077846996,-0.01837667,3.6825404,0.23981543,-0.16747378,-0.16469193,0.05021517,-0.32044816,-3.2034798,-0.42145756,0.050378677,-0.27215374,0.014349882,0.10080023,-0.26685923,-0.056686204,0.049524285,0.24900724,-0.36953464,0.0833038,0.15050553,0.32855436,0.057728853,-0.059122767,0.13233908,-0.08164586,0.11089679,-0.01925813,-0.3111655,-0.22284885,0.45717525,-0.22730547,0.76765925,0.059942104,0.32960594,-0.1687574,-0.019985925,0.683835,0.08448094,0.587903,-0.38513544,0.30866626,0.1828414,-0.1239326,-0.09266996,-0.122278534,-0.26322064,-0.3840112,-0.09975355,-0.9976092,-0.44917437,0.31740725,-0.21641788,-0.2190578,0.19374241,0.14162706,0.102366276,0.55030715,0.3224839,0.5362218,-0.33534846,0.31490332,-0.5279328,0.44748768,0.21470518,-0.44780326,-0.19506696,-0.18662845,-0.59061,-0.17876022,0.24752122,0.16484752,0.22845751,-0.37621307,0.3055401,-0.4513605,-0.088528685,0.35651457,-0.034536436,-0.48873278,0.20800821,0.40662408,0.0057854434,-0.027616752,0.27353778,-20.999216,0.060716424,0.22587357,-0.20230497,-0.38064104,-0.02004921,0.57193464,0.11491315,-0.05272235,0.08120729,-0.2156365,0.028100772,0.075304635,0.5105223,0.48024097,0.28270975,-0.38635814,0.41183442,-0.19692892,0.40082487,0.090048246,0.39426076,0.18869653,-0.16088733,0.120007664,0.5277491,0.24429479,-0.1308895,0.24623165,-0.05348732,0.07156839,-0.49342427,-0.1703947,-0.18499506,0.3077474,-0.028930197,-0.30157673,0.8693786,0.32765785,-0.1315832,-0.10034045,-0.0005886191,-0.26187688,0.033231426,0.19151992,-0.24966618,0.27608395,-0.25575206,0.16575055,-0.16759798,0.13203195,0.1705798,-0.038807802,-0.023963256,0.16898306,0.081674464,0.12971444,-0.043027233,0.06459204,0.08740588,0.2279147,0.27036455,-0.16178831,-0.34235483,0.15868026,-0.18009487,0.10022253,0.25004506,0.57751805,0.14044343,-0.11974384,-0.688996,0.48963612,-0.32121667,0.13325483,-0.25276387,-0.061685037,0.10745445,0.14751932,0.20132582,0.23660694,-0.29010248,-0.097450204,0.057120092,0.4118562,0.26505956,0.030597186,-0.4952932,0.23193543,-0.38424104,0.26822168,-0.58693403,0.38330078,-0.2333188,0.24777626,-0.22681372,-0.09105321,0.25501478,-0.037710883,0.74775475,0.20291038,0.17219539,0.057533443,-0.08591639,-0.050811872,0.3678936,-0.032658663,-0.20529501,0.14758077,-0.10366936,0.35237923,-0.117203616,-0.3059754,0.094700284,0.01052416,0.43875787,-0.57398474,-0.036888853,-0.0977835,0.3120211,-0.24923071,-0.24553663,-0.09888943,0.2874308,0.8545324,-0.28587872,0.029833915,0.64360183,0.6633628,0.24515516,0.018275721,-0.23044325,-0.20845847,0.39077872,-0.87635803,-0.39744753,-0.1947318,0.0063290563,0.62697244,-0.040052526,-0.4375642,-0.31881225,0.15397054,0.16398743,0.18045029,-0.6246251,0.70151776,0.4546559,0.23291828,-0.324893,0.18610899,0.6609178,-0.22205009,0.36253068,-0.11108451,-0.18883352,0.27298242,-0.15258408,-0.34592664,1.0244892,-0.4207173,0.6785226,0.5628363,-0.19354042,-0.0025943192,0.05746839,0.35178807,0.58498603,0.32548204,0.48807794,0.18019022,0.19348243,-0.13152221,0.06523508,0.05354067,-0.46641606,-0.4194375,0.22410177,0.08170086,-0.111289285,0.26701003,-0.09630255,-0.43301818,-0.18157461,-0.08511303,-0.533199,0.21781713,-0.16204785,-0.17980893,-0.05661192,-0.328705,-0.09034221,-0.03353662,0.17932521,-0.4176881,-0.29565132,-0.0570721,0.021844313,-0.47306967,-0.1440605
